#Parameter# /_2 {851,50} 680801 ZERO_GRAD
-1.73022866e-01 -2.58465618e-01 -6.53687775e-01 -1.43374622e-01 +2.00524464e-01 +1.19107559e-01 +2.65528679e-01 +1.30606368e-01 +2.20664769e-01 -4.61218879e-02 -3.72723378e-02 +2.25948259e-01 -1.62276309e-02 +1.65959001e-01 +1.04058608e-01 -1.31925702e-01 +1.49581255e-02 +4.16436754e-02 +1.24415178e-02 -2.67628152e-02 +8.92307833e-02 +2.24839970e-02 +7.35358000e-02 +1.67700976e-01 -2.10088342e-01 -2.90605966e-02 -4.87067588e-02 +1.51107609e-01 +1.58028170e-01 -1.34093761e-02 -1.03933543e-01 -5.64495213e-02 -6.69898987e-02 -1.50130928e-01 -1.45108700e-01 -8.27734247e-02 +4.37571071e-02 -2.18837261e-01 -1.07104585e-01 +1.15669236e-01 +1.79062396e-01 +3.19066197e-02 +9.83853117e-02 -1.80440292e-01 +1.75978094e-01 -2.56164163e-01 +4.06922325e-02 -1.19947888e-01 +2.18623921e-01 +1.57506019e-01 +2.66130082e-02 -6.35955781e-02 +1.96547315e-01 +9.76964906e-02 +7.28505552e-02 +1.52027309e-01 +2.43884344e-02 +3.39111358e-01 +7.04862624e-02 +6.13135517e-01 +1.41760614e-02 +1.79173157e-01 -2.14721322e-01 +7.90587291e-02 -1.62214122e-03 -1.42531201e-01 -2.59370338e-02 -5.76276705e-02 +4.00188714e-02 +4.69350778e-02 +5.67081757e-02 +9.33290273e-03 +5.83606362e-01 +1.66137870e-02 -4.20729890e-02 -3.10761947e-02 +3.42571646e-01 +2.33981401e-01 -4.24513146e-02 +1.25717819e-01 +9.61028636e-02 +6.04678243e-02 -1.56605449e-02 +2.44595334e-01 -4.22867388e-02 -2.47826636e-01 -2.52476037e-02 +5.36506176e-02 +9.54324678e-02 +2.98276573e-01 +1.29382655e-01 +1.68028802e-01 +1.02881558e-01 +1.11432657e-01 -2.15005860e-01 -1.32500112e-01 +7.31319860e-02 -3.63443978e-02 -2.76788592e-01 +8.78583714e-02 +3.73220146e-02 +5.94781078e-02 -1.32662386e-01 -8.47957283e-02 +4.20713335e-01 -7.84116909e-02 -1.07266314e-01 +3.72083366e-01 -1.78644046e-01 +2.41153076e-01 +4.22104001e-02 +1.11702733e-01 +1.65633336e-01 +5.56233712e-02 -1.00199617e-02 -3.31090242e-01 +5.40403008e-01 -2.39291638e-02 +9.42581296e-02 +4.84472401e-02 +3.18483770e-01 +1.92601383e-01 -7.78426509e-03 -9.53633562e-02 +3.98628898e-02 -1.39514491e-01 +2.00758707e-02 -2.29833685e-02 -1.19442865e-02 +7.87253678e-02 -1.27780110e-01 +9.08311084e-03 -1.31651014e-01 -6.05122447e-02 +4.33094949e-02 +9.54782665e-02 +5.74014001e-02 +4.67837090e-03 -3.26252639e-01 +1.03096934e-02 -2.24153548e-01 -2.31906101e-01 -3.67636569e-02 -8.14252272e-02 +4.55032662e-02 +1.55499309e-01 -8.21032003e-02 +1.08877987e-01 -1.30719259e-01 -8.27281922e-02 +2.39708588e-01 -3.25038612e-01 -6.73278049e-02 -2.34153820e-03 -2.59402432e-02 -3.44327211e-01 +6.95133284e-02 -1.60849482e-01 +2.75567710e-01 -2.18812618e-02 -1.67493569e-03 -2.10394561e-01 +3.69851738e-02 +1.02266356e-01 +1.56810939e-01 -6.10558800e-02 -6.15830421e-02 -2.79926807e-02 -4.18592691e-01 +3.58232483e-02 +2.77627498e-01 -1.77251548e-02 +2.88282689e-02 +1.74849257e-01 +1.82165906e-01 +2.49703024e-02 +1.09799594e-01 +1.37200635e-02 -5.91864698e-02 +8.85031149e-02 +5.73444739e-02 +1.03795752e-01 +7.29563907e-02 +5.68199679e-02 +9.12415460e-02 -1.70485284e-02 -4.47362103e-02 -1.00589069e-02 +1.56743169e-01 +1.25419393e-01 +1.48795560e-01 +2.85645932e-01 +3.13751400e-02 -6.59369677e-02 +1.58338975e-02 +1.28630102e-02 +1.52692674e-02 -3.58523615e-02 -5.77003546e-02 -1.97938487e-01 +3.88666429e-02 -3.11369807e-01 -8.42357278e-02 +1.21606871e-01 +8.97324756e-02 -1.80749699e-01 -3.23540010e-02 +9.42967683e-02 -2.44809873e-03 -2.90686749e-02 -4.57618525e-03 +2.20145613e-01 +7.65147852e-03 +9.26414803e-02 -1.10435551e-02 -8.94243643e-02 +6.48101047e-03 +2.10209399e-01 -9.89144221e-02 +8.96780044e-02 -7.54068568e-02 -3.97383347e-02 +1.99022964e-01 +5.62765226e-02 +3.61851782e-01 +6.97065145e-02 +3.47271301e-02 +1.58914886e-02 +2.99301613e-02 +2.23676220e-01 +4.01099697e-02 -1.08873092e-01 -8.25971812e-02 -6.56076670e-02 +1.18124999e-01 -6.51288480e-02 +1.70463428e-01 -2.05891393e-02 +2.55479544e-01 -4.32505198e-02 -3.11616361e-01 -1.78549588e-02 +7.35523626e-02 -7.36885965e-02 +1.09737642e-01 +5.56197539e-02 +1.13459006e-01 +3.23109441e-02 -3.68796960e-02 -7.89865106e-02 +1.76331311e-01 -2.20757127e-02 +1.69717684e-01 -2.76643410e-02 +2.85879318e-02 +4.19696942e-02 +5.41164167e-03 +3.12551409e-02 +1.67247176e-01 +9.59349349e-02 +3.36403280e-01 -1.02188572e-01 -8.13468993e-02 +8.03351328e-02 +1.01069458e-01 +5.75931668e-02 +1.47085518e-01 +6.36289362e-03 -5.12073562e-02 +8.23889822e-02 +1.18421882e-01 +3.08124050e-02 +5.45271374e-02 +7.12240860e-02 -2.16890424e-01 +5.94532266e-02 +1.83161110e-01 +1.43016964e-01 -2.21212464e-03 -1.82895958e-01 +4.18493599e-02 +1.66244939e-01 +1.74720570e-01 -2.39448011e-01 -1.59673244e-01 -5.03430441e-02 +3.05056311e-02 -1.00160979e-01 +7.20652714e-02 +8.24438930e-02 +5.21070808e-02 +3.25270928e-02 -3.67462449e-02 +4.06507254e-02 +1.71310261e-01 -1.25183791e-01 +1.07317222e-02 +3.21478136e-02 +9.72619355e-02 +1.01850793e-01 +1.95016002e-03 -4.48904783e-02 +1.86130464e-01 +9.94438455e-02 +2.57038325e-01 -4.78234068e-02 -2.37975791e-02 +8.42570215e-02 +3.18894573e-02 -1.70097917e-01 -9.00518447e-02 -8.13531503e-02 -1.72158599e-01 -7.48567134e-02 +1.22142956e-01 -7.86330998e-02 -1.11637257e-01 +1.62290633e-02 +9.31787342e-02 -8.56511444e-02 +7.18155429e-02 +1.16621042e-02 -8.57850090e-02 -2.80666295e-02 +6.02711923e-02 +2.31818274e-01 +1.15650602e-01 +1.23851821e-01 -7.18346685e-02 -2.74450649e-02 +2.96926945e-02 +2.15818845e-02 +3.49189751e-02 -2.45448276e-02 -3.44577998e-01 -1.08607404e-01 +1.44141376e-01 -7.65620498e-03 +7.50382943e-03 +8.57036561e-02 +6.46104291e-02 +2.93188076e-02 -1.47818513e-02 -1.25557268e-02 +1.90005049e-01 -1.86619014e-01 +2.02374603e-03 +1.62232265e-01 +1.68154135e-01 -2.39873417e-02 -3.49664465e-02 +6.04803674e-02 -3.19578946e-02 +3.02646160e-02 -4.19901796e-02 +8.16376731e-02 +4.84635681e-02 +2.48981994e-02 -1.30753323e-01 -1.49644136e-01 -2.18786776e-01 +1.51796425e-02 -3.80207598e-03 +1.70421284e-02 +1.53147832e-01 -4.48916527e-03 -1.17731981e-01 +3.10146511e-02 +4.47322503e-02 -1.26885086e-01 -7.71747455e-02 -1.75917614e-02 -3.36396694e-02 -2.70328838e-02 -1.07548133e-01 +3.96531932e-02 -1.05868712e-01 +7.28590265e-02 +1.02114819e-01 -6.32600114e-02 -9.73821729e-02 -2.14109924e-02 +7.56530315e-02 -6.37863427e-02 -9.59110111e-02 -1.12184189e-01 +1.42724011e-02 +1.63542088e-02 -7.11884126e-02 +3.72797213e-02 -5.43254688e-02 +4.38545048e-02 -1.71476509e-02 -5.40914014e-02 +1.10726483e-01 +5.93581013e-02 -2.09634721e-01 +4.72633541e-03 -9.05672088e-03 +3.28452326e-02 -2.03578711e-01 +3.34322341e-02 +7.21248165e-02 +1.97759401e-02 +1.19473100e-01 +7.57194236e-02 -1.13778964e-01 -1.15835138e-01 +4.80783544e-02 -1.76992550e-01 -3.10077742e-02 +8.15942362e-02 +5.65992817e-02 +8.88351053e-02 +1.14481293e-01 -9.35427919e-02 +7.47216791e-02 +5.90298660e-02 +6.38661683e-02 -1.20517962e-01 +2.71088053e-02 +8.73357430e-02 -1.71471350e-02 -1.41796678e-01 -6.76885620e-02 +7.45614916e-02 -6.75305575e-02 +6.15659878e-02 +4.25864346e-02 -3.32058035e-02 +4.74555679e-02 +2.03835905e-01 -9.38618034e-02 +1.69916928e-01 -6.13095984e-02 +5.77529259e-02 +5.79349510e-02 -5.17747551e-02 -1.49375841e-01 +3.92888002e-02 +1.55026596e-02 +1.57910883e-01 +1.93586629e-02 +8.38774964e-02 -1.59334838e-02 -9.89056304e-02 +1.09002382e-01 +5.22560515e-02 -1.73579812e-01 +1.01446705e-02 -8.04775730e-02 +5.79642132e-02 +1.08426280e-01 +1.46517321e-01 -2.85380390e-02 -3.36795337e-02 +5.97959459e-02 -2.73813214e-02 -2.53414005e-01 +7.44417608e-02 -1.92017198e-01 +3.44299674e-02 +1.70281485e-01 -6.90121800e-02 -2.97575831e-01 +6.21903576e-02 -5.74328117e-02 -1.23335682e-01 -1.87441222e-02 -2.17884197e-03 -1.26508623e-01 +4.32047285e-02 +7.87721202e-02 -8.76252633e-03 +8.48008841e-02 +4.14610356e-02 +4.62303460e-02 -2.13547841e-01 -9.34862625e-03 -3.42583843e-02 +2.32207812e-02 -4.59375270e-02 +5.37576973e-02 +2.24888939e-02 -3.36835176e-01 +1.59224793e-02 -4.04137895e-02 +2.21215189e-03 -8.91202018e-02 -9.97391939e-02 -8.26591998e-02 -7.33356997e-02 +2.40192227e-02 +1.36569485e-01 -1.50279999e-02 -1.16796140e-02 -1.43006653e-01 +3.32290679e-02 +8.24718773e-02 -9.74620730e-02 +1.55477688e-01 -5.67033738e-02 +1.15102800e-02 +2.43885666e-02 +1.16473269e-02 +2.58729812e-02 -6.92020059e-02 -2.21856143e-02 -1.93423906e-03 +6.35227785e-02 +8.40094313e-02 -1.49402156e-01 +8.80408473e-03 +3.34331319e-02 -2.38478370e-03 -5.17203771e-02 -3.16715576e-02 -8.37585926e-02 -4.27511670e-02 +2.92629022e-02 +1.25460073e-01 +3.32316309e-02 +1.02360077e-01 -6.28043190e-02 +6.75045252e-02 -7.79442340e-02 +3.70255597e-02 +8.82162973e-02 +1.32138744e-01 +1.09271362e-01 +5.61854010e-03 -1.67309850e-01 -2.27783713e-02 +1.16220504e-01 +6.17522448e-02 +1.66157648e-01 +1.52602904e-02 -1.84809174e-02 +1.86956848e-03 +1.84139907e-02 +4.60884981e-02 -6.78553283e-02 +2.90005119e-03 +6.92102686e-02 +3.45805772e-02 +9.07739475e-02 +1.36550954e-02 +1.23427004e-01 -2.25608945e-01 +2.06391096e-01 -9.79225412e-02 -1.09643258e-01 -3.58088948e-02 -8.77640173e-02 -1.74460013e-03 +5.80714131e-03 -3.14022321e-03 -1.73587263e-01 -1.16315842e-01 +5.94674312e-02 -1.61506550e-03 +7.49928132e-02 -1.19641855e-01 +8.94442387e-03 +3.59911956e-02 -7.94687867e-03 -6.53689057e-02 +4.25610244e-02 -2.51129150e-01 -1.65159628e-02 -6.61632866e-02 +1.13158152e-01 +5.01058958e-02 -7.89407045e-02 -7.92720765e-02 -8.05898942e-03 +4.27541044e-03 -1.86354108e-02 -8.69378448e-02 -1.15269795e-02 +1.21616729e-01 +9.49076638e-02 +1.51019260e-01 +1.51293892e-02 -9.93240103e-02 -7.78955519e-02 -1.18750818e-01 +1.00973365e-03 -1.77365705e-01 -1.29471973e-01 -7.30745345e-02 -1.10182263e-01 -2.44461885e-03 +4.30524573e-02 +5.19550927e-02 -9.51974690e-02 -7.82764181e-02 -7.13116303e-02 +1.31539583e-01 -1.85244560e-01 +3.28443125e-02 -1.19310752e-01 -1.05790615e-01 -4.44127172e-02 +3.48218530e-02 -8.83983076e-02 +5.18917143e-02 +1.09186936e-02 +2.28592418e-02 +2.82346290e-02 +4.27656882e-02 -1.15035484e-02 -3.07826921e-02 -2.93366648e-02 -1.81012452e-01 +2.23339722e-02 +4.97657619e-02 +3.91135365e-02 -9.90376398e-02 +7.49448165e-02 -1.92987606e-01 +9.16222855e-02 +7.90828690e-02 +6.71329629e-03 -1.65440351e-01 -1.54011443e-01 -5.77561967e-02 +7.49021620e-02 -4.49122749e-02 -7.57412091e-02 -6.63473532e-02 -8.31162632e-02 -4.07585874e-02 +1.93641055e-02 +3.25329080e-02 -2.50349581e-01 -3.47960331e-02 -1.43179223e-02 +3.09139378e-02 -9.05904248e-02 -8.93751010e-02 -4.63058501e-02 -4.84637767e-02 -3.32913063e-02 -3.40841226e-02 +3.55291329e-02 -6.79261312e-02 -7.07340315e-02 +8.53340551e-02 +6.97451085e-02 +1.13890283e-01 -4.69676927e-02 +7.89550506e-03 -7.03809559e-02 -6.76570684e-02 -6.11868799e-02 +2.27166619e-03 -4.01453637e-02 -7.42614567e-02 -2.26174686e-02 -6.14736862e-02 -1.54834807e-01 -1.18061095e-01 +1.02480352e-02 +4.41384278e-02 -1.33039663e-02 +6.23562969e-02 +9.54680815e-02 +3.19186784e-02 -6.05682097e-02 -5.09531088e-02 -1.36189193e-01 -1.32343069e-01 -1.66995183e-01 -1.50885507e-01 +3.02015692e-02 -6.68491870e-02 -6.05548583e-02 -9.55218971e-02 -2.87647471e-02 -7.82115534e-02 -3.67796794e-02 +4.07716818e-03 -3.42179760e-02 -4.88171987e-02 +6.87218010e-02 -1.98436566e-02 +6.46588653e-02 +5.45967966e-02 +2.25850125e-03 +1.52236084e-02 -1.00583926e-01 -2.17683107e-01 -1.33076301e-02 -1.69828907e-02 -1.01852737e-01 -1.08800754e-02 -2.83305123e-02 -9.24254954e-02 +6.84472471e-02 -9.25815199e-03 +2.77599357e-02 +3.94651070e-02 -1.01800226e-02 +8.27603973e-03 -8.80769512e-04 -5.42390272e-02 -1.46084800e-01 +8.32924545e-02 +1.52280927e-01 -8.42809975e-02 -2.10848525e-02 +4.80540469e-02 +1.40379034e-02 -6.77797198e-02 -3.65174785e-02 -7.62695521e-02 -2.29247175e-02 -5.29627167e-02 -1.96369048e-02 -8.15263912e-02 +4.24239635e-02 +9.05480608e-02 +3.41896364e-03 -2.05624253e-02 +9.69561189e-02 -1.20441116e-01 -2.10853845e-01 +2.26586964e-02 -6.07687943e-02 -7.31486306e-02 +5.81520386e-02 +3.73070166e-02 -2.45565716e-02 +4.02477942e-02 +4.14917506e-02 -3.21315750e-02 +2.24635489e-02 -1.21201850e-01 +4.40414399e-02 +8.43170937e-03 -2.11141825e-01 -2.08321199e-01 -1.96008801e-01 -5.88779431e-03 -3.08966283e-02 +8.32077931e-04 -8.87417123e-02 -1.05842657e-01 -1.06308989e-01 +3.01632360e-02 +1.14757508e-01 -5.52020445e-02 -1.43262371e-01 +6.94113746e-02 +8.50128606e-02 +6.23840168e-02 +2.09782403e-02 +4.78788689e-02 -8.65929648e-02 -1.14550889e-01 +2.42871195e-02 -1.86565202e-02 -1.45451099e-01 +6.28332272e-02 +1.45971896e-02 -2.25904002e-03 +9.79109481e-03 -3.79703008e-02 -2.14747384e-01 +4.83927988e-02 -1.56642243e-01 -1.42465727e-02 -2.19426975e-02 -8.85101855e-02 -5.55315055e-02 +7.90971797e-03 -2.36320570e-02 +1.32601708e-02 -7.34426752e-02 -5.80340289e-02 -6.88051581e-02 +6.26180768e-02 -5.48206381e-02 -4.35658842e-02 -1.96579266e-02 -1.69182181e-01 -1.87489748e-01 +6.27243379e-03 +4.74174917e-02 -1.83822900e-01 -7.41486400e-02 -7.64830858e-02 -7.29228184e-02 -7.90823400e-02 +5.07707559e-02 +1.85814183e-02 +2.95009073e-02 -1.65697373e-02 +9.56396386e-02 +1.17505807e-02 -1.91639811e-01 -1.14441536e-01 +9.28827841e-03 +3.90544124e-02 +1.60364844e-02 +2.29226127e-02 +3.29450667e-02 -4.39235345e-02 -6.27338141e-02 -5.33530787e-02 +2.54027788e-02 -1.91138163e-01 +8.76927450e-02 +3.08724362e-02 -3.95821445e-02 -3.78416739e-02 -3.60944793e-02 +3.22913192e-02 +3.03657018e-02 +1.98169071e-02 +4.33422066e-03 -1.31438179e-02 -1.94274470e-01 -2.78020836e-02 -1.26036093e-01 -4.18100022e-02 -2.11644396e-02 -6.91481531e-02 -1.65314168e-01 +9.85780172e-03 -3.09995767e-02 +9.57034454e-02 +1.10187344e-02 +2.42068544e-02 -2.55347621e-02 -2.46954728e-02 +7.29713067e-02 +4.91062663e-02 -3.36938389e-02 -1.46496911e-02 +1.76540017e-02 +1.89716578e-03 -2.82600559e-02 -5.09672798e-02 -2.45602112e-02 -1.15477238e-02 -3.59815499e-03 -6.11540340e-02 -1.00448273e-01 +2.96113249e-02 +2.30974145e-02 -3.95750165e-01 -6.50322139e-01 -1.10385738e-01 +6.57490790e-02 +5.76503351e-02 -1.43885583e-01 +2.07411930e-01 -5.64684607e-02 -3.94598901e-01 +7.04953000e-02 +2.12534040e-01 -2.19567344e-02 +1.10177673e-01 +8.03385600e-02 -1.40263036e-01 +1.06102295e-01 +1.54188514e-01 -2.23955125e-01 -3.64549458e-01 +1.17875814e-01 +5.81565201e-02 -1.83652230e-02 -5.54937959e-01 -4.73423243e-01 -1.27109051e-01 -5.79293609e-01 -7.16937929e-02 -8.85017365e-02 +1.63032606e-01 +4.00454998e-02 +3.79247442e-02 -1.87413424e-01 +8.34381044e-01 -6.78565204e-02 -8.12852085e-02 -1.39622301e-01 -1.49047151e-01 -1.33249059e-01 +1.21718153e-01 -5.32049984e-02 +2.59393841e-01 +1.42129093e-01 -1.77050680e-01 -7.55484849e-02 -2.78660685e-01 -2.60472968e-02 -5.35013191e-02 -4.60803248e-02 +1.99934855e-01 -1.77088469e-01 -2.32575759e-01 -2.64072567e-01 +2.24267378e-01 +2.14047089e-01 -7.03028813e-02 +2.16111884e-01 +1.90617546e-01 -1.74591020e-02 -1.71511099e-01 +6.19472042e-02 +7.01415613e-02 -2.28405580e-01 -6.50786012e-02 +2.16963701e-02 +6.73469678e-02 +1.48551032e-01 +4.05973457e-02 +1.20926723e-01 +2.25075066e-01 +5.00174239e-02 +3.48061807e-02 +6.45929724e-02 +1.93685703e-02 +5.69612682e-02 +4.08443026e-02 +2.69815922e-01 +7.52182752e-02 -2.69018617e-02 +2.76838571e-01 +6.67247623e-02 -2.22710341e-01 +3.84729356e-02 +3.15824524e-02 -5.59562556e-02 -3.51461828e-01 -2.49576773e-02 +1.98338274e-02 +2.04880729e-01 -1.42321596e-03 +1.70919392e-02 -1.05307937e-01 +5.66295572e-02 -1.33762076e-01 -6.29892349e-02 +8.81904960e-02 -2.27253824e-01 -3.82588133e-02 -2.25293949e-01 +7.89934397e-02 +4.25695181e-02 -2.08291814e-01 -5.32147624e-02 +5.55390761e-06 +3.13734889e-01 -1.27801264e-04 +4.47980314e-02 +1.69747308e-01 -1.21850543e-01 -1.46043897e-01 -1.11417308e-01 +7.25487471e-02 +5.72652854e-02 -2.45980006e-02 +6.27973229e-02 -3.95696133e-01 -1.28697410e-01 -9.66573227e-03 +1.49555832e-01 +6.34741560e-02 -2.73323357e-01 -2.05614548e-02 +6.10434217e-03 +2.61305064e-01 +9.94144678e-02 -2.50919759e-01 +7.79550895e-02 +9.48861390e-02 +8.05740729e-02 -1.95640903e-02 -2.03258246e-01 -2.40833983e-01 +1.28493135e-04 -1.50104268e-02 +7.43953511e-02 +1.91741250e-02 +3.45634967e-02 +3.34284119e-02 -3.51828516e-01 +2.36780550e-02 -2.28781968e-01 -2.53281862e-01 +8.05685818e-02 -7.49335513e-02 +5.34059070e-02 -5.77229522e-02 +3.86867672e-03 -5.13240062e-02 -1.36480346e-01 -8.32809880e-02 -8.18564929e-03 -1.83749825e-01 +7.55642354e-03 -1.24040917e-02 -5.84747642e-02 -2.69234747e-01 +1.94814608e-01 +1.60222456e-01 +3.77325624e-01 +4.94167469e-02 +3.20757553e-02 -1.39394894e-01 +1.65196992e-02 -7.41857290e-03 +2.94441462e-01 -3.67322236e-01 -2.62477528e-02 +8.90203640e-02 -5.86692870e-01 +1.78090334e-02 -9.21082646e-02 +1.53038532e-01 +1.90483123e-01 -5.55774532e-02 +3.05588454e-01 +3.83118377e-03 +1.14167452e-01 +8.35141391e-02 +1.25869699e-02 +1.66251976e-02 -1.89773496e-02 +7.80024156e-02 -1.14948899e-01 -1.19725980e-01 +5.60403988e-02 -7.42032900e-02 +1.20256796e-01 +1.26365712e-02 +1.20654404e-01 -2.82454994e-02 +1.22636326e-01 -2.44065344e-01 +7.96147157e-03 +1.17507972e-01 +1.07188232e-01 +5.59621118e-02 +3.76062691e-02 -3.42466459e-02 -2.53087115e-02 -6.32484332e-02 -3.65005434e-02 -2.31532127e-01 +7.77524663e-03 +4.73878458e-02 -3.29434387e-02 -4.91897352e-02 +1.24536296e-02 -3.72655541e-02 +1.98787212e-01 +9.77758765e-02 -1.00852735e-01 +1.39553040e-01 +1.74644627e-02 +1.04769632e-01 -2.74908748e-02 +5.49009666e-02 +6.57794923e-02 +4.04676422e-02 +1.25868460e-02 +1.24703504e-01 +6.22625351e-02 +1.06022321e-01 +8.62994790e-02 +4.19882759e-02 -8.57842639e-02 -2.11102039e-01 -1.27469316e-01 -1.10864036e-01 +8.05452615e-02 +1.07259369e-02 +6.66860193e-02 -3.33175273e-03 -9.03299358e-03 -1.02041094e-02 +1.61210507e-01 -1.08366460e-01 +9.00530443e-03 -1.00538850e-01 +9.74499360e-02 -6.04491904e-02 -5.94701730e-02 -6.02412075e-02 +3.45273316e-02 +1.95989944e-02 +2.05445826e-01 +1.11729547e-01 +8.43570679e-02 +4.77323197e-02 +5.78221492e-02 +1.40035674e-01 +1.38581082e-01 -1.20117910e-01 -9.38295498e-02 +9.97602344e-02 +8.10649917e-02 +3.73957045e-02 +3.34656537e-02 +5.09465635e-02 +1.33538574e-01 +3.51236016e-02 -1.82116479e-01 +1.19233444e-01 +1.12200208e-01 -7.54508823e-02 +1.08247064e-01 +4.88867946e-02 +2.37449482e-01 +2.98429634e-02 +3.36783193e-02 +2.09649727e-01 +1.01494320e-01 -3.36297862e-02 -8.12002178e-03 +1.10079847e-01 -1.59135051e-02 +1.28604531e-01 -2.44163260e-01 +1.00453682e-02 +1.36622414e-01 +6.77596405e-02 -6.30732104e-02 +3.58107267e-03 -6.14068806e-02 +1.10743798e-01 -6.12925440e-02 +7.10577741e-02 +6.14112727e-02 -5.21452650e-02 +8.93653482e-02 -1.23322224e-02 +1.45432614e-02 +3.03868745e-02 +6.93569779e-02 -3.30258184e-03 +9.78665873e-02 +2.25268435e-02 -5.65944687e-02 -2.06661923e-03 +1.54672757e-01 +5.57184517e-02 -6.16205968e-02 -7.25183561e-02 +2.51041412e-01 +5.65808751e-02 +7.42364526e-02 -4.78667058e-02 -1.39702857e-02 +5.00763580e-02 +1.79275095e-01 -7.17508495e-02 -4.50638123e-02 +6.27446696e-02 -4.48330715e-02 -1.23650199e-02 -1.25157451e-02 +4.76534404e-02 -6.68056607e-02 +2.51754075e-02 +2.00904578e-01 -5.64837381e-02 -5.38670691e-03 +7.81966001e-03 -1.07339639e-02 -9.56428945e-02 +9.63148847e-03 -2.42808070e-02 +2.60221362e-01 -6.39138147e-02 -2.87172608e-02 -3.43129672e-02 -2.12939386e-03 +1.00541502e-01 +1.06333718e-01 +1.02330096e-01 -2.41671398e-01 -3.69898863e-02 +3.45332548e-02 -1.01905480e-01 +1.59471020e-01 +8.21331516e-02 +3.73953246e-02 +9.10996795e-02 -8.68939906e-02 -2.42222399e-01 +1.32357761e-01 -1.69820458e-01 -1.52774125e-01 -1.24508202e-01 -5.68649434e-02 -2.51252409e-02 -7.91668054e-03 +5.26593179e-02 -5.65499030e-02 +1.19999135e-02 +2.78382283e-02 -1.11941710e-01 +6.94133490e-02 +1.26395479e-01 -2.98916817e-01 -2.16364358e-02 -7.03134015e-02 +5.50296307e-02 +6.55375645e-02 +3.94590199e-02 +9.26914960e-02 -7.95882940e-02 -1.68425143e-01 -3.29537950e-02 -4.57431749e-02 +1.29326452e-02 +5.01108877e-02 +1.02137178e-01 -4.39986167e-03 +8.68315324e-02 +3.81503738e-02 +1.22042760e-01 -1.66338742e-01 +2.69595664e-02 -9.54312906e-02 -9.12826508e-02 -6.63759466e-03 +1.03427410e-01 -9.35119519e-04 +1.33423209e-02 -1.13423072e-01 -4.41427939e-02 -4.81276438e-02 -7.54606873e-02 +4.86553460e-02 +2.49664243e-02 +8.30394868e-03 +2.86648311e-02 +4.87817898e-02 +1.91825573e-04 -3.25396620e-02 +7.27935284e-02 -1.02713384e-01 +1.80070698e-02 -7.60461902e-03 +9.95763540e-02 -1.16164289e-01 +7.32893795e-02 +1.37598932e-01 +1.21071748e-01 +2.26751296e-03 -4.06698696e-02 -5.25392480e-02 +2.55619381e-02 +4.86826673e-02 -1.46791980e-01 -9.11261812e-02 +4.21893112e-02 +3.42412107e-02 +1.36597631e-02 +6.37966692e-02 +1.04447883e-02 +3.54964249e-02 +3.96557413e-02 +1.11706562e-01 -5.66488765e-02 -1.28047001e-02 +3.81962955e-02 +7.51836598e-02 -3.03979274e-02 +1.26877457e-01 -6.43282235e-02 -9.67093278e-03 +9.65545997e-02 +9.24296398e-03 +3.70456614e-02 +9.19266492e-02 +4.45782281e-02 +3.35248075e-02 +8.12059864e-02 -2.45661050e-01 +9.60033387e-03 -4.69781607e-02 +1.11126509e-02 -1.58201799e-01 -1.88217238e-01 +2.99732629e-02 +5.22229709e-02 -1.17572077e-01 -1.07933603e-01 +2.21129693e-02 -2.33963013e-01 +1.46181971e-01 +1.00958303e-01 -3.03154767e-01 -3.17385532e-02 +3.49816382e-02 +7.55876163e-03 +7.92816579e-02 -4.51591872e-02 +6.64875703e-03 -1.26730144e-01 -7.03597888e-02 -5.98026700e-02 -1.50612548e-01 +1.06840298e-01 -6.60661981e-02 +1.12095147e-01 +1.55939907e-01 -1.10742010e-01 -2.55235672e-01 +2.34355628e-02 +1.87188238e-02 +3.58889066e-02 -5.17956261e-03 +1.12973228e-01 -3.29660848e-02 +1.53626010e-01 +1.61541119e-01 +1.33179009e-01 +1.48898615e-02 -1.45903006e-01 -2.22150590e-02 -4.52594310e-02 +8.59366730e-02 -6.13582646e-03 +1.06502697e-01 +6.28863946e-02 +6.55498297e-04 +4.09784466e-02 -2.36612812e-01 +3.63025330e-02 -2.72563770e-02 +3.99486627e-03 +3.60930711e-02 -4.57798783e-03 +5.81998341e-02 +5.84175847e-02 -6.85856789e-02 +1.89758450e-01 +3.87872271e-02 -7.87499361e-03 -5.17178439e-02 +8.71203244e-02 +1.24711640e-01 +6.05191663e-02 -8.21029097e-02 +5.41855395e-03 +8.55839103e-02 +7.56261796e-02 -1.52119407e-02 -9.66740213e-03 -3.13651972e-02 -3.01874662e-03 +7.40263537e-02 -4.80573326e-02 +9.57914069e-02 -6.96046501e-02 +1.95079222e-02 +1.45572086e-03 +8.87765829e-03 -2.55860146e-02 +1.39689548e-02 -1.95586961e-02 +1.30695459e-02 +3.41286394e-03 -5.81130013e-03 +8.23801309e-02 -1.22069567e-01 -1.14556566e-01 +7.93836191e-02 -1.69189721e-01 +9.68639404e-02 +1.37710810e-01 +1.19409122e-01 -8.80045593e-02 -1.45462230e-01 -1.05339706e-01 -1.08748697e-01 +1.07926458e-01 +3.89619321e-02 +1.52133331e-01 +7.62273595e-02 +8.49363431e-02 -8.78860578e-02 +1.65723860e-01 +7.05044791e-02 +6.36945739e-02 +3.20345014e-02 -2.85404436e-02 +3.47334109e-02 -1.58305451e-01 -7.83706829e-03 +8.35821629e-02 -2.49430481e-02 +1.05992341e-02 +4.89302836e-02 +2.70547215e-02 -5.59486598e-02 +7.94497058e-02 +1.11607518e-02 +8.84853005e-02 -1.44601725e-02 +6.01004735e-02 +7.93436840e-02 +1.28329517e-02 +8.61978084e-02 -7.99966380e-02 +7.43050594e-03 +1.28331944e-01 +5.19336909e-02 +9.86749530e-02 +3.54653075e-02 -1.00812912e-01 -3.25585723e-01 +1.95632875e-02 +4.10116129e-02 -6.98182285e-02 -4.40853387e-02 -3.39715630e-02 -9.96278673e-02 -4.41723019e-02 +5.38254902e-02 -4.69408557e-02 -7.13625550e-02 +1.29252836e-01 +2.58757714e-02 -1.29511124e-02 -1.59026068e-02 -8.76516029e-02 +1.98201649e-02 +9.74978209e-02 -9.41240191e-02 -3.86923477e-02 -8.50182325e-02 +1.05315261e-01 -3.05865090e-02 -1.07883438e-01 +9.07549411e-02 -6.19474985e-03 -8.56162608e-02 +2.71292161e-02 -8.76317993e-02 -4.75289635e-02 +4.27929871e-02 -4.77148220e-02 +9.38952565e-02 +2.68376395e-02 -4.98773679e-02 +6.80047125e-02 +2.22669877e-02 +9.34041813e-02 +2.03957960e-01 -2.53507178e-02 +1.72683671e-02 +3.29398997e-02 -2.56845914e-02 -9.41833109e-02 +2.59358548e-02 -1.22442767e-01 -2.22813059e-02 +4.21538353e-02 +5.91227598e-02 +5.73002324e-02 +3.91271971e-02 +8.48576427e-02 -1.60862416e-01 -7.11602196e-02 +1.23310059e-01 -2.57573836e-02 -1.74250945e-01 +1.81785226e-02 -6.65253773e-02 -1.07824011e-02 -3.63649614e-02 -1.05692400e-02 +3.80619206e-02 -8.00603814e-03 +8.05292055e-02 +2.30240971e-02 -4.57986929e-02 -2.42986336e-01 +6.35887161e-02 +1.65891629e-02 +5.96504584e-02 -6.72275871e-02 +9.34463292e-02 -1.69576645e-01 +9.11503274e-04 +1.29161417e-01 +2.96422988e-02 +4.52040462e-03 -6.70016482e-02 -7.88088539e-04 +9.71867889e-02 -1.16065070e-01 -7.01017529e-02 +9.46805179e-02 +1.21059299e-01 +9.01261270e-02 -1.22658280e-03 -2.50715446e-02 +4.70722690e-02 +4.11456376e-02 -3.97128128e-02 -1.62962005e-01 -1.25979081e-01 -1.76186651e-01 -4.59801629e-02 -1.15630515e-02 +9.94203985e-02 +1.44860864e-01 +9.85638425e-02 +2.75710262e-02 +1.09531000e-01 +8.45636055e-02 +8.79039541e-02 -4.52588573e-02 -4.29852940e-02 -4.50215749e-02 -1.69328619e-02 +3.63643579e-02 +1.90538745e-02 -9.74912429e-04 -6.69169589e-04 +4.98093292e-02 -4.94914129e-02 -3.58454064e-02 +7.25518838e-02 +1.16691560e-01 -5.19778393e-02 +6.04289770e-03 -1.56454183e-03 +3.84818241e-02 -1.20136107e-03 -2.19084006e-02 +2.85317912e-03 -2.52241343e-02 -1.71249673e-01 +8.64391848e-02 -1.45809762e-02 -1.76275223e-02 -1.11001814e-02 +3.11944373e-02 -1.59480453e-01 -2.61047599e-03 +2.76748687e-02 +7.33990222e-02 -7.50831440e-02 +9.09978002e-02 +2.28500031e-02 +2.17814855e-02 +6.18289299e-02 -6.64337277e-02 +3.52452770e-02 +8.77776965e-02 -1.49967000e-01 +1.38245048e-02 +4.36419807e-03 +1.24754179e-02 -3.15893404e-02 -3.13685797e-02 +5.25908172e-02 -1.12995833e-01 +5.57961464e-02 +9.17473957e-02 -6.99703698e-04 +7.97081068e-02 +1.24785259e-01 +2.17797831e-02 +8.69403481e-02 -2.05363948e-02 -4.58287038e-02 -1.19462997e-01 +2.34833453e-02 +6.62904158e-02 +9.91965756e-02 +5.50051816e-02 +5.28531149e-03 +3.85884866e-02 +7.17651248e-02 +4.04641554e-02 -6.01868220e-02 +9.34177563e-02 -1.18370071e-01 +3.54114063e-02 -9.36131477e-02 -1.63405061e-01 -1.54932797e-01 -1.25583068e-01 +5.72088510e-02 -2.20651906e-02 +1.07048698e-01 -5.11936992e-02 +6.26260489e-02 -2.31137320e-01 -1.20283067e-01 -7.67128915e-02 +6.20334819e-02 -1.67792663e-01 -1.41987473e-01 -2.75957644e-01 +7.49464259e-02 +9.24989805e-02 +7.83026293e-02 -1.47962704e-01 -2.06721097e-01 +3.22493054e-02 +7.82063976e-02 -1.63002796e-02 +1.02613524e-01 +3.06606125e-02 +9.18469764e-03 +4.24729735e-02 +2.11624354e-02 -6.27768487e-02 +6.98288810e-03 -1.41197354e-01 +6.86021224e-02 +1.14903348e-02 +9.19693410e-02 -6.29732311e-02 +1.23893104e-01 +4.51621599e-02 +8.58772248e-02 +4.26040925e-02 +2.26732045e-02 +2.47638999e-03 -1.58462357e-02 -4.25471133e-03 +1.67063903e-02 +8.88049975e-02 -1.24589600e-01 +2.06186180e-03 +1.59468614e-02 +1.44920468e-01 -1.70681980e-02 +3.36118862e-02 +1.36755276e-02 +1.23256788e-01 -1.46169081e-01 -9.66535285e-02 -1.05069675e-01 -7.06747696e-02 +1.04934936e-02 -7.75839761e-02 -4.54193614e-02 -2.59356499e-02 -3.82262915e-02 +1.76501255e-02 +2.90891882e-02 +2.04380155e-02 +9.86939203e-03 -2.70770118e-02 +2.99305227e-02 -7.32390210e-02 +5.96951135e-02 +4.22613733e-02 -7.44883344e-02 +8.36595818e-02 +2.77031064e-02 -1.57021899e-02 -3.62128951e-02 -3.13194469e-02 +6.23214692e-02 +4.79795877e-03 +8.44469592e-02 -1.97930038e-02 +8.37895945e-02 -8.03691335e-03 -4.46108691e-02 -8.00853893e-02 +2.11843606e-02 -1.38670519e-01 -3.16287577e-02 -2.92784035e-01 -5.12346178e-02 -1.47545543e-02 +2.23936103e-02 +8.75831470e-02 +6.05830662e-02 -4.15047370e-02 -1.35202147e-03 +7.53129944e-02 -4.50657271e-02 -1.63621098e-01 -2.80783605e-02 +5.04625179e-02 +3.71754579e-02 -3.01029254e-02 +6.18139505e-02 +3.52702141e-02 -8.36524088e-03 +5.20174950e-02 +4.86869179e-02 -5.64969964e-02 -1.99905068e-01 +1.05409592e-01 -3.19282115e-01 +5.89225650e-01 -2.45734025e-02 -5.31082511e-01 -1.25833005e-01 -2.84139872e-01 -7.34606981e-02 -3.15911114e-01 -5.29080987e-01 -2.93251444e-02 -2.51046747e-01 -5.04695356e-01 +2.12147355e+00 -7.09067583e-01 -4.66404825e-01 -6.59684613e-02 -1.32596986e-02 -3.80009353e-01 -2.89083183e-01 -2.08453983e-01 -1.87457040e-01 +1.17405981e-01 -5.76225221e-01 -5.53952381e-02 +5.47033995e-02 -5.64385116e-01 -1.96627319e-01 -1.97970435e-01 -8.38371292e-02 -3.81384008e-02 +3.01015116e-02 -6.80716708e-02 -4.29386139e-01 +7.13990405e-02 -3.31756085e-01 -1.57126069e-01 +5.31240404e-02 -5.18390946e-02 -3.08271378e-01 -9.04604271e-02 -2.92554468e-01 +2.80360222e-01 -1.32440329e-02 -3.13802749e-01 -3.39668006e-01 +2.60956399e-02 -5.91336042e-02 -2.12276593e-01 +1.12354904e-01 -1.04384676e-01 -8.13809037e-03 -5.35744727e-01 -1.14609219e-01 -2.40911067e-01 -2.75136620e-01 -8.62086862e-02 -2.10131004e-01 +4.73488569e-02 -4.97343451e-01 +7.71931037e-02 -1.82546210e-02 +9.01017636e-02 -5.19781262e-02 -4.02919538e-02 +7.75667280e-02 +3.29802707e-02 -1.60300076e-01 -3.31646167e-02 +1.34546712e-01 +1.72574177e-01 +2.38855053e-02 -4.40227926e-01 +8.94219279e-02 +1.50192827e-02 -1.02567032e-01 +6.18405752e-02 -2.59368002e-01 +2.48615276e-02 -2.31902942e-01 -1.93988502e-01 +4.20302510e-01 +2.44511366e-02 -3.61314714e-01 +1.18882187e-01 -1.10785581e-01 -2.28977203e-02 -1.15516102e-02 -1.35210499e-01 -2.26110831e-01 -1.93178445e-01 +8.05081278e-02 -6.42871112e-02 -4.50350225e-01 -2.78986413e-02 -1.34998918e-01 -2.99239725e-01 +1.28059965e-02 -1.46504045e-01 -1.30019590e-01 -6.08796924e-02 +1.44517615e-01 +7.48091862e-02 +1.82795316e-01 -3.31246331e-02 +4.21326719e-02 +6.29257560e-02 -6.61667466e-01 -3.70125808e-02 -3.53773326e-01 +8.26391950e-02 -2.59142309e-01 -1.72988966e-01 +1.19933579e-02 +5.56635931e-02 +3.47325683e-01 +2.90540278e-01 +7.07292277e-03 -1.99563392e-02 -1.57192990e-04 -3.75246592e-02 -3.03087562e-01 -1.03205942e-01 -4.52163845e-01 +2.29790229e-02 -4.53179717e-01 -1.95210069e-01 +5.03078476e-02 -6.16551898e-02 -3.73796783e-02 +1.98461175e-01 +1.41652152e-02 -3.93057875e-02 +5.15764393e-02 +4.23567817e-02 -1.71098784e-01 -1.05200671e-02 +7.58184269e-02 -1.14593104e-01 -5.03615327e-02 -1.59701020e-01 -2.00421989e-01 -5.99671192e-02 -3.24694850e-02 +1.74164046e-02 -1.37696296e-01 -2.68252231e-02 -1.75787300e-01 -1.52085334e-01 -2.17288546e-02 -1.02410410e-02 -1.07986316e-01 +4.61727241e-03 -2.09942292e-02 -7.31855305e-03 -1.32434830e-01 -2.96144247e-01 -1.40714645e-01 -8.63024518e-02 -1.81277692e-02 +9.08686817e-02 +9.09009576e-02 -4.91294339e-02 +1.35902606e-03 -2.90891230e-01 -1.62176013e-01 +5.63306808e-02 -6.97278827e-02 +9.28677469e-02 -2.56458968e-02 -1.02044135e-01 -1.37035072e-01 -2.28965595e-01 -2.16872826e-01 -2.52256811e-01 -1.39741600e-01 -3.60418037e-02 +8.29959512e-02 +8.42599496e-02 +7.91976601e-03 +4.95895073e-02 -5.94877042e-02 +1.55951723e-01 -2.18276363e-02 -1.33860260e-01 +2.04662234e-01 +2.09897116e-01 +2.35991497e-02 -1.00718714e-01 -8.93954784e-02 -2.00790837e-01 -3.28904316e-02 +7.11229816e-02 -2.99721688e-01 +4.76620905e-02 +5.49370460e-02 +7.81950653e-02 +1.07365690e-01 +1.28626451e-01 +9.32597555e-04 +1.92045216e-02 -1.00677326e-01 -7.70802423e-02 -1.35903936e-02 -9.75020006e-02 -1.16565138e-01 +3.10352445e-02 -1.75827935e-01 -5.64462831e-03 +1.46711916e-01 -1.41872644e-01 -1.19992644e-02 -6.28454611e-02 -5.25624119e-02 -8.50795209e-02 +5.36960252e-02 -1.15383975e-01 -1.21056452e-01 +3.13438363e-02 +1.50676042e-01 +9.21789324e-04 -1.14101302e-02 -3.69161814e-02 -1.96211990e-02 +2.17458367e-01 -1.79701656e-01 -5.93728870e-02 +5.35262330e-03 +1.06048234e-01 -4.38261300e-01 +6.27872571e-02 +1.79776046e-02 +1.29841328e-01 +1.89082585e-02 -3.83986197e-02 +1.95220992e-01 +4.00763191e-02 -1.01085387e-01 -1.29981831e-01 -1.36735812e-01 +1.53923463e-02 +6.82804808e-02 +7.61671215e-02 -5.35557009e-02 -1.21725872e-01 -1.66179352e-02 +2.57850420e-02 +4.10764925e-02 -4.22820188e-02 -1.14519991e-01 -2.00213537e-01 -2.11246256e-02 -1.18143439e-01 +3.65523733e-02 -4.26047388e-03 +4.76975776e-02 -5.22963181e-02 -1.73830792e-01 -6.75426051e-03 -1.53688520e-01 -2.02570662e-01 +2.11159617e-01 -4.53434587e-01 -1.80275142e-01 +1.03030577e-01 +1.64920285e-01 -1.82762474e-01 -5.74402288e-02 +2.64767818e-02 +1.30938828e-01 -2.61390805e-02 +1.55834071e-02 +8.45861286e-02 +6.52395282e-03 +3.97287533e-02 +1.43778190e-01 -1.85967878e-01 +9.89192948e-02 +5.31576574e-02 -1.59449987e-02 -1.16262250e-01 -2.56994367e-01 +3.13356221e-01 -5.46130538e-02 -5.27798794e-02 +2.20556576e-02 +1.16770072e-02 -1.32459924e-01 -8.49965811e-02 -2.91350484e-01 -5.96749932e-02 -6.32500947e-02 +1.21810421e-01 +1.29531413e-01 +1.48185380e-02 +1.66924030e-01 +5.48919030e-02 +1.38725629e-02 -5.68724871e-02 -6.18333444e-02 +1.21922128e-01 +5.26553355e-02 -1.29178107e-01 -2.73614824e-02 -1.12379931e-01 -1.08795531e-01 +2.12292179e-01 +7.40104616e-02 +1.32732689e-02 -1.14612862e-01 -1.35643363e-01 -3.05299144e-02 +1.87403083e-01 +1.60845574e-02 -2.88868934e-01 +2.87872609e-02 +2.18176488e-02 -5.92878908e-02 -3.42360318e-01 +1.71322003e-02 -4.98526692e-02 +6.17111707e-03 +3.80177088e-02 +2.41953507e-02 +8.55245627e-03 -2.88806409e-01 -4.67449240e-02 -1.69598730e-03 +8.90961438e-02 -1.94409609e-01 -2.98164245e-02 +4.66223098e-02 -1.74837243e-02 +4.31045890e-02 +2.85657588e-03 +4.27472778e-02 +6.34418949e-02 +9.30956937e-03 -3.19837108e-02 -4.18694876e-02 +1.11204535e-01 +9.35334787e-02 -1.75396819e-02 -7.94914141e-02 -2.71133155e-01 +1.67079195e-01 +1.12696379e-01 +3.94315749e-01 -1.46049410e-01 +1.14458725e-01 +1.01017281e-01 -2.23822612e-02 +3.40901054e-02 +1.73479810e-01 -8.86555994e-04 +2.74608824e-02 -1.45893246e-02 +4.17996310e-02 +1.51367247e-01 +2.00402930e-01 +3.03695314e-02 -3.18455622e-02 +8.57091844e-02 +3.12286057e-02 -6.53024465e-02 +1.47591787e-03 -5.27083017e-02 +2.55969241e-02 -5.97461201e-02 -5.03733307e-02 +5.05444109e-02 +9.42020342e-02 +9.80510637e-02 +5.52866757e-02 +1.33878291e-01 -1.32661732e-02 -4.57281411e-01 -7.09161982e-02 -1.15386918e-01 -4.66546714e-02 +1.02462329e-01 +1.05364278e-01 +6.16802275e-02 +9.02749598e-02 +2.53666919e-02 +7.77720436e-02 +7.70192519e-02 +3.04845944e-02 -3.05128753e-01 +6.65299594e-02 +7.71283060e-02 +9.02034193e-02 +3.04198228e-02 -1.70635395e-02 +2.14532316e-02 +1.26108930e-01 -3.18286657e-01 +4.17023525e-02 +1.18953384e-01 +2.78543755e-02 -7.17278644e-02 -8.25806111e-02 -1.23619609e-01 -3.35208960e-02 -1.95335783e-02 -6.61693513e-02 -3.05855479e-02 -1.93427671e-02 -3.95516232e-02 +7.15277717e-02 -8.60791001e-03 -2.69265287e-02 +4.86119911e-02 +6.34016171e-02 +1.09549843e-01 +3.06834038e-02 +9.63065550e-02 -4.61344086e-02 +2.18041800e-02 -1.93067491e-02 -5.70961414e-03 +3.29898223e-02 +3.75719219e-02 -6.88602850e-02 -1.52796417e-01 -1.61642227e-02 -8.52595493e-02 +1.11193605e-01 -1.21257389e-02 +1.58421317e-04 +3.05675976e-02 +4.21279296e-02 +8.01234990e-02 -1.43839642e-01 +1.18151763e-02 +2.03288570e-01 -5.74639067e-02 +6.15544571e-03 -5.99360541e-02 +5.30315470e-03 -4.88387197e-02 +1.21687047e-01 +1.55904114e-01 +2.11586684e-01 +1.15220666e-01 +2.12599471e-01 -6.48611337e-02 -4.47636731e-02 -1.22068293e-01 +2.17417970e-01 -6.41505420e-03 +3.28655094e-02 +1.54890260e-02 +1.45957485e-01 +5.11641689e-02 -2.44198348e-02 +9.67892632e-02 +3.94381545e-02 +1.91290509e-02 +1.37552649e-01 +8.96796864e-03 -1.50988698e-02 -6.24091886e-02 -1.38132721e-01 +1.14261024e-01 -1.25652090e-01 +3.38368826e-02 +3.02122105e-02 -1.73532367e-01 -8.32521468e-02 -2.08834969e-02 +1.02756418e-01 -1.83884893e-02 +8.31357986e-02 +5.46740964e-02 -3.72865610e-02 -1.33505762e-01 -1.11815624e-01 +1.42436892e-01 +5.39267659e-02 -2.61191428e-02 +1.14345662e-01 +8.58928785e-02 +3.44123133e-02 -7.83508047e-02 +3.17804189e-03 +9.54387039e-02 +2.16472134e-01 +7.13860616e-02 +1.35159060e-01 +4.19817157e-02 +5.75350523e-02 +7.15416223e-02 -5.14901383e-03 +2.02597696e-02 +1.34585530e-01 +7.29142651e-02 +4.69364710e-02 +4.56952825e-02 +8.61898214e-02 +1.23774000e-01 +4.42649722e-02 -8.78429413e-02 +1.28722657e-02 +8.95850882e-02 +1.02906667e-01 +4.31958772e-02 +9.26724821e-02 +9.36295167e-02 +1.44287542e-01 -6.16943352e-02 +7.54366666e-02 +1.67594757e-02 -2.27609891e-02 +8.86196345e-02 +9.91651565e-02 +2.16385000e-03 +6.20713197e-02 +5.95921837e-02 +6.24694079e-02 -5.14176302e-02 -2.55246293e-02 -1.86802596e-01 -1.94306560e-02 -9.68857389e-03 -2.33417115e-04 +2.24463753e-02 -1.33785486e-01 -8.44270959e-02 +4.24965769e-02 -7.78138861e-02 -4.43844460e-02 -3.58220339e-02 -2.31120922e-02 +1.48150235e-01 +9.16084461e-03 +4.52561900e-02 +5.53334085e-03 +1.48030058e-01 -1.74448371e-01 +1.29365966e-01 +2.80497759e-03 +2.73312666e-02 -4.19448363e-03 +4.90570664e-02 +1.67428553e-01 +6.90520033e-02 -5.92804849e-02 +3.43343951e-02 -1.34361863e-01 +5.38649485e-02 +1.31660745e-01 +1.38381481e-01 +3.19256447e-02 +8.95128474e-02 +1.33587033e-01 +6.00204431e-02 +9.70176049e-03 -5.75564764e-02 +2.29327157e-02 +1.04817368e-01 +1.28143560e-02 -1.09824846e-02 +4.42732982e-02 -7.03074969e-03 +1.24968052e-01 -1.82488542e-02 -1.97385475e-02 -4.42421362e-02 +2.27726679e-02 -2.93840319e-02 +5.61515009e-03 +5.92757761e-02 +1.24669075e-01 -5.39352782e-02 +1.41437203e-01 +5.19249178e-02 +6.53652251e-02 -1.98602527e-02 +1.24685332e-01 -2.61949729e-02 +3.75656178e-04 +6.02552257e-02 +6.90029934e-02 -7.02079618e-03 +1.00710027e-01 -4.48670201e-02 +9.19377059e-02 -5.16328365e-02 +1.71122059e-01 +7.97245726e-02 -7.38168880e-02 +7.51245320e-02 +5.48130572e-02 +3.44711803e-02 +8.36217999e-02 +4.71359044e-02 +9.51656401e-02 -5.53562380e-02 +1.51791319e-01 +5.70576601e-02 -3.36957276e-02 +4.41326313e-02 +1.55541614e-01 -2.69212993e-03 +6.71236664e-02 -7.47428611e-02 +5.17045595e-02 +2.64855862e-01 +7.16164038e-02 -1.96237937e-02 +2.79053468e-02 +5.08395731e-02 +8.82081538e-02 +1.55470863e-01 +6.15102090e-02 -4.52001841e-04 +5.14845401e-02 +8.39234442e-02 +9.82305873e-03 +5.45577034e-02 +1.80620655e-01 +7.76869133e-02 -6.59481734e-02 -3.48617928e-03 +3.77620459e-02 -4.70405072e-02 +5.88194653e-02 -2.94144452e-02 +1.57184884e-01 -1.43076852e-02 +5.96888661e-02 +6.33644825e-03 +9.51608550e-03 -1.00775741e-01 +2.80786734e-02 +6.61955252e-02 +2.03476679e-02 +2.31541976e-01 +3.61678451e-02 +9.78699699e-02 +4.04424109e-02 +1.74113195e-02 +8.80834088e-03 +4.53172140e-02 +9.73712429e-02 -8.56580883e-02 +4.94325766e-04 -1.79149121e-01 -6.93426430e-02 -3.26049067e-02 +1.32908061e-01 +9.16547477e-02 +2.60784617e-03 -4.22261730e-02 +1.08471178e-01 -3.66738960e-02 +1.58561707e-01 +5.54934144e-02 +1.89141721e-01 +3.89050655e-02 +1.49695590e-01 +8.79995599e-02 +8.84811953e-02 -3.06418221e-02 +5.37535287e-02 +4.90983278e-02 -1.39387250e-01 +1.54244289e-01 +1.35158689e-03 +1.00361377e-01 +1.28606111e-01 +7.91513026e-02 +1.01758651e-01 +1.97613075e-01 -1.77490842e-02 +4.20838222e-02 +3.92764285e-02 +2.23590627e-01 +8.78415331e-02 +7.04768375e-02 +9.05746967e-02 -5.33404090e-02 +8.50309134e-02 +6.92575797e-02 +7.49015510e-02 +1.17691927e-01 +1.41313486e-02 -1.22099362e-01 +8.18943754e-02 -1.37403393e-02 +3.13104615e-02 -3.48571362e-03 +3.71235237e-02 +1.65220033e-02 -6.36711791e-02 +7.33176321e-02 -8.02908652e-03 +1.07106999e-01 +1.15297385e-01 +2.30897777e-02 -4.89783706e-03 +2.33790696e-01 +1.51076972e-01 +6.40719086e-02 +1.87611401e-01 +1.40081391e-01 +5.37364222e-02 +1.04726985e-01 -3.08097876e-03 +1.46011338e-01 -3.31889465e-02 -1.81069318e-02 +8.02515894e-02 +9.54280496e-02 -5.57902618e-04 +9.32591185e-02 +2.69613490e-02 +4.69019152e-02 +7.72524849e-02 +1.03775352e-01 +5.08258715e-02 +1.18106104e-01 +1.00111611e-01 -5.33542559e-02 -1.23790847e-02 -1.26696946e-02 +8.11914727e-02 +1.23451553e-01 +9.73916203e-02 +4.49605137e-02 +1.29015177e-01 +4.05106246e-02 +5.18725216e-02 +5.19898944e-02 +5.24747334e-02 +8.89160112e-02 +9.17389542e-02 +2.59838230e-03 +1.16359055e-01 +2.46837601e-01 -4.43551317e-02 +6.19107597e-02 +4.92628366e-02 -6.33457750e-02 -1.97171532e-02 +9.53262523e-02 +8.20288882e-02 +4.71794941e-02 -3.62405181e-02 +1.48083851e-01 +2.75480717e-01 -3.94515432e-02 +5.34191579e-02 +2.45872606e-02 -7.41088092e-02 -1.76718403e-02 +1.66954669e-05 +1.09981723e-01 +2.29240470e-02 +7.52599239e-02 +4.02842127e-02 +1.34154007e-01 +8.45861249e-03 +4.17572772e-03 +1.42955005e-01 +6.19388670e-02 +1.23686396e-01 +1.35433286e-01 +1.13394022e-01 -3.50975581e-02 -1.99049357e-02 +1.36649370e-01 +9.95626077e-02 +6.82244301e-02 +1.18796736e-01 -6.71221083e-03 +3.71426530e-02 +5.74048199e-02 +7.76196346e-02 +5.70554249e-02 +2.97171399e-02 +5.84864244e-02 +1.87549759e-02 +7.13175088e-02 +5.61897606e-02 +3.57542606e-03 -4.72697243e-02 -1.66130308e-02 -3.54109779e-02 +1.58300877e-01 +8.90394859e-03 +2.02802956e-01 +9.45237353e-02 +2.55013146e-02 -6.38958253e-03 -1.12081850e-02 +7.25549087e-02 +8.07346553e-02 +7.76690617e-02 +4.90596145e-02 +2.79987231e-03 +2.59467810e-02 +9.21289697e-02 -4.38646339e-02 -6.77320287e-02 +5.89416958e-02 +6.34118989e-02 +8.04653540e-02 -3.25752683e-02 +5.08541092e-02 +9.80451480e-02 +6.17502630e-03 +2.21684858e-01 +1.91306379e-02 +3.76629718e-02 +3.26454379e-02 +9.79404002e-02 -5.24016563e-04 -5.34462091e-03 +4.24625054e-02 +1.27869859e-01 +9.57805440e-02 +1.83231458e-01 +2.01596767e-01 +1.34073809e-01 -7.97838718e-02 +5.50114959e-02 -1.31451124e-02 +3.36865373e-02 +9.17168260e-02 -5.37837557e-02 +3.74254324e-02 +8.88393372e-02 +3.11882123e-02 +8.18617493e-02 +1.86630338e-02 +4.43376182e-03 +8.63263384e-02 +7.21257702e-02 -6.83613643e-02 +4.89079915e-02 +1.01194857e-02 -4.20489721e-02 +5.33767603e-02 -6.98175607e-03 +2.52905488e-02 +2.32151628e-01 +1.02704972e-01 -1.41562438e-02 +7.22358674e-02 -3.88156511e-02 -1.26055360e-01 +5.44982195e-01 +4.30072248e-02 -2.32639372e-01 +4.22766106e-03 -1.70805067e-01 -1.50011480e-02 -9.28108171e-02 +6.79020166e-01 +4.67111589e-03 -1.80115953e-01 -1.25000998e-01 -4.17551026e-02 -2.32661575e-01 +2.76468396e-02 +1.01361617e-01 +4.32477556e-02 +2.13846967e-01 -9.63531155e-03 +2.37305015e-01 -2.76381314e-01 -8.16444084e-02 -3.65614504e-01 -4.77706548e-03 -5.52669354e-02 +4.49793339e-01 -2.80043453e-01 +3.59767862e-02 +2.22884402e-01 +3.23822796e-02 +1.40533566e-01 -5.22961132e-02 -1.93800837e-01 +2.40680531e-01 +1.50156975e-01 +8.03441182e-02 -5.15640154e-02 +5.93475848e-02 -1.12616815e-01 -1.27756029e-01 -8.13860670e-02 -1.29015788e-01 -7.62653118e-03 -1.95986032e-01 -2.67635267e-02 -1.02217861e-01 +2.32751146e-02 -4.62455839e-01 -5.10455556e-02 +1.59274518e-01 -3.15647125e-02 +3.59185599e-02 -7.48740137e-02 -1.21909231e-01 +1.34286433e-01 -2.75983531e-02 -1.13589305e-03 -4.45037931e-02 -1.27421156e-01 +3.76913659e-02 -1.99753437e-02 +3.17993313e-02 -1.21206850e-01 +8.54982361e-02 +9.90748778e-02 -1.62542108e-02 -2.23404974e-01 +4.66664210e-02 +1.96175605e-01 +1.31854147e-01 +6.96842596e-02 -2.32912619e-02 +6.92945495e-02 +1.98751464e-01 -7.50933439e-02 +3.98288041e-01 +2.82470975e-02 -1.20021299e-01 -1.85948983e-01 +7.54689500e-02 +4.27957214e-02 -3.70965339e-02 -2.31491566e-01 +6.21045846e-03 -8.72490648e-03 -1.49672672e-01 -7.63359070e-02 -7.67990947e-02 -1.41874939e-01 +8.34827423e-02 -2.13081405e-01 -1.90182641e-01 +1.87176943e-01 +1.65372416e-01 -3.99482325e-02 -3.89025249e-02 +2.92771645e-02 +1.50470704e-01 -1.64615497e-01 -5.41020334e-02 -4.74405847e-02 +9.45544019e-02 -5.88164516e-02 -5.20126559e-02 +1.08845294e-01 +1.23430707e-01 -7.38048777e-02 +5.47059402e-02 -1.75019890e-01 -7.30942413e-02 +2.19322905e-01 +9.21509862e-02 -1.73848912e-01 +9.35678482e-02 +1.29926682e-01 -7.94898808e-01 +8.20659474e-02 +1.95857715e-02 +1.57763977e-02 -7.36397505e-02 +1.22878645e-02 +4.47392836e-02 -2.18967855e-01 -1.32664777e-02 -1.98271856e-01 -1.55983016e-01 -5.26723824e-02 -4.47915606e-02 -4.73020412e-02 +1.55521873e-02 -8.03232417e-02 +2.27286611e-02 -1.11446328e-01 +1.25970736e-01 +6.27890676e-02 -1.25130907e-01 -2.32907981e-01 -1.46244258e-01 -2.22281814e-01 -1.47083282e-01 +2.93185189e-02 -7.57786557e-02 +5.41043766e-02 +1.31887421e-01 -1.79171301e-02 -1.47307351e-01 +1.13521434e-01 +6.85570911e-02 +7.93758407e-03 -1.84018791e-01 +7.68055543e-02 -1.12082697e-01 -3.80157530e-02 +6.26129285e-02 +4.84797591e-03 +7.38953426e-02 +7.75639564e-02 -5.58259673e-02 +1.21771261e-01 +1.34776577e-01 -1.14010358e-02 -1.88918799e-01 +4.61361594e-02 -1.85963914e-01 +9.88564864e-02 +6.01416873e-03 +3.63397822e-02 -2.11060911e-01 +9.03398469e-02 -3.52465391e-01 -1.28945991e-01 +1.24362767e-01 +2.84227058e-02 -2.12187573e-01 -7.98262805e-02 -4.84530367e-02 -1.30970404e-01 -6.55176714e-02 -3.31728980e-02 +8.91994834e-02 +9.98123437e-02 -1.17472902e-01 -2.12025851e-01 -1.33296801e-02 -6.15658052e-02 +9.84798223e-02 -7.92907830e-03 +2.12154090e-02 +6.52878359e-02 -8.01283866e-03 -1.30754113e-01 +1.36632845e-01 +1.73222497e-02 -1.09983511e-01 -5.11948094e-02 -8.26772824e-02 -2.14203354e-02 -2.80383155e-02 -9.32937115e-03 +1.32830977e-01 -2.10116133e-02 +1.68489963e-01 +1.07088655e-01 +4.08273377e-02 +3.89130004e-02 -5.46462089e-02 +2.57574946e-01 -6.54704347e-02 +4.45024222e-02 +2.03583866e-01 -6.26441613e-02 -1.84711024e-01 -5.81596196e-02 -1.78030953e-02 -1.88682362e-01 -1.16400473e-01 -8.41177255e-02 +5.39725833e-02 +7.27648810e-02 -1.15856051e-01 -1.13692537e-01 -1.99900120e-01 +2.84231436e-02 -2.94862211e-01 -1.07278898e-01 +2.53442466e-01 +1.71436027e-01 +3.55670042e-02 -1.00054462e-02 +1.19131185e-01 +3.51431295e-02 -9.03955698e-02 -2.98744775e-02 -1.83966234e-01 -2.13717848e-01 +1.40068293e-01 +4.80499417e-02 +1.99681535e-01 +1.16724551e-01 +1.47204876e-01 +1.13939799e-01 +3.55693046e-03 +2.55262945e-02 +7.68768489e-02 -6.06518984e-02 +5.63008226e-02 +8.87786075e-02 +1.03672475e-01 -9.01352167e-02 -5.92831485e-02 +6.75327629e-02 +1.34798735e-01 +1.20825386e-02 +1.29023120e-01 +6.49081618e-02 +7.93502554e-02 +8.30934793e-02 -3.59638482e-02 -2.79672481e-02 -2.90660411e-01 -6.13223352e-02 -1.64940029e-01 -8.90735984e-02 +9.32340324e-02 +1.26996368e-01 +2.84767330e-01 +1.32678449e-01 +6.12392314e-02 -1.50779381e-01 -1.10212065e-01 -1.26732156e-01 -4.46399208e-04 +3.44446748e-02 +9.64073464e-02 +6.97433874e-02 +1.25842631e-01 +2.80182790e-02 -1.78955778e-01 +6.01844825e-02 +1.48785144e-01 -8.92436802e-02 -8.19501206e-02 +7.96623006e-02 -5.73472157e-02 +4.41496484e-02 -1.15332358e-01 +9.19557735e-02 -1.52188808e-01 +1.92371514e-02 -1.24314293e-01 +8.90622032e-04 -4.07427438e-02 -1.29439175e-01 -1.60747930e-01 -5.18135214e-03 -1.03182785e-01 -7.09246565e-03 +5.15010953e-02 +9.98133495e-02 +1.11355931e-01 +6.71368912e-02 -1.28597006e-01 -1.22987017e-01 -1.73713952e-01 +1.26167983e-01 -1.24712326e-01 -9.53589156e-02 -1.51154131e-01 +2.80969143e-01 -1.32982954e-01 +6.32295534e-02 +7.25349933e-02 +9.70302522e-03 -7.13777244e-02 +2.89094821e-02 +3.00242323e-02 +9.62547362e-02 -1.06559306e-01 -5.74060902e-02 +6.98739439e-02 -5.66200577e-02 +4.78119813e-02 -7.81087298e-03 +9.93863214e-03 +2.57517278e-01 +1.34914801e-01 +6.54063374e-02 +2.81422939e-02 +6.93576112e-02 -1.36424258e-01 +1.45949975e-01 +2.42882729e-01 +1.24021873e-01 +1.19228937e-01 -7.07587376e-02 +2.05504805e-01 +1.07323647e-01 -1.37141570e-02 -1.06151141e-01 -2.20207833e-02 +4.60797409e-03 +4.84954678e-02 +2.99686994e-02 -8.41449797e-02 +1.28938511e-01 -1.04919784e-01 -2.74475068e-01 +6.31264895e-02 +7.65404776e-02 +1.11583900e-02 -5.67737222e-02 -4.90612574e-02 -9.38370675e-02 -1.68714181e-01 +1.11118956e-02 +9.25576165e-02 +6.13991730e-02 +1.92453712e-01 +1.74565494e-01 +6.66861981e-02 +5.13973720e-02 -8.21463019e-03 -1.12694167e-02 -5.12943082e-02 -7.23171700e-03 -7.17143156e-03 -8.08453262e-02 -3.94482613e-02 +2.71374673e-01 -1.18821766e-02 +6.98802993e-02 -2.88756774e-03 -3.56431678e-02 +6.01170771e-02 -9.11270455e-02 -2.25244224e-01 +5.75327538e-02 -7.94509239e-03 +2.25719199e-01 -2.39785071e-02 -5.08892201e-02 +1.14074849e-01 -9.12725255e-02 +9.39644757e-04 +2.25436175e-03 -2.18594223e-01 +1.26854956e-01 +1.04224376e-01 +6.02660291e-02 +9.20376331e-02 +1.05540501e-02 +7.88396150e-02 +1.13974512e-01 +4.68077846e-02 +3.66885252e-02 +2.39012495e-01 +1.07260235e-02 +1.52662411e-01 +1.42520234e-01 +1.42986283e-01 +3.85699011e-02 -2.42826447e-01 -4.91026230e-02 -1.70314804e-01 -9.42682028e-02 +9.57375839e-02 +5.84513731e-02 -9.87527668e-02 +3.81234661e-02 -3.13555673e-02 +1.26580536e-01 +1.20903835e-01 +9.54407454e-02 -8.14447179e-04 -3.80700245e-03 -1.12584755e-01 -1.54629191e-02 -1.60106510e-01 +3.68894748e-02 -1.97040066e-01 -8.36570188e-02 -2.48126797e-02 +7.30733350e-02 -2.29136124e-01 -2.15560064e-01 +1.80525616e-01 +6.42651320e-02 +2.29385272e-02 +2.60937780e-01 +1.68741308e-02 -6.24230206e-02 +1.09052181e-01 -2.12506562e-01 +3.77568090e-03 -2.19359308e-01 -5.35052605e-02 +7.52049237e-02 +1.01907089e-01 -3.51715162e-02 -4.03989777e-02 -1.35630056e-01 -6.04191944e-02 -1.47455454e-01 +8.02833587e-02 +1.13099534e-02 +1.19780786e-01 +3.15761864e-02 +5.55134825e-02 -1.47697955e-01 -2.32657075e-01 -1.41313851e-01 +6.19850233e-02 -1.32638961e-01 -3.51131782e-02 +5.60544133e-02 -1.90811157e-01 -1.98888555e-01 +7.12515935e-02 -2.68652588e-01 +6.78880289e-02 +2.33326070e-02 +8.30434412e-02 +4.54718918e-02 +6.61186054e-02 -2.17058621e-02 +1.98843047e-01 +1.46901622e-01 +2.58831292e-01 +1.39357194e-01 -1.91880763e-03 +6.08656146e-02 +5.11675654e-03 -6.93888739e-02 +2.61072423e-02 -4.21763211e-03 +5.23379669e-02 +3.15449946e-02 -6.52056262e-02 -7.74056613e-02 +3.52002122e-02 -9.38772857e-02 -3.53651457e-02 +1.02088101e-01 +3.52795273e-02 -8.14890414e-02 -3.65816467e-02 +1.05558485e-01 +3.20155881e-02 +1.11824237e-01 +1.07272185e-01 +3.60517902e-03 +2.82854168e-03 -1.62642792e-01 +4.28060070e-02 +3.36252041e-02 +9.35447589e-02 +4.63052243e-02 -1.20482795e-01 +2.64362507e-02 +5.02906367e-02 +4.26281570e-03 +8.70798808e-03 -1.05911784e-01 -1.62819773e-02 +1.40489163e-02 -2.89902296e-02 -6.20690659e-02 +5.39934728e-03 +4.49672192e-02 -2.18479298e-02 +1.37094662e-01 -8.68676510e-03 -6.10088930e-02 -3.57878804e-02 +1.95051041e-02 +4.05904688e-02 -1.48990937e-02 -7.82164559e-02 +4.72616479e-02 -8.66935700e-02 +4.12896685e-02 +1.61501080e-01 +1.30928531e-02 +1.40040189e-01 -3.27396616e-02 -2.65247636e-02 +6.95511699e-02 +5.62358648e-02 -1.25356436e-01 -1.29050210e-01 -8.99376988e-04 -2.61252597e-02 +1.87026307e-01 -4.41342890e-02 -1.03151836e-02 -1.26272542e-02 -2.06093103e-01 -2.47503333e-02 -9.01201889e-02 +3.31657045e-02 -9.57140252e-02 +5.36103211e-02 +8.55526701e-03 -5.34986192e-03 -1.81767166e-01 -1.00209722e-02 -4.10609767e-02 +4.99969721e-02 +1.47554532e-01 +2.62913294e-02 +9.49582234e-02 +7.29261488e-02 -6.98649734e-02 +6.83815256e-02 -3.46443653e-02 -3.34984921e-02 +4.21860889e-02 +1.14830308e-01 -2.08156146e-02 -2.86345812e-03 -1.36899784e-01 +9.41001326e-02 +2.03290969e-01 +2.39519440e-02 -8.72474983e-02 +1.04142070e-01 -5.23853162e-03 +7.79628977e-02 -5.97734973e-02 -2.71265879e-02 -1.08122207e-01 -1.10792309e-01 +8.38810727e-02 +8.00217316e-02 +1.25891492e-01 +9.34206396e-02 +3.16759534e-02 -4.61462885e-02 -1.53183574e-02 -8.93731564e-02 -4.55381945e-02 -9.41780806e-02 +3.49725448e-02 -1.16282776e-02 +1.04788847e-01 +4.54342924e-02 +2.05830708e-02 +6.78253546e-02 +3.91128808e-02 +1.16048470e-01 -9.36246663e-03 -1.24853373e-01 +5.30188121e-02 -2.30538458e-01 +3.73967029e-02 +7.78647736e-02 -3.73940915e-02 +2.32005000e-01 +8.03033561e-02 -1.42119259e-01 +1.81625281e-02 -4.90482748e-02 +6.36697337e-02 +5.11581786e-02 +8.61262232e-02 -1.59284547e-01 -1.07495546e-01 -2.48726457e-02 -2.29919124e-02 -1.01431109e-01 -1.98025946e-02 -1.02549747e-01 +4.57964092e-02 +7.09761446e-03 +2.57001035e-02 -2.34663505e-02 +2.44194735e-02 -6.71472996e-02 -1.31043866e-01 +7.28723556e-02 -5.70123680e-02 -4.85827848e-02 -8.61953124e-02 +4.60403971e-03 -9.45071802e-02 +5.31602604e-03 +1.09167360e-01 +9.55933705e-02 -9.54097584e-02 -2.63984292e-03 +6.42644661e-03 +1.02877282e-01 -3.22626084e-02 -1.43696427e-01 -3.02909762e-02 +6.52204975e-02 +2.07559187e-02 +7.43586347e-02 -3.46799083e-02 +7.65552670e-02 -6.71419352e-02 +5.94734680e-03 -3.02635841e-02 +9.88252386e-02 -2.32778117e-01 -1.27788009e-02 -6.64898753e-02 +3.81446742e-02 +1.41606137e-01 -3.44593897e-02 +1.15991890e-01 -1.98968016e-02 +4.22103070e-02 +6.79457039e-02 +8.62668380e-02 +1.87646262e-02 -3.73949093e-04 +1.04875140e-01 +8.00539926e-02 +6.02709828e-03 -5.72635755e-02 +4.43265326e-02 -5.96848375e-04 +4.22338657e-02 +1.08236946e-01 +3.89589407e-02 +1.75115183e-01 +2.77826786e-02 +7.31993392e-02 +5.35558797e-02 +3.03373504e-02 +2.50422712e-02 +9.65214223e-02 -1.97704196e-01 -3.84429321e-02 +8.64575654e-02 -3.53493006e-03 -8.81035253e-02 +1.12119146e-01 -9.18119773e-02 +7.51823112e-02 -1.01468131e-01 -8.01101923e-02 -4.09772955e-02 +9.44354609e-02 -5.64584769e-02 +9.68323648e-02 +8.67498387e-03 -9.51776579e-02 -1.54004321e-01 +8.86717662e-02 +2.74067770e-05 -1.32034138e-01 -1.36932759e-02 -4.98378649e-02 +2.31109131e-02 +1.12185366e-01 -2.16377527e-02 +4.68560793e-02 -1.23895027e-01 +1.75269678e-01 -1.76996604e-01 -5.43660969e-02 -6.78283498e-02 -8.98914970e-03 +3.15692127e-02 +1.31367758e-01 +2.22485457e-02 +2.68819742e-02 -1.16100768e-02 -2.89657358e-02 +2.60206778e-02 -1.55090378e-03 -1.48910759e-02 +2.13393872e-03 +2.41929345e-04 -1.36003364e-02 -1.02939932e-02 -6.15572557e-02 +4.94869202e-02 -3.92007530e-02 +6.58070147e-02 +3.18490341e-02 -2.52458230e-02 -2.13293340e-02 -8.74466076e-03 +8.48429129e-02 -9.99595448e-02 -6.33589644e-03 +4.72230278e-02 +2.04594597e-01 +8.44936594e-02 -9.14011151e-02 -1.40283957e-01 +6.16508909e-02 +7.49418885e-02 -1.39552400e-01 +8.00839737e-02 -5.41777583e-03 -1.58958241e-01 +6.04099082e-03 +1.16035536e-01 +5.51014543e-02 -2.04082817e-01 +3.77770979e-03 +1.07504204e-01 -4.73024771e-02 -3.37272547e-02 -2.64264271e-02 -1.87196910e-01 -1.77751601e-01 +4.34800796e-02 +2.34090835e-02 -1.38372719e-01 -4.99161077e-04 -5.46126999e-03 -3.66875492e-02 +4.18057442e-02 -2.40176767e-02 +2.41241418e-02 -4.80861589e-02 +1.25580713e-01 +2.32340600e-02 -3.62174995e-02 -2.43974365e-02 +2.77415607e-02 +8.22210535e-02 +5.85254915e-02 +9.48218536e-03 -1.33568227e-01 +2.37155128e-02 +2.65718792e-02 -4.53035943e-02 +1.42402090e-02 +4.33083661e-02 +7.26548880e-02 +5.24040163e-02 +2.24780440e-02 +8.14173743e-03 -4.17865552e-02 +1.50968969e-01 +3.69715411e-03 +3.30992439e-03 +8.82464424e-02 +2.27686316e-02 +1.53906103e-02 +2.18376750e-03 -8.16756859e-02 +6.18342385e-02 +5.59058003e-02 +4.80922684e-02 +9.36874971e-02 +9.67576951e-02 +1.25712610e-03 -8.70862454e-02 -2.73428410e-02 -1.20417085e-02 -2.21928395e-03 +2.39054412e-02 +9.56681594e-02 +7.05587417e-02 +1.10729493e-01 -8.96962583e-02 -1.60726950e-01 -1.42637447e-01 +1.70544591e-02 -3.69491167e-02 -1.03209103e-02 +6.87716901e-02 +8.92052427e-02 -4.26868070e-03 +3.90185639e-02 +8.62826928e-02 -4.48824465e-02 -2.85693482e-02 +1.28964350e-01 -1.01761788e-01 -1.19264117e-02 +2.23835371e-02 -1.38529018e-01 -6.44393563e-02 +1.23518832e-01 +9.33551136e-03 -6.31666332e-02 +6.93267062e-02 -1.46591455e-01 -7.01396689e-02 +9.01249945e-02 +2.33553331e-02 -1.83058411e-01 +1.91180278e-02 -1.08065814e-01 +5.37289791e-02 +1.01176992e-01 -1.02197202e-02 +2.66678538e-02 -1.51854426e-01 -1.36620849e-01 -7.57587329e-02 -1.71468675e-01 +1.49539053e-01 +6.43190816e-02 +6.53284043e-02 -1.38218299e-01 +8.07630550e-03 +2.81901900e-02 +9.94334295e-02 -4.34837025e-03 -1.17393099e-01 -2.01088518e-01 +1.01779789e-01 -3.16119432e-01 -3.11229587e-01 +7.67859966e-02 -6.42394125e-01 +1.40037760e-01 -2.66457260e-01 +5.74808680e-02 -5.28189957e-01 -4.05048579e-02 +1.75707519e-01 -5.97154461e-02 -1.56986848e-01 +4.77193594e-02 -5.26596427e-01 -3.50999802e-01 +1.02232151e-01 +1.32871896e-01 -2.63583362e-01 -3.74478579e-01 -9.41269025e-02 -1.22515410e-01 +6.65517524e-02 -5.51414788e-01 +1.58079900e-02 +9.14849490e-02 -2.12086141e-01 -3.03882837e-01 -2.60769278e-01 -1.53061390e-01 -1.54941499e-01 -1.15222827e-01 -7.91092291e-02 -1.69122249e-01 -1.76812738e-01 -3.37997466e-01 +1.27368078e-01 -2.13343203e-01 -5.19068241e-02 -2.34039843e-01 +1.25828739e-02 -3.69589299e-01 -3.84059459e-01 -2.54168034e-01 -1.96524799e-01 -1.47800595e-01 -2.86094751e-02 +8.10534284e-02 -1.32264018e-01 +8.26044455e-02 -2.49670759e-01 -1.04165655e-02 +2.12233171e-01 +1.12796143e-01 +3.60050686e-02 +1.28801271e-01 -5.36420941e-02 -3.35729510e-01 -1.25092849e-01 -1.21218763e-01 +3.12641189e-02 +7.16396719e-02 +7.36704618e-02 -1.07821986e-01 -1.25748247e-01 -2.70308554e-02 -1.42646536e-01 -1.49517000e-01 +1.66120201e-01 -1.71491414e-01 -3.99142466e-02 +8.20143744e-02 -3.54967505e-01 +2.87202913e-02 +4.74954583e-02 -2.54737120e-02 -1.49347380e-01 -2.13485975e-02 -4.37323488e-02 +3.38656344e-02 -2.54374653e-01 -2.65609741e-01 +8.85480866e-02 -4.57565933e-02 -7.05669522e-02 +4.01625372e-02 +1.21371225e-01 +3.75380218e-02 +2.30737366e-02 -1.01432405e-01 -3.53146493e-01 +1.14444323e-01 +1.36075197e-02 -8.20774734e-02 -1.94448009e-01 -1.20867386e-01 -8.11386704e-02 +1.05223209e-01 -1.74368769e-01 -1.62002072e-02 +1.06346548e-01 -2.31052190e-01 -1.60491141e-03 -3.73509713e-02 -1.94665164e-01 +3.44462432e-02 -6.33339286e-02 -1.92228526e-01 -5.62082231e-02 -6.76039755e-02 -2.96696126e-02 -2.80582368e-01 -1.72291566e-02 +1.51463225e-01 +1.34635475e-02 -7.09521696e-02 +4.51900214e-01 +1.21859007e-01 +1.44079223e-01 +1.00946881e-01 -6.15933836e-01 -4.43286389e-01 -1.85919970e-01 -4.31129903e-01 -1.01211675e-01 -4.27641302e-01 -3.29020351e-01 +1.37208670e-01 +7.23334029e-02 +8.93469527e-03 -1.17769793e-01 -1.14738069e-01 +2.73667909e-02 -4.04313169e-02 -1.37572903e-02 -2.71285176e-01 +2.60293782e-02 +6.16556183e-02 -1.52955115e-01 +2.10981607e-01 -1.06719837e-01 -3.58557582e-01 +1.71540499e-01 +8.78836960e-02 +1.62726521e-01 +2.07933933e-01 +1.56189829e-01 +2.13561773e-01 +1.16668835e-01 +1.14125103e-01 +2.09188178e-01 -8.28160122e-02 +1.26843050e-01 -2.24508613e-01 +5.42358048e-02 -1.42172217e-01 +4.67661954e-02 -1.57487124e-01 -9.57021937e-02 +8.98175407e-03 +1.13453634e-01 +9.84874964e-02 +1.62940100e-01 +1.11857779e-01 +1.55883521e-01 -1.42398357e-01 +2.60370933e-02 +3.96457613e-02 -2.32795719e-03 +8.05281997e-02 +1.07234232e-02 +1.06569625e-01 -2.32649028e-01 -1.25304282e-01 -8.09489340e-02 -1.04181148e-01 +1.66900069e-01 -5.90365902e-02 +2.76421644e-02 -3.31645496e-02 +8.30512866e-03 -1.06335422e-02 +2.42458433e-02 +1.82601288e-01 -1.26255170e-01 -2.11797729e-02 +9.51261166e-03 -1.25034340e-02 -7.04897270e-02 +2.12548092e-01 -4.88042496e-02 -2.12727487e-01 +1.47405252e-01 -1.25115871e-01 -2.25328002e-03 +1.65618174e-02 +1.08206913e-01 +1.23761743e-01 +1.15260273e-01 -3.26391682e-02 -2.72672176e-02 -1.39100984e-01 -1.25734871e-02 +1.40250608e-01 +6.18640184e-02 -9.38889757e-02 +4.72830795e-02 -8.06244835e-02 -2.14693576e-01 +6.97317570e-02 -1.50421401e-02 -2.52829969e-01 -9.80185270e-02 -2.08883509e-01 -1.70124531e-01 +1.40872961e-02 -9.31307897e-02 +4.54224721e-02 -1.02969386e-01 +2.21846148e-01 -1.02919769e-02 -1.04118824e-01 +2.33577311e-01 +6.13654628e-02 -1.89824060e-01 -2.14323729e-01 -3.24150741e-01 +1.21741360e-02 +8.18673223e-02 -3.81139189e-01 +5.89016974e-02 -1.08577117e-01 -2.36677274e-01 -3.09966388e-03 -3.95759754e-02 -4.77592461e-02 -9.10788402e-02 -2.58808494e-01 +5.13074882e-02 -2.20137462e-01 -9.52863600e-03 +1.01050645e-01 +2.92057879e-02 -2.28394810e-02 -1.36460036e-01 +1.26410753e-01 +7.53730675e-03 +5.59224412e-02 +1.28726050e-01 -4.41274308e-02 -6.24260306e-02 +1.03925571e-01 +2.98441410e-01 +9.53279361e-02 +6.73768818e-02 +1.12803884e-01 +6.25621453e-02 -1.53480038e-01 +1.13572277e-01 +1.18285291e-01 -2.98468918e-01 -5.29875346e-02 -2.67031133e-01 +1.06879860e-01 +7.14288056e-02 +6.08608313e-02 -1.40652344e-01 +6.29406944e-02 +7.56594613e-02 -5.14901169e-02 -1.05737284e-01 +1.21822543e-01 +1.57029312e-02 +5.00119179e-02 +1.34544736e-02 +1.06545657e-01 +6.72029480e-02 -6.05555139e-02 -9.17121768e-02 -2.27875084e-01 -2.59663999e-01 -1.29467264e-01 -1.19686984e-01 -1.56974420e-01 -1.86182037e-01 +1.03476897e-01 +8.18678513e-02 -1.10403225e-01 -1.39660820e-01 -1.16105415e-01 +1.99498460e-01 +1.23661317e-01 +6.13271371e-02 +1.09782003e-01 +2.65175514e-02 -1.86979815e-01 -4.77714129e-02 +1.30074948e-01 -3.61257675e-03 +3.20154242e-02 +9.87641737e-02 +5.78444451e-02 +1.36504650e-01 +1.06500611e-01 +8.40625986e-02 -6.31997213e-02 -9.20311436e-02 +1.07323825e-01 +8.19120854e-02 -7.98012167e-02 -1.90611780e-01 +2.93109026e-02 +8.38682801e-02 +8.86355937e-02 -1.09752841e-01 +7.86994174e-02 +3.96284536e-02 +8.76469687e-02 -2.42550358e-01 -3.23760742e-03 +9.09438953e-02 +1.35915786e-01 +9.90714282e-02 +1.20780468e-01 +1.90863863e-01 +1.94618210e-01 +1.91853777e-01 +4.39698845e-02 +6.75880685e-02 -3.66085619e-02 +9.15947109e-02 -1.02466680e-01 +1.08140729e-01 +5.99488951e-02 -1.81955040e-01 +1.53260246e-01 -1.68721855e-01 +9.16634798e-02 +1.83850408e-01 +2.67459042e-02 +8.04571658e-02 +3.40668559e-02 -8.06888118e-02 -1.49046868e-01 -5.57835139e-02 +9.63875937e-05 -7.34027028e-02 -2.03775108e-01 +7.74932355e-02 -2.78511681e-02 -3.54954489e-02 +7.66111240e-02 -9.79315117e-02 +7.26886839e-02 +3.40844877e-02 -1.19769327e-01 -5.47527075e-02 -6.33443296e-02 +1.08881459e-01 -2.58769840e-01 +2.33902130e-03 +1.38139933e-01 +6.05785698e-02 +8.43374282e-02 +1.26494810e-01 +4.51681092e-02 -2.17166170e-01 -4.20936011e-02 +5.92741072e-02 -1.67230949e-01 +7.79446512e-02 -3.56047899e-02 +4.46224473e-02 +1.45357251e-01 -3.12898196e-02 +1.31725997e-01 -2.08758250e-01 +1.03596561e-01 +1.62738636e-01 -1.34262949e-01 +3.22360848e-03 -2.51214840e-02 +6.21400215e-02 +7.50832185e-02 -1.05101965e-01 +1.22740179e-01 -1.15136318e-02 -8.20176397e-03 -1.96496814e-01 +3.17657031e-02 +1.11932442e-01 +1.59271643e-01 +9.87196341e-02 -6.27649482e-03 +4.37083915e-02 +2.63050031e-02 -1.63323045e-01 +1.21121258e-01 +8.18844065e-02 +8.44616592e-02 -2.22903132e-01 +1.52684495e-01 +1.34220526e-01 +1.85718268e-01 +2.34316260e-01 -3.00720129e-02 -3.84650737e-01 +6.22113049e-02 +5.77794984e-02 -6.74929619e-02 +4.23589014e-02 +3.67624238e-02 +7.26909712e-02 +1.10373028e-01 -7.69088939e-02 +1.48203075e-01 -1.16502404e-01 +1.00509726e-01 +7.58693367e-02 +3.19068832e-03 -6.06494807e-02 +2.26756446e-02 -1.09590851e-01 -5.25484756e-02 +1.86658323e-01 +3.98341427e-03 -8.37702081e-02 +1.03780873e-01 +9.20003727e-02 +1.34840474e-01 +1.24624237e-01 -1.90575510e-01 +1.44556940e-01 -3.70212980e-02 -4.74276505e-02 -2.62020379e-01 -2.22547770e-01 -2.87476387e-02 +5.88153042e-02 -2.25386843e-01 +1.67927817e-01 -9.35524702e-03 -1.46886215e-01 -9.96341109e-02 +1.01057455e-01 -4.17519733e-02 +3.23212966e-02 +1.09963194e-01 -5.06820641e-02 -1.68066025e-01 -9.88669023e-02 +2.96940021e-02 +5.87365665e-02 -1.55529618e-01 +9.61101502e-02 +1.75160781e-01 -9.28280279e-02 -6.32431209e-02 -5.56522831e-02 -8.02495629e-02 -6.16052821e-02 +1.17827049e-02 +6.91949949e-02 +5.69119304e-02 -2.86065727e-01 +2.98744217e-02 +7.15739131e-02 -3.15216333e-02 +3.93929146e-02 +8.28989223e-02 +6.63970783e-02 -1.53710574e-01 -5.83223104e-02 +1.28772348e-01 +5.52532561e-02 +1.49258347e-02 +2.04723328e-01 -1.28314510e-01 -3.53296846e-02 -1.88310407e-02 +2.29080040e-02 +3.26576494e-02 +9.01803747e-02 +1.98786221e-02 -1.83008492e-01 +3.93909924e-02 +1.78120449e-01 +6.31511286e-02 -1.20390905e-02 +5.81358299e-02 +1.70869399e-02 +1.52847067e-01 +1.03263758e-01 +7.00956658e-02 +1.09651938e-01 +7.84882158e-02 -8.06825086e-02 +5.79960644e-02 +1.35166541e-01 +9.60010737e-02 -1.77595481e-01 +5.10764942e-02 -6.60584047e-02 -5.01900464e-02 +7.78272301e-02 +1.51101485e-01 +1.08906239e-01 +3.63317914e-02 +9.09214318e-02 -1.24490913e-03 -1.30007779e-02 +2.66999155e-02 +6.10690303e-02 +1.81977656e-02 +1.44163847e-01 +5.01154475e-02 +1.43387184e-01 +1.16568148e-01 +1.07118323e-01 +7.14072841e-04 +1.00735575e-03 +4.72019501e-02 +2.83484936e-01 +4.69249003e-02 +8.35161731e-02 +1.14581130e-01 +9.68667958e-03 -1.91312507e-01 -6.44976273e-03 -5.65902181e-02 +1.37717742e-02 -1.64573845e-02 +1.07772842e-01 +1.04126960e-01 -6.20932225e-03 +1.03553183e-01 -2.21769214e-02 +9.57525074e-02 -1.91274323e-02 +2.26876531e-02 +2.20361166e-02 +1.28754273e-01 -6.24271929e-02 +1.40284285e-01 +7.61059001e-02 -1.46967262e-01 +6.55797124e-02 +4.37352015e-03 +8.73396993e-02 +3.00991405e-02 +1.00901335e-01 -2.07156944e-03 +1.29523426e-01 +2.79262979e-02 +3.72404931e-03 -3.87407616e-02 -1.01624485e-02 -6.79559112e-02 -9.09843594e-02 -2.11580973e-02 -2.19269302e-02 -2.31729192e-03 -2.13484794e-01 +5.22821210e-02 +6.03782982e-02 +2.29517426e-02 -3.35671529e-02 +1.64200440e-01 +4.93251793e-02 +2.42766552e-02 -4.97783348e-02 +3.79918814e-02 +7.99843371e-02 -3.30917351e-02 -1.44529462e-01 -5.93115725e-02 -5.54590560e-02 +9.54753831e-02 +2.84228902e-02 +5.63811995e-02 -7.34885931e-02 +7.56802261e-02 +1.41231408e-02 -7.44470060e-02 +9.15282741e-02 +9.55520645e-02 +1.14382349e-01 +9.93892550e-02 -7.48109370e-02 +3.70674059e-02 -1.18435882e-02 +1.22460969e-01 +1.20134003e-01 +5.73917106e-02 +1.27794892e-01 +9.90400463e-02 -2.97490638e-02 +1.20653935e-01 +2.25648120e-01 -7.94025660e-02 +1.25114664e-01 -3.07678487e-02 +9.19466242e-02 +1.01387231e-02 +5.02764545e-02 +9.68104973e-02 +1.97188288e-01 +9.96243209e-02 -4.95565310e-02 -2.57724449e-02 -7.70735890e-02 +1.72222584e-01 +1.36060953e-01 -4.35284749e-02 -1.09159179e-01 +1.56297609e-01 +6.73872679e-02 +3.24913450e-02 +1.43313974e-01 -1.71934906e-03 +3.91671173e-02 +3.62183489e-02 +4.44026291e-02 +4.03601676e-02 -7.64700696e-02 +1.42536595e-01 -8.33456144e-02 -1.81478649e-01 -4.82889498e-03 -5.21992743e-02 +1.22128099e-01 +8.73274282e-02 +7.54429102e-02 +6.19523376e-02 +1.50188461e-01 +5.16026020e-02 +7.99199045e-02 +2.46188510e-02 +3.93567607e-02 -1.60533823e-02 -1.25718303e-02 +1.16190821e-01 +2.03704447e-01 -8.31605569e-02 +4.79055680e-02 +2.20353752e-02 +1.80450469e-01 +1.14125684e-01 -6.77556619e-02 -1.11555859e-01 -2.03548372e-02 +7.78068081e-02 +9.41787586e-02 +5.06993905e-02 +1.38280585e-01 +1.88023031e-01 +7.92627782e-03 -7.84374401e-02 +1.54258564e-01 -5.30689210e-02 +6.31317347e-02 -3.83864082e-02 -4.08955887e-02 +9.67339501e-02 +1.55737296e-01 +2.82608229e-03 +3.24801840e-02 +5.93413152e-02 +1.12692408e-01 +1.03540502e-01 +9.85204279e-02 +6.83373883e-02 -7.05848634e-02 -6.84557185e-02 -8.76688957e-02 +1.78598315e-01 +5.21547534e-02 +7.55995512e-02 +1.39920069e-02 -1.83020420e-02 +1.00919038e-01 +2.80202255e-02 +2.04331651e-01 -4.16584648e-02 -5.59608340e-02 +1.07180081e-01 +7.03676119e-02 -2.88975947e-02 +1.17591530e-01 +1.69306740e-01 +1.46419957e-01 -1.31122395e-01 -1.08904585e-01 +1.94542911e-02 +5.23440205e-02 -3.41801941e-02 +1.53502692e-02 +5.94790466e-02 +3.96000594e-02 +3.19500007e-02 -7.88088813e-02 -1.16413355e-01 +8.40670546e-04 +2.16938257e-02 +1.26327783e-01 +2.71164719e-02 +5.74567914e-02 +1.57198146e-01 +6.11693598e-02 +4.18274384e-03 -1.38322011e-01 +3.14033125e-03 +7.56632024e-03 +1.55540273e-01 +5.72961420e-02 +1.72688365e-01 -2.86552589e-02 +1.87840387e-01 +1.06748767e-01 +5.91285862e-02 +1.41480282e-01 +4.83769132e-03 +4.64943051e-02 +2.42697708e-02 -2.95416620e-02 -2.12426297e-02 -6.56865314e-02 +1.17086656e-02 +1.42787069e-01 +1.46707028e-01 +6.55252859e-02 +7.19100460e-02 -2.68679820e-02 +9.33627859e-02 -2.33715912e-03 +8.58345814e-03 -1.45648822e-01 +7.51179382e-02 -6.88308431e-03 +1.59332324e-02 -7.28159174e-02 +9.25483927e-03 -5.20912781e-02 -6.01862781e-02 -7.39310011e-02 +7.44803324e-02 -2.32852399e-02 +6.25902936e-02 -1.60083082e-02 -6.83685392e-02 -1.86617762e-01 -6.96721748e-02 -3.68481278e-02 +1.10310111e-02 +4.23679911e-02 +9.34501961e-02 -1.66035183e-02 +7.31461272e-02 +1.09237693e-01 -8.66718367e-02 +6.72754720e-02 +7.69799426e-02 +1.45051792e-01 +1.02389678e-01 +2.53398102e-02 +2.99509577e-02 +7.14499801e-02 +1.17180105e-02 +1.29516035e-01 -9.68291890e-04 +1.22457623e-01 -7.77231902e-02 -5.26903644e-02 +3.41330767e-02 -1.15039192e-01 -1.55149465e-02 +6.61469772e-02 +9.84822661e-02 +1.09331228e-01 +7.71605149e-02 +1.09251462e-01 +7.04709440e-03 +1.43179959e-02 +1.81504309e-01 +5.07297814e-02 +1.26699224e-01 -7.18501536e-03 -1.78349577e-02 +1.25296628e-02 -1.23002909e-01 -6.95969164e-02 -5.55491485e-02 +2.59039253e-02 -3.30986679e-02 -1.06976621e-01 +1.20544225e-01 -8.20100158e-02 -8.79155770e-02 -7.33500496e-02 -8.00037161e-02 +1.37918398e-01 +2.34747101e-02 +6.34865910e-02 +2.81195417e-02 +2.53692478e-01 +4.65094261e-02 +4.61837128e-02 +2.92734504e-02 +9.90772471e-02 +9.92911011e-02 +1.79333426e-02 +1.03598488e-02 +9.42369029e-02 -1.27525665e-02 +5.69309033e-02 +8.15136880e-02 +8.55406839e-03 +1.45915821e-01 +3.96877937e-02 +1.67638108e-01 -3.33186351e-02 -1.45906312e-02 -1.03575492e-03 -2.32258942e-02 -1.09796047e-01 -5.03014848e-02 -1.69401970e-02 +3.95139493e-02 +6.21708222e-02 +7.03237904e-03 -4.56467681e-02 +3.19738723e-02 +3.09476396e-03 -9.09089763e-03 +6.24979809e-02 +1.38569608e-01 +1.32459328e-01 +9.80651453e-02 +4.36050557e-02 +1.17185265e-02 +5.77208400e-02 +1.86297689e-02 +1.04511872e-01 +1.54819444e-01 +1.61435008e-01 +5.12567423e-02 +9.91926193e-02 -6.87838197e-02 +8.02274346e-02 +6.59505278e-02 -5.18367589e-02 +3.72980163e-02 +2.72795975e-01 +2.03959763e-01 -1.21298634e-01 +2.37207308e-01 -5.59791960e-02 +3.52210671e-01 +2.17572842e-02 -4.96440455e-02 +1.21982530e-01 -1.24925181e-01 -4.78594191e-02 -2.42018178e-01 +6.37414902e-02 +4.48195010e-01 +2.51034021e-01 -5.65988906e-02 -1.56303018e-01 +3.90919834e-01 +4.12794560e-01 +7.94981867e-02 -7.60150701e-02 -1.10981971e-01 -3.30272801e-02 +9.51229129e-03 +1.68606192e-01 +5.74667692e-01 +2.02949122e-01 +5.18528000e-02 +8.40464700e-03 +2.42830530e-01 +2.25063469e-02 +1.15831019e-02 +5.06243408e-02 +1.35332435e-01 +6.98606551e-01 -2.95547433e-02 +6.01268038e-02 +2.09152594e-01 +1.94404021e-01 +1.51625708e-01 -2.41717279e-01 +2.75577754e-01 +1.61148131e-01 -9.51556340e-02 +1.60078928e-01 +1.31901294e-01 -1.13685802e-01 +3.41313571e-01 -2.07090542e-01 +2.49139905e-01 +9.40925106e-02 -6.44697845e-02 -5.60004935e-02 -2.67451167e-01 -5.35637252e-02 -1.93233858e-03 +2.81984732e-03 -3.61073203e-02 +3.61655563e-01 -9.32732522e-02 -5.58423735e-02 -5.83393648e-02 -9.87312123e-02 +5.86868301e-02 -1.29128061e-02 +1.66377366e-01 -2.49551982e-02 -1.25046387e-01 +1.29027933e-01 +2.77050197e-01 -5.25534898e-02 -1.76502824e-01 +2.36476716e-02 -1.18412249e-01 +2.72536045e-03 +1.81253999e-01 +2.12547988e-01 -1.39496103e-01 -9.04270038e-02 +1.41407222e-01 +2.60465652e-01 -1.43223271e-01 +1.03997149e-01 -1.11199290e-01 +1.23550393e-01 +7.65715539e-02 +9.63818878e-02 -2.06298336e-01 +1.17182292e-01 -1.52331427e-01 -1.11585900e-01 -3.62408794e-02 +4.81883250e-02 +2.27099463e-01 +1.56645164e-01 +6.59520254e-02 -2.60236375e-02 +3.58676374e-01 -3.77431326e-02 -1.13805898e-01 +1.18273564e-01 -4.25630957e-02 +1.31028995e-01 +1.59330353e-01 +4.42248471e-02 +2.86083911e-02 +3.72340351e-01 +5.37824482e-02 +3.53790790e-01 +3.78812663e-02 +1.81633979e-01 -8.64472538e-02 +1.93951011e-03 -1.50965732e-02 +4.20926325e-02 +2.01362878e-01 -7.43958801e-02 -1.73361063e-01 -5.61398827e-02 +4.82475668e-01 +4.31453019e-01 +4.18427616e-01 -3.61961462e-02 -1.54976407e-02 +9.88834947e-02 +3.40080053e-01 -6.50593862e-02 -1.08693317e-01 +3.06566171e-02 +1.41509429e-01 +1.24719143e-01 -2.34109983e-02 +1.56935439e-01 -4.41647097e-02 +1.26995698e-01 -1.37100115e-01 -1.69414908e-01 +2.29459152e-01 -8.37368593e-02 +2.55375743e-01 +1.99340701e-01 -1.18938304e-01 +8.44595432e-02 -1.27446249e-01 -5.93920909e-02 -4.02328670e-02 -7.96638429e-02 -4.85182507e-03 -1.14157356e-01 -2.12177038e-01 +2.91102678e-01 -1.86946206e-02 +2.13182732e-01 -1.47593930e-01 +2.01158598e-01 -1.64316475e-01 -6.28082035e-03 +2.93022171e-02 +8.83114189e-02 -1.04960963e-01 -3.69201265e-02 -8.72363001e-02 -1.26770008e-02 -8.95308927e-02 +2.39032671e-01 -1.61343012e-02 -1.49318606e-01 +6.62290528e-02 -6.04728572e-02 +3.43204200e-01 -1.86936468e-01 -2.00135410e-02 -4.57339361e-02 -9.45728049e-02 +2.19009519e-01 -1.27730712e-01 -7.08945841e-02 +7.84518272e-02 -6.27801334e-03 +6.67593302e-03 -5.46430871e-02 +1.41831577e-01 -2.02563833e-02 -9.96921584e-03 +1.59276575e-01 +1.17134035e-01 +9.95417461e-02 -2.24455036e-02 +5.59597872e-02 +5.92999123e-02 +3.97460341e-01 +5.25933690e-04 +2.20270827e-01 -2.65478101e-02 +2.16953624e-02 +8.82634986e-03 -1.23193890e-01 -7.63015375e-02 +5.63801751e-02 -5.04793450e-02 +1.43625140e-01 +2.77559280e-01 -1.70987517e-01 -2.63361409e-02 +2.58261055e-01 +3.59562226e-02 -5.18852137e-02 -1.54046416e-01 +1.29873693e-01 +5.65554649e-02 +8.35337937e-02 -9.37748328e-02 +1.19541623e-01 +5.30171096e-02 -2.05568373e-02 +8.27198774e-02 +1.05748646e-01 +1.27454653e-01 -1.27417311e-01 -8.60220045e-02 -2.90116593e-02 -1.00591712e-01 -5.19825667e-02 +2.23396242e-01 +9.83601883e-02 +3.39840800e-01 -6.69472069e-02 -2.79150028e-02 -3.67457382e-02 -5.48062548e-02 +1.18329324e-01 +1.56048924e-01 -3.19621935e-02 -2.32673585e-02 +1.30164057e-01 -5.52076809e-02 -1.64640602e-02 -2.69066632e-01 +1.83096305e-01 +1.18863128e-01 -5.21811284e-02 +6.71504587e-02 -1.46046996e-01 +1.05256140e-02 -1.17834382e-01 -1.44427642e-01 -1.82215087e-02 -7.59048834e-02 -1.90192938e-01 +7.50993341e-02 -1.04602560e-01 -6.80749416e-02 -1.03781901e-01 +9.97319221e-05 -8.55580494e-02 +1.19243145e-01 +9.51272175e-02 -1.38464630e-01 -5.41659654e-04 +2.60264248e-01 +1.82269916e-01 -5.65074757e-02 -1.40286639e-01 -4.08657938e-02 -3.01950308e-03 -1.16520613e-01 -4.02057879e-02 -3.68748009e-02 +1.29227802e-01 +2.76022051e-02 -4.15674113e-02 -4.69498597e-02 -2.05671310e-01 -6.80676550e-02 -1.93404019e-01 -1.86205402e-01 +2.43233949e-01 -1.05740190e-01 +4.25268449e-02 +2.47316509e-01 +9.72156897e-02 +2.16165468e-01 +7.94192106e-02 +1.75439611e-01 +1.97752891e-03 -3.31358463e-02 +1.81318060e-01 -1.39370179e-02 +2.62700915e-01 -8.92375857e-02 -9.32672396e-02 -7.23529682e-02 -8.03413168e-02 -8.13197717e-02 +1.13227308e-01 -3.06494497e-02 -1.02943935e-01 -1.29666105e-01 -6.62073120e-02 -1.05165377e-01 -2.37983186e-02 -2.56593972e-01 -1.39398053e-01 -1.36667177e-01 -5.32723628e-02 +7.98632056e-02 -1.42237581e-02 -1.29900411e-01 +3.22582908e-02 +5.11630327e-02 -4.30298410e-02 -3.64310183e-02 -4.19283099e-02 -1.70214344e-02 -8.50271434e-02 +3.93001735e-02 -3.30217406e-02 -1.98920771e-01 -2.57807504e-02 +5.51731512e-02 -1.68986246e-01 -2.00239252e-02 +2.43499260e-02 -1.19179256e-01 -1.42175123e-01 -9.95518714e-02 -1.74397662e-01 -1.17828578e-01 +2.25243494e-02 -2.06904441e-01 -5.08182496e-02 -8.21262598e-02 +6.84604570e-02 +1.08823046e-01 -8.11092257e-02 -4.69482504e-02 -9.25350040e-02 -2.32747167e-01 +1.01419941e-01 -1.27443358e-01 -1.06417753e-01 +5.36263883e-02 +1.03808917e-01 -1.10820025e-01 +5.01974626e-03 -9.41199586e-02 +8.57899636e-02 -1.47139609e-01 -1.02669206e-02 -2.52877194e-02 -1.32681161e-01 -4.65380661e-02 -7.26710856e-02 -1.64269909e-01 -4.14535254e-02 -1.54130265e-01 +1.08786017e-01 +5.30639440e-02 +3.08024734e-01 +1.19408995e-01 -1.35924324e-01 -4.07692641e-02 -1.32188527e-02 -1.87314779e-01 -1.40823990e-01 +2.88865585e-02 +1.37939125e-01 +1.76766571e-02 +2.01484337e-01 +9.59680527e-02 +3.94358002e-02 +2.03869082e-02 -1.38103187e-01 -8.48134235e-02 -9.87349451e-02 +2.37699315e-01 -1.39960006e-01 +1.96585041e-02 +2.65512049e-01 +1.28145218e-01 -5.52214645e-02 -5.42547330e-02 -7.56881312e-02 +7.39267170e-02 +2.19416618e-03 +8.01000297e-02 +1.72942281e-02 -3.84162143e-02 -2.16285978e-02 -6.69971257e-02 -8.22714195e-02 -5.21450043e-02 -7.27448519e-03 +1.87311298e-03 -1.31589875e-01 +2.54925072e-01 -4.13350128e-02 -6.90846294e-02 -2.10799873e-01 +9.39142108e-02 -8.59157369e-02 -9.67531577e-02 -8.25401768e-02 -1.52562901e-01 +1.08301984e-02 +2.03908473e-01 +3.91086889e-03 -1.16405129e-01 -5.28799817e-02 -5.84928952e-02 +3.13109122e-02 -3.41840181e-03 -8.32915604e-02 -9.40256193e-02 +4.30045575e-02 +9.85044315e-02 -1.11968882e-01 +2.31495891e-02 -4.16199304e-02 -8.54317695e-02 -4.71078716e-02 +5.04655987e-02 +1.83596209e-01 -1.80526659e-01 -1.65254712e-01 -5.92498342e-03 -1.24249563e-01 -4.61602956e-02 -1.22892871e-01 -8.36357567e-03 +9.02826637e-02 -1.49625733e-01 -1.04538932e-01 +1.30280614e-01 +9.41127688e-02 -1.25988051e-01 -3.65153998e-02 -1.02509167e-02 +1.16310082e-01 -1.75296366e-01 -6.20036274e-02 +1.53168678e-01 +1.76289514e-01 -1.14836305e-01 +6.50160760e-02 -9.72538739e-02 -6.78940415e-02 -7.13304952e-02 +2.02883735e-01 +2.63499320e-01 -2.78386585e-02 -1.26976639e-01 -9.24865529e-03 -1.39456451e-01 -1.01188853e-01 +1.93195656e-01 -1.66039079e-01 -2.63249706e-02 +9.93308723e-02 -1.94493984e-03 -1.20733820e-01 -1.75158173e-01 -1.01911910e-01 +2.65244335e-01 -2.59670448e-02 +3.83413285e-02 +9.08890739e-02 -1.43675491e-01 -1.31023154e-01 +5.59981205e-02 +1.34608984e-01 -2.33798213e-02 -9.84983817e-02 -2.77901255e-02 +5.26317991e-02 -1.32260010e-01 +2.00837418e-01 +7.62140704e-03 -1.18387282e-01 -1.01014026e-01 -4.87515181e-02 -4.32499759e-02 -4.31716330e-02 +2.02583060e-01 -1.08117148e-01 +3.37658040e-02 -1.18502051e-01 -4.61302996e-02 -6.22971691e-02 -2.92982552e-02 -1.37963325e-01 -5.40036410e-02 -2.17679478e-02 -2.42316071e-02 -2.89580077e-02 +3.82427163e-02 +4.41196188e-02 -9.81691554e-02 -1.16694218e-03 +1.93185687e-01 -1.04734257e-01 -2.49321893e-01 +4.70536435e-03 -4.63558221e-03 -1.30398888e-02 -3.62614053e-03 -9.16503370e-02 -6.62815496e-02 +2.58839838e-02 -9.11216289e-02 +5.72410300e-02 +8.28124657e-02 -8.30669552e-02 -2.53539458e-02 -4.91755642e-02 -1.12039529e-01 -1.01151474e-01 +1.63531548e-03 -1.33096173e-01 -1.06008001e-01 -8.72453526e-02 -7.40745068e-02 +5.49917445e-02 -1.17322445e-01 -3.21316980e-02 -1.20451562e-01 -1.62349880e-01 -1.97686762e-01 -1.07749097e-01 +2.56207377e-01 -1.10838674e-02 -8.89238566e-02 -1.24505356e-01 +8.04352313e-02 -3.20906714e-02 -1.57820564e-02 -1.16958164e-01 +1.50243947e-02 +2.11334080e-01 +1.01754051e-02 +6.00654492e-03 -2.78001111e-02 -1.47876412e-01 -7.17200562e-02 +1.64967120e-01 -5.36529906e-02 -9.20024663e-02 +7.35104755e-02 +1.84124755e-03 +1.73013732e-02 +3.99516262e-02 +7.53354747e-03 +2.48133484e-02 -1.31614543e-02 -1.05915211e-01 -6.41420186e-02 +5.89442067e-02 -1.41186714e-02 -4.53845784e-02 +5.25499973e-03 -3.31355482e-02 +1.49133071e-01 -1.65522620e-02 -1.42535612e-01 +9.57735553e-02 +8.82369056e-02 -1.13231227e-01 +6.69414252e-02 +3.43418568e-02 -2.15922929e-02 +1.36594430e-01 -1.09886497e-01 +6.63840324e-02 +2.34538764e-01 +7.74979815e-02 -1.03930973e-01 -1.44440055e-01 -3.32371779e-02 -3.71814775e-03 +1.88925773e-01 -9.74091142e-02 -5.34729473e-02 -4.51379530e-02 +9.64490846e-02 -3.07923052e-02 -6.87909871e-02 -8.80165622e-02 +9.83354524e-02 +6.11630827e-02 +2.16423534e-02 +2.71449285e-03 -7.77199566e-02 -5.12227304e-02 -7.36735687e-02 -1.05810367e-01 +1.48971647e-01 +2.70167831e-03 -1.97948501e-01 +3.92490812e-02 -7.54622295e-02 +6.27648756e-02 -1.32670980e-02 -1.72280357e-03 -2.81054564e-02 -8.86480212e-02 -1.32268921e-01 -1.23831436e-01 -9.81869549e-02 -3.64949293e-02 -8.13558027e-02 -5.09988517e-02 -1.86480507e-01 +4.58868369e-02 +4.62197699e-03 -3.54433246e-02 -1.48307439e-02 -5.37891500e-03 -5.07862270e-02 +5.06450348e-02 -4.76971380e-02 +2.12585166e-01 +2.83303019e-03 -6.44429997e-02 +1.27696663e-01 -1.12368129e-01 -9.30598602e-02 +1.62647516e-01 -1.20189056e-01 +2.11187199e-01 -3.82696837e-02 -5.85982539e-02 -6.44524693e-02 -9.97317880e-02 -1.39527515e-01 +6.98242038e-02 -6.86887512e-03 -9.15216468e-03 -3.70900035e-02 +1.32179037e-01 -9.25924927e-02 -1.46888658e-01 -1.43598631e-01 -1.44141778e-01 -9.69474316e-02 +1.54414341e-01 +9.53613371e-02 -1.14525847e-01 +1.14755429e-01 +1.65656328e-01 +1.71369419e-01 -9.80597511e-02 +4.62601595e-02 +6.68014139e-02 -1.40443951e-01 -1.74205843e-02 +9.08777863e-03 +7.24626705e-02 -6.57227784e-02 +1.20865926e-01 -6.20899163e-02 +1.77836284e-01 -1.26236994e-02 -8.20089206e-02 -1.06442794e-01 +7.84044340e-02 +1.06966607e-01 -5.56474812e-02 -3.43096703e-02 -1.01306841e-01 -1.39158040e-01 +6.52980730e-02 +6.49427474e-02 +4.58665937e-02 +1.78824648e-01 -8.81052390e-02 -6.78143799e-02 +2.69562751e-02 -1.16816899e-02 +8.51861462e-02 +7.16294646e-02 -8.84611830e-02 +2.11492162e-02 -1.19147142e-02 -1.87390268e-01 -1.26073450e-01 -4.09271345e-02 -3.99044389e-03 +2.86400765e-02 -1.32595330e-01 +3.67094539e-02 -4.48822230e-02 +6.71262592e-02 -4.90963785e-03 -1.39013723e-01 -1.15700578e-02 +8.39351714e-02 -5.80329187e-02 +6.38671815e-02 -8.12193528e-02 -4.39829044e-02 -4.40706052e-02 +1.44773856e-01 -3.34520712e-02 -7.58689940e-02 +5.82301691e-02 -1.25917256e-01 +2.27532368e-02 -1.00094140e-01 -1.62717953e-01 +3.53104323e-02 +1.68701783e-02 -2.12707967e-02 +2.05655452e-02 +4.44862694e-02 -9.06176120e-02 -5.07712588e-02 +2.48424690e-02 -3.72648090e-02 -1.66533682e-02 -1.19498104e-01 +5.63659258e-02 +4.70031686e-02 -1.49281234e-01 -3.00114769e-02 -8.94550234e-03 +3.80929485e-02 +6.59286752e-02 -6.02767393e-02 -1.49675831e-01 -3.87558639e-02 -5.25671691e-02 -4.11012061e-02 -1.31076500e-01 +1.47965122e-02 -9.63907987e-02 -2.09887400e-02 -2.36726142e-02 -4.15887982e-02 +9.05664191e-02 +9.45254043e-03 +2.75466219e-02 +1.12976879e-01 +3.66809480e-02 -3.70380352e-04 -9.51428264e-02 -1.29067138e-01 -6.21483885e-02 -7.19623342e-02 +1.86659858e-01 -2.95163635e-02 +1.24309368e-01 -6.50333911e-02 -1.77836213e-02 +4.29524221e-02 -1.73803538e-01 -1.23212941e-01 -1.36408567e-01 -6.93093464e-02 -2.44753528e-02 -3.24970111e-02 +2.22762348e-03 -1.15795039e-01 +2.46438403e-02 +3.31970230e-02 +1.87465770e-03 -1.03956223e-01 +1.34185338e-02 -1.48943169e-02 +9.87878218e-02 -1.90670565e-01 +1.48811609e-01 +2.82179080e-02 +1.14264160e-01 +6.02659099e-02 +9.24601629e-02 -1.38626128e-01 -1.26063213e-01 -4.61932421e-02 -3.78115475e-02 -3.27495337e-02 -6.95976466e-02 +1.08106723e-02 -4.83463965e-02 -1.50366798e-01 -8.13210905e-02 +5.14296778e-02 +4.68902253e-02 +1.88808388e-03 +3.76358181e-02 +8.58084708e-02 -2.61157006e-02 +1.18889466e-01 +6.50506420e-03 +1.68059051e-01 -1.24784589e-01 +1.42750546e-01 -4.38074656e-02 -1.43668484e-02 -1.05072767e-01 -9.57819745e-02 -1.93044320e-02 -2.23631486e-02 -1.99021939e-02 -1.65361851e-01 -7.80373961e-02 -1.41156629e-01 -1.35474339e-01 +9.58426893e-02 -1.48527706e-02 +5.92735130e-04 -3.52001600e-02 -2.97302334e-03 +7.34781623e-02 +7.84629881e-02 -1.23775899e-01 +5.58350421e-02 -1.23060502e-01 -8.63217562e-02 -1.67616501e-01 -9.53333452e-02 +7.72197768e-02 +6.29385933e-03 +1.68167442e-01 +4.47005816e-02 +2.99144145e-02 -3.92178260e-02 -7.12117702e-02 +5.13950214e-02 -7.88286105e-02 +1.46748722e-01 -4.14763279e-02 +2.83285808e-02 -9.43507180e-02 -9.27082449e-02 -1.11625247e-01 -6.21793345e-02 -6.02891259e-02 -5.42620495e-02 +2.71322876e-02 -1.26034975e-01 +5.97816855e-02 -1.05103381e-01 -1.50884032e-01 -4.33747135e-02 -1.07234806e-01 -1.46836087e-01 +2.15324666e-03 -2.35042404e-02 -9.32223797e-02 -1.19460411e-01 -2.27456279e-02 -4.82182175e-01 -2.28834510e-01 -9.00207832e-02 +8.83227289e-02 -6.97961524e-02 +3.58690545e-02 +6.88980073e-02 +6.83555603e-02 +1.91857383e-01 +4.76850122e-02 +2.48232082e-01 +4.26309735e-01 +4.08800036e-01 +4.38508391e-01 +3.07875741e-02 -4.36414257e-02 +5.64469807e-02 +2.34311104e-01 +3.20951462e-01 +4.52661887e-02 -2.81268352e-04 +6.61957487e-02 +4.34709489e-01 +1.26654521e-01 -1.22864097e-01 -2.83123463e-01 -2.51518011e-01 +1.99321151e-01 -3.17996293e-01 -5.08145206e-02 -1.02496333e-02 -3.53949107e-02 -5.34972064e-02 -8.96785334e-02 -6.27378598e-02 -4.24292758e-02 +9.59685296e-02 -4.24924158e-02 -8.20852667e-02 -5.13804331e-02 +5.18801473e-02 +1.47014651e-02 +4.87429872e-02 +2.74189748e-02 -1.52571753e-01 -5.90158328e-02 +2.24511661e-02 +2.58357823e-01 +8.59621912e-02 -3.13934982e-01 -1.52399361e-01 +1.82748303e-01 -1.04202956e-01 -6.37342557e-02 +1.80420689e-02 -1.60624608e-02 +1.93834230e-01 +1.39409676e-01 +5.45214951e-01 +7.13599250e-02 +1.81615368e-01 -8.08319300e-02 -1.25510305e-01 -1.31435931e-01 -1.16044655e-01 +5.66312894e-02 +1.57308448e-02 +3.31219025e-02 -2.60179698e-01 +2.51384452e-02 -7.28978962e-02 +5.05787730e-01 +1.78048387e-02 -3.40111367e-02 +6.91591874e-02 +2.00879708e-01 +2.35560596e-01 +1.21072428e-02 +1.63514018e-01 +2.87358403e-01 -5.55316992e-02 +7.57965595e-02 +9.54211876e-02 +9.20432508e-02 -5.27183302e-02 -1.13001220e-01 -1.37985289e-01 -1.38708279e-01 -5.83892018e-02 +3.05101752e-01 -5.02400771e-02 +5.61181828e-02 +4.53467630e-02 -1.54828027e-01 -1.27221093e-01 +8.75995904e-02 -9.11350697e-02 +3.14773977e-01 +3.70074506e-03 +8.96053612e-02 +1.52132168e-01 -2.32729632e-02 -9.25400928e-02 -1.35841658e-02 -7.71691948e-02 -2.14064419e-02 +1.60298780e-01 -8.13990831e-02 +1.79952502e-01 -3.86621729e-02 -2.89973971e-02 +1.48718938e-01 +1.34928487e-02 +1.15067121e-02 -3.51658285e-01 -9.25053433e-02 -7.12025240e-02 -1.28603205e-01 +1.71774719e-02 +7.07376376e-02 +2.45018601e-01 +4.04994413e-02 -1.66081667e-01 -7.19412640e-02 +1.30866081e-01 -1.87050566e-01 +1.19055072e-02 +4.94238362e-02 +6.29844442e-02 +9.89816859e-02 -6.25033230e-02 -3.03847771e-02 -1.68245152e-01 +4.54101944e-04 +1.37230262e-01 +1.60444397e-02 +4.40456159e-02 +6.05361424e-02 +1.21568695e-01 +7.16638379e-03 +1.40305907e-01 +4.23471704e-02 -7.47675672e-02 +7.23088859e-03 -9.23635662e-02 -6.39079213e-02 +6.15863055e-02 -3.25778201e-02 +1.50585636e-01 +1.51477680e-01 -2.37027615e-01 +6.96663484e-02 -9.12880599e-02 -5.75823747e-02 -1.50993511e-01 -7.63044804e-02 -1.21309027e-01 -1.04704455e-01 -9.09712464e-02 -7.52238408e-02 -1.09107353e-01 +5.54865636e-02 +8.44285488e-02 -7.15574920e-02 +2.61738658e-01 +4.64296974e-02 +1.26358002e-01 +2.13972017e-01 +3.67924236e-02 +3.25496703e-01 -2.08413489e-02 +1.71388313e-02 +1.86487511e-01 +1.52274936e-01 -1.94608524e-01 -4.83100079e-02 -1.41116694e-01 -6.20898567e-02 +1.08980462e-02 -4.65280078e-02 +3.57776210e-02 -5.12294136e-02 -8.50278363e-02 +1.84569299e-01 -2.24935468e-02 -1.08049903e-02 +7.04018027e-02 +1.11792848e-01 -2.37737238e-01 -6.86369985e-02 -2.35359222e-02 -8.93560275e-02 -1.37587427e-03 -2.30595265e-02 -1.15865991e-01 -2.76262569e-03 -3.38465869e-02 +3.37656625e-02 -1.08674973e-01 -1.74395163e-02 -1.95778847e-01 -1.20892264e-01 +9.46323387e-03 -2.50144638e-02 -1.97155669e-01 -1.69543065e-02 -1.20166391e-02 -7.53678903e-02 +2.51699351e-02 +2.00703338e-01 -1.99962072e-02 +5.80145940e-02 +5.64679212e-04 -1.39844138e-02 +1.02014743e-01 -8.21586233e-03 +1.59094054e-02 +4.64078179e-03 +1.52422637e-01 +1.36960953e-01 +9.13260952e-02 +2.40915138e-02 +2.21650675e-02 +2.64613301e-01 -1.07355796e-01 +1.34899899e-01 +3.56933102e-02 -1.48464411e-01 +1.39646143e-01 +3.62688326e-03 -7.74555057e-02 -3.52322869e-02 -1.52072189e-02 +2.12913960e-01 -4.55854833e-02 -3.81829292e-02 -1.33028384e-02 +4.75183725e-02 +1.30681232e-01 -3.93232852e-02 +3.39084975e-02 +3.68249305e-02 -2.14476325e-02 +9.22215953e-02 +1.91257708e-02 +1.01079166e-01 -4.89986688e-02 +5.56072891e-02 -1.78384641e-03 +1.39073417e-01 -6.10469580e-02 -1.41835570e-01 +3.27569731e-02 -8.48722830e-02 -4.51068543e-02 -5.98376840e-02 +2.75221821e-02 +1.59444939e-02 -4.41212170e-02 +1.17259145e-01 -4.36201952e-02 +4.86373752e-02 +6.48012310e-02 -4.72302735e-02 +5.91933094e-02 -1.25023887e-01 -6.20679557e-02 +1.77801047e-02 -1.45545393e-01 -2.59333197e-02 +3.66170853e-02 +1.79714244e-02 +1.28528535e-01 -5.57808429e-02 +2.95924135e-02 +2.81100661e-01 -1.38179630e-01 +1.87876113e-02 +3.28450203e-02 +1.21585242e-01 +1.67372659e-01 +4.32831198e-02 -1.18446974e-02 +1.76637564e-02 -9.88885611e-02 +7.58136362e-02 -1.83124185e-01 +8.77464563e-02 -2.66024977e-01 +1.02171436e-01 -1.50754973e-01 -2.75150333e-02 -2.67627370e-02 +2.42167190e-01 -1.89441651e-01 -1.02110848e-01 -6.24799132e-02 -2.24972486e-01 -1.87235642e-02 -8.42371956e-02 +6.03625253e-02 +1.89550936e-01 +6.74716022e-04 -3.80892828e-02 -9.29740146e-02 -7.30585959e-03 +5.17783090e-02 +1.11861460e-01 -3.05477418e-02 +8.70918483e-02 -9.22735687e-03 +9.13206080e-04 -1.31819341e-02 +3.76715332e-01 -2.22097966e-03 -2.57077664e-02 +1.16788030e-01 +1.16186559e-01 +1.08132642e-02 -4.72852141e-02 +3.84043641e-02 -4.62986063e-03 -1.83729097e-01 +1.94226392e-02 -2.33780947e-02 -1.02783181e-01 -6.42168298e-02 -3.56178433e-02 -2.78717905e-01 -2.45397855e-02 -1.12460796e-02 +1.16011418e-01 +6.09374465e-03 -3.72411050e-02 -3.81244272e-02 -1.68690942e-02 -5.75441420e-02 +4.95146401e-02 +8.72004256e-02 -1.71884745e-02 +5.40371276e-02 +1.16731413e-01 +6.50679246e-02 +1.51425034e-01 -9.38339233e-02 -1.03129469e-01 -1.44286186e-03 -1.63231045e-01 +7.51198083e-02 +1.24821953e-01 +1.21116683e-01 +1.93858109e-02 -4.53980640e-02 +4.53033252e-04 -9.49445516e-02 -7.72601739e-02 -6.09623492e-02 -7.42249042e-02 +1.33446321e-01 -8.21855366e-02 -8.51330999e-03 -5.00556119e-02 +1.25442311e-01 -5.49318306e-02 -6.64483011e-02 +9.16502252e-02 -9.82617363e-02 -7.57894069e-02 -4.19283956e-02 -1.04987942e-01 -1.46175101e-01 -1.92411188e-02 +3.46408673e-02 -1.10216826e-01 +5.84888086e-02 +1.12671748e-01 +1.13281207e-02 -1.87218741e-01 -3.09035946e-02 -9.09336656e-02 -7.54298121e-02 +8.51400644e-02 +8.82969983e-03 -4.95386869e-02 -3.45659070e-02 -1.24440849e-01 -2.17837751e-01 +2.11365353e-02 -2.72249561e-02 -9.34427232e-02 -4.04556617e-02 +4.18963432e-02 +1.90826301e-02 -8.54653418e-02 +9.25660953e-02 -3.03500295e-01 -6.94860658e-03 +7.84273967e-02 +9.08657759e-02 -1.61677852e-01 +4.98416461e-02 +9.72646028e-02 +7.92027116e-02 +2.08598927e-01 +1.66362181e-01 +7.81833827e-02 -8.25412851e-03 +8.24239701e-02 -4.07857867e-03 -1.03936218e-01 +1.59739126e-02 +5.18332645e-02 +1.08305976e-01 +5.27031049e-02 -7.05657303e-02 -6.02722764e-02 +5.69239333e-02 -1.04245441e-02 +7.36844400e-03 +5.48067801e-02 +5.58111854e-02 +1.71699122e-01 +9.06369239e-02 +1.00396954e-01 -9.59708020e-02 +1.74319118e-01 +6.75638840e-02 +1.14182524e-01 +1.10770129e-02 +7.78692961e-02 +1.01087421e-01 +9.84031036e-02 +4.81268689e-02 +1.67513087e-01 -4.18058224e-03 +4.08277549e-02 +4.90407273e-03 -9.88996308e-03 +2.12558925e-01 -4.39490639e-02 +1.08941488e-01 +1.54829279e-01 -5.44001795e-02 +8.80379006e-02 +4.80529480e-02 +6.00112788e-02 +4.21257801e-02 +1.29356280e-01 +1.02100752e-01 -9.66112986e-02 -7.05731586e-02 +1.72562506e-02 +1.21861756e-01 +5.81969991e-02 +1.63456947e-01 +9.31442678e-02 +9.25787538e-02 +4.91386559e-03 -3.07274424e-02 -4.92927060e-02 +8.39133561e-02 -6.56120479e-02 +2.10598148e-02 +7.03694299e-02 -2.73192450e-02 -6.15686402e-02 -1.35025382e-01 -8.06928128e-02 +1.13554329e-01 -5.63589819e-02 -4.99813110e-02 +1.00451052e-01 -1.18766241e-01 -7.79907703e-02 +2.40947455e-01 +1.09096274e-01 -2.69636307e-02 +7.17610866e-02 +1.11833639e-01 +3.95371541e-02 +3.19676623e-02 -2.75588334e-02 +2.65250280e-02 +1.73796471e-02 +1.03442900e-01 -9.39535648e-02 +3.65942754e-02 +3.69878523e-02 -2.63565942e-03 -4.72737141e-02 +7.65368715e-02 +8.97137895e-02 -7.70535693e-02 +7.57749304e-02 +6.95198253e-02 +1.51700769e-02 +1.09156646e-01 +8.95093158e-02 -8.96788854e-03 +4.96159047e-02 +1.12486616e-01 +1.47088960e-01 +3.67336757e-02 -1.48286462e-01 -3.15717980e-02 +5.37929721e-02 -1.58522315e-02 -1.05184786e-01 -7.80708343e-02 -6.82194978e-02 -1.71238825e-01 +8.92829672e-02 -8.58110338e-02 -4.48499918e-02 +1.04620211e-01 +3.84366401e-02 -3.59643288e-02 -6.78298771e-02 +4.95334938e-02 -2.67837066e-02 +1.33976892e-01 -2.55282491e-01 -5.05738072e-02 -8.41473788e-02 +3.57474983e-02 -9.65265092e-03 +2.30602816e-01 +1.95754096e-01 -6.40315264e-02 -7.10530877e-02 -1.85972273e-01 -1.11688025e-01 +4.92391959e-02 -7.61968195e-02 +1.69241354e-01 +1.18816473e-01 -1.59494475e-01 -1.48201838e-01 -1.11771122e-01 -6.97665066e-02 +8.12361687e-02 -3.73679847e-02 +7.30642257e-03 -8.31494853e-02 -4.91974615e-02 +8.58381167e-02 +4.61843908e-02 -3.11817657e-02 -1.31063804e-01 +5.70071228e-02 +1.97382718e-02 -3.61732356e-02 +3.25263403e-02 +1.21639110e-02 +3.44631374e-02 +6.87508062e-02 -1.19853698e-01 -3.27829644e-02 -7.72707984e-02 -3.49989198e-02 +8.42551962e-02 +8.65366906e-02 -3.07408348e-03 +2.76440736e-02 -9.47244465e-02 -1.27257198e-01 -4.00593244e-02 -9.38359424e-02 -8.43992829e-02 +9.18498170e-03 -5.78988381e-02 -1.44027457e-01 -4.16941866e-02 -5.66323958e-02 -1.49974465e-01 +3.64080220e-02 +7.04995766e-02 +2.39491053e-02 +1.14370592e-01 -5.84505647e-02 +2.82703489e-02 -8.33477676e-02 +7.09867999e-02 -9.10200328e-02 +2.65224520e-02 -8.24330002e-02 -5.82817383e-02 -1.35226086e-01 -8.71994942e-02 -1.13662511e-01 -7.91883543e-02 -6.91876039e-02 +5.44047803e-02 -9.40302666e-03 -5.73029183e-02 -7.24315941e-02 -4.74243201e-02 -3.77870500e-02 -1.08639441e-01 +6.18436635e-02 -1.19358227e-01 +2.98212208e-02 -7.95138106e-02 +2.53598206e-02 -2.00462919e-02 +2.15281412e-01 -1.58127099e-02 +1.16983503e-01 -3.03321099e-03 +1.30033493e-01 -5.53606786e-02 -1.00965671e-01 +2.74614207e-02 -1.55805647e-01 -5.33705344e-03 +2.69556232e-03 -1.12410657e-01 +4.68269130e-03 +7.06596673e-02 -1.42584622e-01 -1.18737243e-01 +7.20685627e-03 +1.08546123e-01 -1.34754255e-01 -5.04285432e-02 -3.53160175e-03 -1.30673751e-01 -9.51417163e-02 +1.57232851e-01 -4.39999141e-02 -1.50065109e-01 -2.56805792e-02 +6.26540929e-02 +7.28738606e-02 -8.92992094e-02 -4.88416180e-02 +4.29969318e-02 +5.22989370e-02 -1.17927797e-01 +6.18179031e-02 -1.74118400e-01 +4.66146134e-02 +1.05843537e-01 -3.39651033e-02 -1.43754482e-01 -1.09048337e-01 +7.23067112e-03 +1.03473388e-01 +2.10290849e-01 -1.24527089e-01 +6.66901618e-02 -1.72286164e-02 -5.97600117e-02 +6.87747747e-02 -1.08286791e-01 +9.26840864e-03 +1.11586101e-01 -1.80960316e-02 +5.95354177e-02 -1.59098312e-01 +1.38962328e-01 -1.73740774e-01 -7.69729242e-02 -1.01172747e-02 +3.98496762e-02 -6.17751405e-02 +1.21844597e-01 -1.05165439e-02 -1.31375372e-01 -1.66245792e-02 +3.55097987e-02 -1.19752549e-01 +5.03154211e-02 +1.59343094e-01 -1.41736791e-01 -1.20571489e-03 +1.47598004e-02 -1.20398700e-01 -6.31534010e-02 -2.49654148e-02 +6.15351908e-02 -1.49083538e-02 +1.04579046e-01 +8.97897184e-02 +5.93958423e-02 +5.79556078e-03 +2.39706971e-02 -7.30220377e-02 -1.12424068e-01 -8.92293453e-02 +8.28597099e-02 -1.26435161e-01 -9.42488238e-02 -1.28086597e-01 -9.31256190e-02 -5.63839264e-02 -1.95999481e-02 -3.81745361e-02 -3.04360706e-02 -9.98505130e-02 -6.20380566e-02 -6.69372827e-02 -1.11348532e-01 +6.45585209e-02 +8.41364563e-02 +1.67070385e-02 -5.09563349e-02 +3.30275893e-02 +1.91369548e-01 +1.78024247e-02 -1.06808499e-01 -4.38354127e-02 -1.80104319e-02 -2.49534119e-02 +2.63588671e-02 +4.31582481e-02 -1.74197823e-01 +2.98462193e-02 -4.36026193e-02 +7.85023645e-02 +9.62246954e-02 +5.70816174e-02 +3.08292545e-02 +4.20860797e-02 -9.13980082e-02 -9.84504297e-02 -7.02138571e-03 -8.11747834e-02 -8.83918721e-04 -4.60109338e-02 +2.76659208e-04 +8.74917656e-02 -1.16672263e-01 -8.28527585e-02 +1.72330141e-02 +2.78624836e-02 -6.16336986e-02 -1.13271840e-01 -1.25439197e-01 +5.28221577e-02 -7.85205290e-02 +4.43230048e-02 -8.15942511e-02 +1.72725192e-03 -5.35354353e-02 +2.23007817e-02 -1.15694866e-01 -1.36804478e-02 +6.17972575e-02 +5.93519658e-02 +7.77120292e-02 +3.08507457e-02 +7.45933503e-02 +8.68781731e-02 +2.45576933e-01 +3.84740643e-02 -6.32782653e-02 -9.44612771e-02 +5.80897629e-02 -1.57893792e-01 -9.71675515e-02 -8.61634314e-02 -2.10090205e-02 +1.17883664e-02 -1.88561007e-02 -1.06372729e-01 +3.45138423e-02 -3.27897184e-02 -1.33073330e-01 -1.57446880e-02 +3.08376481e-03 +6.58768266e-02 +2.91641038e-02 +3.33145671e-02 -1.65518671e-01 -1.26280272e-02 +8.19469802e-03 +1.02583952e-01 -6.46876544e-02 +3.29035185e-02 -3.92659530e-02 +4.00092490e-02 -2.07321364e-02 -8.35912526e-02 +6.58477694e-02 -5.54119460e-02 -5.37009016e-02 -3.49547789e-02 +5.72973974e-02 -6.67446405e-02 -3.50189805e-02 -4.17125113e-02 -2.48598214e-02 -2.93017495e-02 -4.40856479e-02 -6.58297837e-02 -4.83213253e-02 -1.62971780e-01 -1.10525213e-01 -8.86310115e-02 -7.60585517e-02 +1.88490062e-03 -3.68703604e-02 +4.43723239e-02 +1.28691316e-01 +4.90602404e-02 -3.10251396e-02 -1.31383240e-01 -6.57680333e-02 +8.07531849e-02 -3.21581326e-02 +9.30789765e-03 +6.64055869e-02 -1.17198881e-02 -7.15039484e-03 -2.65981648e-02 +1.32200858e-02 +5.21658063e-02 +6.64973781e-02 -1.05126843e-01 -1.56757042e-01 +2.10517459e-02 -1.47363427e-03 +3.74007262e-02 +4.52420153e-02 +7.59911314e-02 +9.29711014e-02 -6.07249551e-02 +7.60099245e-03 +1.34199243e-02 -4.13699970e-02 +8.18447862e-03 +8.10027197e-02 +4.42858972e-02 -1.00111090e-01 +5.69815561e-02 +3.97979058e-02 -2.88291741e-02 +2.51311138e-02 +1.93649661e-02 +8.83461684e-02 +1.80414766e-02 +1.39440130e-02 +1.09999673e-02 -1.28448335e-02 -9.55883265e-02 -2.47616414e-02 -6.83017224e-02 +6.16547652e-02 +3.05864289e-02 +3.80631313e-02 -2.88024485e-01 +3.53549644e-02 -2.14872342e-02 -3.24025422e-01 -1.52430549e-01 +1.71333458e-02 -1.45940274e-01 +7.69376904e-02 +4.59286161e-02 -1.10089011e-01 -2.68287122e-01 +1.03215881e-01 +3.98727536e-01 -9.14104640e-01 -2.85997570e-01 -1.96362987e-01 -1.22611672e-01 -1.23838417e-01 -4.38859940e-01 -8.50604754e-03 -1.20262221e-01 +1.35475263e-01 +3.32038045e-01 -2.17320964e-01 -1.05639212e-01 +1.35902867e-01 +4.85429540e-02 +3.27747971e-01 +2.75365803e-02 -6.73567131e-02 +7.07483962e-02 -2.05898881e-01 -3.44477355e-01 -6.06738999e-02 +2.66412705e-01 -8.67979378e-02 +1.27417132e-01 -1.51584059e-01 -3.99352819e-01 -1.59931377e-01 -2.00568855e-01 -2.21652333e-02 +4.25454937e-02 -1.77881997e-02 -6.23391986e-01 +4.26843204e-02 -1.06210515e-01 -3.99121970e-01 +2.32390031e-01 -1.35022491e-01 -1.92141742e-01 -2.20447004e-01 +6.71874848e-04 +8.71795341e-02 -3.33919913e-01 -1.06714919e-01 -7.68449381e-02 +1.01868249e-01 -2.79666454e-01 +6.46745339e-02 +4.80918139e-02 -1.66932747e-01 +1.21929891e-01 +1.45811394e-01 -4.88200076e-02 -2.29149926e-02 -2.24621937e-01 -1.16265953e-01 +1.15959749e-01 -2.10974626e-02 +7.40035623e-02 +5.08021042e-02 +1.09853148e-01 +1.98854655e-02 -1.42359346e-01 -1.97550043e-01 -4.18947488e-01 +6.50157630e-02 -1.10292606e-01 -1.60117634e-03 +1.79763004e-01 -9.47009679e-03 +1.06878288e-01 +1.41877264e-01 -2.44150102e-01 -4.79775481e-02 -1.90066487e-01 +1.41031861e-01 -5.92272766e-02 +3.09537143e-01 +1.94623053e-01 +1.74582481e-01 -3.47009182e-01 -2.00365409e-01 -1.23151720e-01 +9.65725747e-04 +2.18661614e-02 -9.25425515e-02 -1.69533446e-01 -1.01590894e-01 +1.92356020e-01 -1.62538812e-02 +7.56501630e-02 -4.04302925e-02 +1.28837004e-01 +1.24446683e-01 -1.44053087e-01 -1.65582597e-01 -1.54511034e-01 +1.02026813e-01 +1.42468885e-01 +9.90498662e-02 +3.04346859e-01 +1.28301352e-01 -2.15120569e-01 -2.65460879e-01 +9.87916719e-03 -2.26600822e-02 +1.49920404e-01 -1.84373394e-01 -2.39351541e-01 -1.52900577e-01 -1.26709621e-02 +5.30268587e-02 -5.77092767e-01 -3.14660072e-01 -7.68368989e-02 -3.53548862e-02 +1.25317089e-02 +2.70980030e-01 +2.36529280e-02 -7.54113868e-02 -4.36740555e-02 -1.58030689e-02 -1.01037174e-01 +1.01082176e-01 +5.95535375e-02 -2.67107427e-01 -1.88326612e-01 -1.40286669e-01 -2.31763303e-01 -9.77333859e-02 -5.55743277e-03 -4.76092845e-02 -4.17369485e-01 +1.22038946e-01 -1.14453055e-01 -3.57644707e-01 -1.94681257e-01 -3.84245589e-02 -4.93849128e-01 -1.26616240e-01 +4.40337956e-02 +2.12601617e-01 -2.25782916e-01 -1.85645428e-02 -5.04326075e-02 -7.26234540e-02 +1.46794796e-01 +1.34076416e-01 +2.51266155e-02 +2.16710381e-02 -8.63524750e-02 -1.81640431e-01 -2.68060952e-01 -1.59096252e-03 -7.56732821e-02 -2.75212318e-01 -9.59080234e-02 +8.73463973e-02 -1.21747434e-01 +1.81808606e-01 +3.67752486e-03 -2.89029896e-01 -2.28922322e-01 -3.57986428e-02 +5.91605790e-02 +2.66780052e-02 +1.53752476e-01 +4.35666032e-02 +2.65832454e-01 -1.50304377e-01 +2.92823613e-02 +4.13763262e-02 -7.35658109e-02 +7.40920156e-02 +1.25730976e-01 +9.71291885e-02 -5.13131507e-02 -1.04970252e-02 +1.02995485e-02 -2.99528353e-02 -2.93572515e-01 -7.24344626e-02 +1.75895747e-02 -5.65727763e-02 +3.56445909e-02 +3.79090826e-03 -3.00399009e-02 +5.10687605e-02 -1.43558219e-01 -1.36226460e-01 -1.35609925e-01 -9.69916582e-02 -9.00957510e-02 -5.53647913e-02 +4.72896211e-02 +4.89323512e-02 +3.27981077e-02 +5.03445491e-02 +1.44759975e-02 +1.42559186e-01 +6.10825233e-02 -6.83942810e-02 -1.22225769e-01 -9.42669064e-02 +1.26650512e-01 +1.80455089e-01 -5.66643216e-02 -2.15440035e-01 +5.34465499e-02 +1.62006885e-01 -2.36066477e-03 +1.74822003e-01 +4.36155871e-02 -7.94381723e-02 +1.99543938e-01 -2.22454146e-02 +1.56091303e-01 +6.44766241e-02 +5.30112423e-02 -1.57504097e-01 +4.05882066e-03 -5.45074698e-04 -2.89747268e-02 +1.99086890e-01 -9.19768773e-03 -1.22104548e-01 +2.68641915e-02 +2.73357183e-01 -1.78991985e-02 +1.94882110e-01 +7.96374679e-02 +3.55468169e-02 -7.31084794e-02 +3.13567482e-02 +7.09531456e-02 -4.57741097e-02 +1.47195999e-04 -1.43490568e-01 -7.31766894e-02 -1.39021486e-01 -1.62972063e-02 -4.98586483e-02 +3.26307938e-02 -1.93208940e-02 -1.66738018e-01 -9.76041853e-02 -7.65220895e-02 -1.26666829e-01 +3.56373712e-02 +4.93389554e-02 +6.81755170e-02 +6.60731792e-02 +1.02076851e-01 -1.68720856e-01 +7.99368843e-02 -1.03544174e-02 -1.51071146e-01 -1.37259156e-01 +4.26127389e-02 +2.40851846e-02 -1.51286334e-01 -1.00028083e-01 +1.67460173e-01 -2.82851547e-01 +1.16953857e-01 +7.38090947e-02 +2.59516407e-02 +1.57180130e-01 -2.18873784e-01 +9.61701795e-02 -8.59628394e-02 -5.83267361e-02 +1.57025754e-01 +1.92267135e-01 -1.65291354e-01 +9.47208051e-03 -2.49417931e-01 