#Parameter# /_2 {851,50} 680801 ZERO_GRAD
-1.60058081e-01 -7.41737723e-01 -7.83241689e-01 -2.45049983e-01 +1.09714806e+00 -2.19918624e-01 +2.90113002e-01 +2.51369178e-01 +5.83103657e-01 +5.01293838e-01 +5.64637147e-02 +6.24079853e-02 +2.62350827e-01 -2.18530798e+00 -1.97190583e-01 +9.31760669e-01 -3.84784371e-01 +2.47361451e-01 +9.04408693e-01 -2.77333166e-02 +1.72512740e-01 +2.49000266e-01 +1.82799816e-01 +5.90405129e-02 -9.37381908e-02 -2.22194135e-01 +7.93008626e-01 +2.76265085e-01 +1.47364259e-01 +8.21506009e-02 +8.48707259e-02 +1.23003721e-01 -1.20166905e-01 +5.77512562e-01 +1.52474999e-01 +1.00984538e+00 -4.41413909e-01 +4.36404824e-01 +1.04095019e-01 +2.94009447e-01 -4.40470964e-01 +1.97493061e-01 +2.88998097e-01 -8.31802338e-02 +2.58252352e-01 -3.62254888e-01 -1.29146561e-01 -2.83289999e-01 +2.29163662e-01 +5.23069017e-02 -2.73602188e-01 +2.82627475e-02 -4.10161942e-01 -1.57808378e-01 +9.94873792e-02 -1.57689631e-01 +1.94898203e-01 +2.80392826e-01 +1.42366573e-01 +4.90074717e-02 -3.19023762e-04 -9.57215670e-03 -1.55590370e-01 -2.33155608e-01 -2.14945618e-02 -6.48472831e-02 +1.90441221e-01 +2.38614410e-01 +4.01835479e-02 +8.94804448e-02 +2.07186759e-01 -6.03216551e-02 +7.63550699e-02 -1.03654237e-02 -2.49576871e-03 +2.54993647e-01 -4.03402567e-01 +4.65653419e-01 -1.18110515e-01 +3.18838090e-01 +6.13738120e-01 +5.88710487e-01 -2.45397121e-01 -1.52062833e-01 +4.85969372e-02 -9.07762051e-02 -6.51219115e-02 -1.94049165e-01 +2.51284599e-01 +2.38335162e-01 +1.59800246e-01 -4.17652994e-01 +1.29606992e-01 +4.58794653e-01 +2.53059447e-01 +2.83071488e-01 -2.27752522e-01 -1.80112183e-01 -1.29879728e-01 -2.24120721e-01 +4.58132625e-02 -3.72378081e-01 -1.80024952e-01 +3.25213782e-02 +4.86348271e-01 +1.29263930e-03 +9.00952518e-02 +5.84645689e-01 -1.22740038e-01 -2.58730613e-02 -5.61288260e-02 +5.09366214e-01 +3.67145054e-02 -3.95764351e-01 +4.12007719e-02 +3.00969109e-02 -6.84759200e-01 -2.84923136e-01 -3.87338400e-01 +1.14795551e-01 +1.91597670e-01 +4.13563371e-01 +2.17408873e-02 +1.50988949e-02 +8.34920630e-02 +4.71750677e-01 +3.55347365e-01 -2.23248199e-01 +5.80911227e-02 +1.00747503e-01 +2.14642525e-01 -2.78437696e-02 -2.17993051e-01 +1.62787884e-01 -1.80897400e-01 +8.94437432e-02 +9.79577452e-02 +1.74038813e-01 +1.38650581e-01 -1.83339063e-02 -4.58447844e-01 +4.48793679e-01 -1.32957786e-01 +3.56149897e-02 +2.76028868e-02 -1.90279812e-01 -3.10893178e-01 +1.99439630e-01 +3.22704941e-01 +1.26745954e-01 +1.34040013e-01 +1.33729517e-01 -1.87404707e-01 +3.81187826e-01 +8.29755291e-02 +2.37998351e-01 -2.14729667e-01 +5.42975962e-01 +1.25719085e-01 -7.16520520e-03 +8.43257308e-02 -1.67820156e-01 -8.02560449e-02 +4.72465791e-02 -2.75800321e-02 -3.26046944e-01 -2.55662709e-01 -6.30706698e-02 -1.65963575e-01 -5.97410649e-02 -6.18904948e-01 -4.54619229e-01 +1.91739440e-01 +3.95117044e-01 +1.41613171e-01 -2.00817093e-01 -3.39255631e-01 +4.24087755e-02 -6.59563988e-02 +1.58750817e-01 +2.14711893e-02 +2.13016853e-01 -1.71799347e-01 -1.44305184e-01 +2.58125961e-01 +7.53282011e-02 +7.23792464e-02 -4.26190294e-04 +2.58715868e-01 -3.38265300e-01 +2.07885981e-01 +4.18300003e-01 +1.95420552e-02 +1.83490906e-02 +5.06173074e-03 -5.85951144e-03 -4.27369922e-02 +3.96289192e-02 +9.82404128e-02 -9.08692405e-02 -1.54523611e-01 -1.80745482e-01 -3.68198335e-01 +5.10946512e-02 -1.56468809e-01 -2.93100059e-01 +2.02493146e-02 -2.87375133e-02 +1.45245656e-01 +8.44226405e-02 +3.71907085e-01 +4.73913431e-01 +1.30864322e-01 +5.32747746e-01 -1.12313755e-01 +1.65826544e-01 +2.20209569e-01 +2.62315363e-01 +2.68897921e-01 -1.42196372e-01 +1.65680900e-01 +2.05058977e-01 -3.61445069e-01 +1.59475952e-01 +3.03850234e-01 +2.00225905e-01 +5.06367981e-01 -9.22382176e-02 -3.20046872e-01 +5.03284574e-01 -3.20509933e-02 +8.91515985e-02 +1.53482944e-01 +1.03914715e-01 +1.83897261e-02 +3.44592370e-02 +7.30525032e-02 -1.36006773e-01 +5.30994758e-02 +2.46390864e-01 +2.95941252e-02 +5.01985289e-02 +6.04118071e-02 +2.04108059e-01 +2.38209859e-01 +1.76732153e-01 +1.10776752e-01 +2.23767739e-02 +1.19402654e-01 +1.57308295e-01 +2.48743147e-01 -2.42975548e-01 -2.58858442e-01 -2.24026546e-01 -1.25297410e-02 -4.81553115e-02 -1.64579079e-01 +3.05707734e-02 +1.38021260e-01 +2.60299444e-01 +1.96126342e-01 -1.38852090e-01 -4.91171144e-02 -2.50853058e-02 +1.10798128e-01 +8.79954994e-02 +2.00407967e-01 +2.58986149e-02 -3.35066281e-02 +7.36973509e-02 +5.44442572e-02 -1.20151766e-01 +2.62731686e-02 +1.87995896e-01 -1.99836418e-01 -7.35870078e-02 +1.04831621e-01 +9.57585052e-02 +1.32291019e-01 -3.85332070e-02 +2.97096729e-01 +1.90516621e-01 +1.06924869e-01 -5.73026612e-02 +1.20275011e-02 -3.00410479e-01 +1.02728081e-03 -6.60048500e-02 +7.98054487e-02 -6.84789894e-03 -2.86384016e-01 -4.61271405e-01 -1.60205767e-01 -4.56419624e-02 +7.73878098e-02 -4.54571657e-02 +8.90535675e-03 -7.04609975e-02 -9.78978947e-02 +1.45334706e-01 +3.81312184e-02 -1.77756976e-02 +4.93334271e-02 -1.13782011e-01 -1.50561675e-01 -2.26287112e-01 +2.29611978e-01 -2.96494037e-01 +3.80036701e-03 -3.07929188e-01 +1.70607760e-03 +8.05066675e-02 -1.40132859e-01 -8.61648545e-02 +5.58383286e-01 -1.62603911e-02 -1.17742512e-02 +9.89000872e-02 +2.19414607e-01 +1.39372526e-02 +1.19691759e-01 -7.53930286e-02 +3.84209529e-02 -2.62574315e-01 -2.53923267e-01 -1.52436882e-01 -5.12672365e-01 +8.38534907e-02 -6.22168183e-02 -1.42776370e-01 -7.74226785e-02 +5.66514097e-02 +6.60270154e-02 +5.11337407e-02 -1.41130596e-01 -3.33741039e-01 +6.00420451e-03 -2.62207016e-02 -4.87483069e-02 +2.26150170e-01 -7.88929090e-02 +8.42781961e-02 +3.35096866e-01 -1.41973570e-01 +1.28900170e-01 -1.61387593e-01 -3.51860225e-01 +2.36453697e-01 -2.91706622e-01 +8.44072849e-02 +5.39319217e-02 +1.36773705e-01 -1.56013712e-01 -1.09415360e-01 +5.20417728e-02 +8.53560790e-02 -3.93940955e-02 +1.30252048e-01 -2.94620246e-02 -1.62685052e-01 -1.12858124e-01 -1.02405004e-01 +6.16301671e-02 +5.99907450e-02 +9.63923633e-02 -1.43104583e-01 -3.38830978e-01 -1.32182583e-01 +3.56753692e-02 +9.38507617e-02 -1.89239830e-01 -9.30119976e-02 -2.73174196e-02 +1.45263121e-01 -1.77380785e-01 -2.67089289e-02 +4.20940131e-01 +1.18491994e-02 -1.34688213e-01 +1.94286704e-01 +1.23291172e-01 +9.01590437e-02 +8.87915567e-02 -1.53529480e-01 +1.37086123e-01 -2.29458407e-01 +8.43151361e-02 -2.20030904e-01 +3.44562262e-01 -2.26724356e-01 -2.34862551e-01 -1.67320222e-01 -6.74178153e-02 +1.25968922e-02 +2.11168379e-01 +3.32645774e-02 +9.25945342e-02 -1.64192900e-01 +6.00078478e-02 +1.36369079e-01 -2.95344502e-01 +2.92549372e-01 +2.08640084e-01 -4.13547307e-02 -2.89247990e-01 +7.24612549e-02 +3.92868370e-01 +1.40545979e-01 -3.05695087e-01 -2.02995136e-01 -2.10767671e-01 -2.04800338e-01 +2.00130180e-01 +7.84220546e-02 -1.73417792e-01 -2.78422415e-01 +2.09782690e-01 +4.19989927e-03 +5.19306585e-02 -2.83850461e-01 +7.52597377e-02 +1.25662670e-01 +4.22437154e-02 -1.53003618e-01 -3.54080319e-01 -3.28467488e-01 -2.09672600e-01 +3.30488235e-02 +1.21895559e-01 -1.27000377e-01 +4.47006039e-02 +1.75214246e-01 -5.01236767e-02 +3.79738142e-03 +1.24532133e-01 +1.86762601e-01 +4.14490134e-01 +1.67414069e-01 -1.63217455e-01 +4.26592320e-01 -9.47073102e-02 +1.59487993e-01 -2.91252494e-01 +1.06146678e-01 +6.90185130e-02 +1.85992435e-01 +2.01846570e-01 -8.15301761e-02 -1.95886970e-01 +1.15539655e-01 +1.92902088e-01 +3.36901359e-02 +1.49800777e-01 +3.11849862e-01 +4.62462604e-02 +6.27769083e-02 +1.61247745e-01 -1.15139186e-01 -2.42372751e-01 +9.50890109e-02 -2.97817528e-01 +9.95723382e-02 -4.01607066e-01 -3.70016277e-01 -6.66194828e-03 +1.92263171e-01 -7.28743747e-02 +9.87816602e-02 -8.21835995e-02 +1.18845403e-01 -2.91665941e-01 +2.15592116e-01 +1.60952032e-01 -2.89449334e-01 +8.70233923e-02 +1.81304559e-01 -5.71622886e-02 +4.97752335e-03 -3.93529162e-02 -3.25792283e-02 +4.88549247e-02 -2.18523461e-02 -1.76390752e-01 +6.17270991e-02 +1.69004172e-01 +4.38698158e-02 -1.97494835e-01 +4.00477089e-02 +6.67526200e-02 -9.12610143e-02 +2.32117120e-02 -3.39369625e-02 +4.74007763e-02 +1.45726234e-01 -8.32420066e-02 -9.31961741e-03 +9.22436044e-02 +1.42281190e-01 -5.46547771e-02 -3.14236172e-02 +3.08928400e-01 -1.08813398e-01 +2.46428668e-01 +1.40798926e-01 -2.74509937e-01 -1.92735940e-01 -1.88944954e-02 -2.08603978e-01 -6.02955557e-02 -3.31577212e-02 +1.03207864e-01 -4.67915982e-02 +9.10280924e-03 -6.65481165e-02 +6.85827285e-02 +9.69159976e-03 -5.82783706e-02 -1.86004713e-01 +1.04243830e-02 -3.92840542e-02 -1.74208656e-01 +4.70925495e-02 -2.38373578e-01 +1.50999233e-01 +1.77594692e-01 -2.66856432e-01 +1.96199957e-02 +2.72312045e-01 +2.03817815e-01 -2.23534629e-01 -1.79180503e-01 -2.70487905e-01 -2.23667398e-01 +2.34229073e-01 +9.91434157e-02 +3.97841334e-02 +1.47093656e-02 -2.53554374e-01 +6.73362166e-02 +1.52648956e-01 -3.71192098e-02 +2.94108875e-03 +9.17094648e-02 -7.62024671e-02 -1.22561812e-01 +3.94840352e-02 -1.76992398e-02 +1.91485763e-01 -1.30430773e-01 +1.67386010e-01 +6.64215535e-02 -1.88355390e-02 -2.68252417e-02 +5.36284968e-02 -2.57289838e-02 -4.85441461e-02 -2.17690561e-02 -5.51537797e-02 +1.66836709e-01 +1.19461259e-02 +6.89707249e-02 -1.51172161e-01 -2.92331278e-01 +3.77516672e-02 -2.97123976e-02 +5.67415468e-02 +6.24373332e-02 -1.28817916e-01 -7.48196170e-02 +1.65771753e-01 -3.49845253e-02 +1.19957432e-01 -3.04222733e-01 -1.21275187e-01 +2.80770790e-02 +4.07887101e-02 +9.51100737e-02 -3.29294056e-03 -1.40241683e-02 -6.31478056e-02 +9.31517035e-02 -1.58023790e-01 -3.20468307e-01 +1.45483255e-01 -2.14178041e-01 +6.77723810e-02 -2.81566620e-01 +8.68693143e-02 +1.04889005e-01 +6.46270020e-03 +8.97430480e-02 -2.36779511e-01 -2.09433988e-01 -1.59386441e-01 -3.42665225e-01 -1.73207119e-01 -2.02959403e-01 -1.53380722e-01 +3.26346420e-02 +1.45902961e-01 +1.05427101e-01 -5.38211176e-03 +2.95036472e-02 +4.45549889e-03 +4.44872938e-02 -7.71430973e-03 +1.53555691e-01 -3.86555120e-02 +2.19289839e-01 -1.22963116e-01 +2.77119815e-01 -2.86050111e-01 -1.24318451e-01 +2.19605565e-01 +3.74823026e-02 -1.22806199e-01 +3.78084891e-02 +8.63552745e-03 -1.25054628e-01 +6.27043471e-02 -2.31332183e-01 +1.80013981e-02 +7.96899199e-02 -8.34457800e-02 +4.90095578e-02 -2.18904614e-01 -7.08234757e-02 +1.69843718e-01 +5.28887846e-02 +3.63511443e-01 +1.17296882e-01 -2.51581222e-01 +4.50441707e-03 -1.18233748e-02 +7.24968985e-02 -1.24603882e-01 +6.41545234e-03 -2.35940292e-02 +1.11159578e-01 +1.18717678e-01 +1.94451082e-02 -3.27985644e-01 +2.29868144e-02 +1.40848190e-01 -1.89099863e-01 +1.24313228e-01 -2.44353116e-01 -9.85850021e-02 +1.76412866e-01 +3.13238531e-01 +3.85114364e-02 -8.07236973e-03 +3.62036452e-02 +1.47440331e-02 +5.27872145e-02 -2.05069408e-01 +1.33620203e-03 +2.58265603e-02 +3.79058509e-03 +1.29231915e-01 -3.12616795e-01 +1.20843850e-01 -1.63363323e-01 -1.10490814e-01 +9.25472528e-02 +3.86448205e-02 -3.36511023e-02 -1.56655282e-01 +5.23919798e-02 -8.44399631e-02 -3.05191278e-01 -1.03552245e-01 -6.14930987e-02 -2.96398327e-02 +1.10626154e-01 -2.28304639e-01 -8.64477903e-02 -2.99828965e-02 +3.10726296e-02 +9.63944271e-02 -4.89601046e-02 -3.96760134e-03 -1.99533716e-01 -7.76114911e-02 +8.94883126e-02 +4.51385230e-02 -1.51010841e-01 +8.10206011e-02 -2.68064309e-02 -2.85960644e-01 +8.56056586e-02 -1.40772685e-01 -9.69001185e-03 +1.07890382e-01 -3.01043332e-01 -1.62842125e-02 +1.11823035e-02 +4.67172004e-02 -1.82936698e-01 -9.43379663e-03 -2.81656593e-01 -1.83914408e-01 +5.74805140e-02 +6.34472445e-02 -3.75807062e-02 -8.58129561e-02 -4.74015661e-02 -2.16507509e-01 -2.04365745e-01 +1.99149609e-01 +2.22579002e-01 -1.62442058e-01 +1.99084170e-02 -1.82715088e-01 -3.15169506e-02 -6.21310547e-02 +5.77956848e-02 -2.20832244e-01 -2.24233165e-01 +3.35737541e-02 +1.50595419e-02 -7.74041191e-02 -1.56500619e-02 +8.57246891e-02 +3.72174494e-02 -4.96097691e-02 -1.77827492e-01 -5.71325384e-02 -2.01766178e-01 -3.29844616e-02 -2.87197623e-02 +8.94972980e-02 +5.06731961e-03 -2.72643834e-01 +1.21164374e-01 -3.09725888e-02 -1.72316149e-01 -2.36061700e-02 -4.52586897e-02 +3.50712612e-02 -1.89580142e-01 -2.00239301e-01 +1.63003519e-01 -1.87232606e-02 +1.31568000e-01 -2.02656820e-01 +1.48886265e-02 -2.30413035e-01 +3.67926471e-02 +1.53092802e-01 +1.59880042e-01 +1.93176046e-01 +2.14540333e-01 -2.31395558e-01 +1.42460540e-01 -2.93221593e-01 +1.49148181e-01 +8.35180003e-03 -1.70519084e-01 -3.71328115e-01 -8.77956152e-02 +5.42084463e-02 -6.61737323e-02 -2.15926424e-01 +9.95383263e-02 -1.04465619e-01 -9.79838744e-02 +7.31159151e-02 +4.58367653e-02 +9.23152938e-02 -3.31466496e-02 -1.40619546e-01 +6.81303516e-02 +1.37257585e-02 +1.47299647e-01 +4.28655185e-02 +3.13737094e-02 -5.20858318e-02 +5.41662388e-02 -1.09386601e-01 +1.12571649e-01 -1.58715442e-01 -2.47520916e-02 -4.42227954e-03 -1.05844595e-01 +9.70810428e-02 +1.06401220e-01 -2.10697770e-01 +6.73259571e-02 +1.84626579e-01 -2.83556320e-02 +8.98910835e-02 +1.29712269e-01 +1.97258405e-03 -3.94890504e-03 -3.22338462e-01 -4.53552268e-02 -2.96220034e-01 -3.30365390e-01 -5.55030592e-02 -2.29495123e-01 -2.13736817e-01 -1.70384035e-01 -4.47665388e-03 +2.70354040e-02 +1.43929556e-01 +1.29122688e-02 -4.00349312e-02 -1.68832600e-01 +5.54451048e-02 -2.03713942e-02 +3.83697674e-02 -1.56479344e-01 +8.62685889e-02 +1.08211730e-02 -1.00456560e-02 -7.82927051e-02 -3.30736339e-01 +2.47727297e-02 +6.77196905e-02 +1.25661001e-01 +1.73066974e-01 +8.25590491e-02 -3.24567258e-01 +1.66593730e-01 +4.72089462e-02 +2.22631559e-01 -2.63481587e-01 +5.46630621e-02 -9.87165570e-02 +1.44204065e-01 -1.13035820e-01 +3.58349197e-02 +2.26555839e-02 -4.34871651e-02 +1.21145677e-02 +3.91959772e-02 -1.41775936e-01 -2.89030015e-01 -2.38936216e-01 +1.33856207e-01 +2.09688712e-02 +5.04352003e-02 -1.85224667e-01 -1.31328195e-01 +3.22086066e-02 +5.50759472e-02 -1.09108403e-01 +4.65703234e-02 -4.22731191e-01 +7.54025131e-02 -9.38898176e-02 -6.02455139e-01 +3.73978280e-02 -1.10824838e-01 -3.92570019e-01 +1.60028607e-01 +1.14346556e-02 +1.76891103e-01 +1.47645935e-01 +6.19577646e-01 -1.47699043e-02 +3.07797510e-02 +4.34288383e-01 +3.53869617e-01 +6.60393238e-01 +1.08623222e-01 +6.62811194e-03 -1.46083996e-01 +7.16728628e-01 +1.24552004e-01 -2.45983731e-02 -1.82071403e-02 -2.02863365e-01 +4.61998075e-01 +7.53506497e-02 +3.64695191e-02 -3.26386057e-02 -3.29080850e-01 +2.30632484e-01 -2.52557695e-01 -1.72595352e-01 -5.56150116e-02 -2.13183194e-01 +8.17179009e-02 -1.54817179e-01 -2.86770642e-01 -1.55477837e-01 +3.39511484e-01 -1.42456628e-02 +7.31389448e-02 +1.17579907e-01 +6.18720949e-02 +2.37618893e-01 +2.42618874e-01 +1.85039431e-01 -2.67314076e-01 -9.60716084e-02 -1.02030672e-01 -4.96351793e-02 +3.90881784e-02 -1.84129819e-01 -3.30456525e-01 +1.06047755e-02 +1.48823187e-01 +3.09149688e-03 -9.83862653e-02 +7.51902536e-02 +2.09137917e-01 +2.02467918e-01 +3.79279345e-01 +1.75067559e-02 +1.93752021e-01 -1.62114680e-01 -4.24809605e-02 +5.38476817e-02 -5.52007742e-02 -8.16841703e-03 -2.74798721e-01 -7.97134042e-02 -3.48594859e-02 +1.73326313e-01 +3.82749140e-02 +7.94088915e-02 +4.33509238e-03 +7.15443045e-02 +1.61430761e-01 +1.12525299e-01 +3.75249594e-01 +1.66170955e-01 +2.53970832e-01 +5.39408028e-01 -3.01587403e-01 +1.11290189e-02 +9.32072029e-02 +9.01114047e-02 -3.94430198e-02 -2.40780860e-01 -1.62251815e-01 +1.64652094e-01 +1.03322320e-01 +3.72353375e-01 -1.03948131e-01 +8.68067220e-02 -2.02880770e-01 -9.90034118e-02 -7.57154226e-02 -7.03042373e-02 -9.94800851e-02 +4.11497146e-01 +5.98134212e-02 +1.57910019e-01 +3.78824145e-01 -1.56000331e-01 +8.00325256e-03 -9.20098722e-02 -9.75235850e-02 +2.49637873e-03 +3.43094021e-01 -3.91828045e-02 +5.31904697e-01 +1.18903115e-01 +1.71859086e-01 +3.32648963e-01 -1.13503844e-01 +1.34081706e-01 -4.91556853e-01 -1.33975014e-01 -2.38009676e-01 -3.67183089e-02 +1.44467540e-02 -2.51795381e-01 +3.15204188e-02 -6.52985349e-02 -1.98782250e-01 +9.92868394e-02 +1.23692192e-02 -2.52038538e-01 -1.14626475e-01 +5.79782799e-02 +5.80594167e-02 +8.95125866e-02 -1.87715013e-02 -1.95619509e-01 -1.55084491e-01 -5.98032251e-02 +2.12913916e-01 +3.67889367e-02 -5.05534336e-02 +3.09477091e-01 -2.90455163e-01 +7.98102170e-02 +1.98953122e-01 -3.32409143e-01 -2.64393598e-01 +1.43458452e-02 +9.27755162e-02 -1.12549067e-01 -3.56091671e-02 -2.48231709e-01 -9.26757902e-02 +1.85126737e-01 -4.30299878e-01 -1.59103900e-01 +2.49957796e-02 -5.77030927e-02 -3.34274292e-01 -2.06653355e-03 -5.08682244e-02 +2.94165879e-01 -1.66245420e-02 +3.70795541e-02 -1.11659793e-02 -1.77108899e-01 +6.69082403e-02 +9.66476575e-02 +3.06681216e-01 +9.04856548e-02 +1.98327065e-01 -1.32584870e-01 +5.67691661e-02 +4.50979739e-01 -1.52363569e-01 +4.28748637e-01 +5.26411533e-01 +3.73809636e-01 -3.24030042e-01 -6.73443750e-02 -7.19296634e-02 -1.04333363e-01 +6.00277595e-02 +1.31549731e-01 -2.55852770e-02 -1.47360861e-01 -2.33850088e-02 +9.20287892e-02 -1.42033964e-01 +5.13103530e-02 +8.04147422e-02 +7.88088217e-02 -1.70923680e-01 -1.04671203e-01 -2.10085954e-03 +1.50119644e-02 +2.72827506e-01 -1.21238470e-01 -3.21100913e-02 +2.29226667e-02 +1.11738689e-01 +1.31991237e-01 -6.71754032e-02 +2.39281300e-02 -3.68075937e-01 +5.14084175e-02 +1.19963750e-01 -1.37150392e-01 +5.06937387e-04 -1.20851755e-01 +2.21439391e-01 -1.57499593e-02 +9.14904922e-02 +2.33761985e-02 -1.45935595e-01 -1.37057185e-01 +2.07274079e-01 +1.97079927e-01 -2.30089113e-01 +9.60823614e-04 +1.33839235e-01 +1.80995584e-01 +1.58985034e-02 -1.01244867e-01 -4.81532663e-02 -2.29225025e-01 +3.02941669e-02 +1.54474184e-01 -2.30789557e-01 +1.09852485e-01 -8.42442140e-02 -3.25098857e-02 +3.01978111e-01 +1.53646946e-01 +9.23412815e-02 -6.84603229e-02 +2.67395582e-02 +9.26373973e-02 -1.76817089e-01 +3.15227918e-03 +1.99488401e-01 +1.27275914e-01 +4.89083737e-01 -3.90075535e-01 -3.12320329e-02 +4.53590900e-02 +3.42187518e-03 +1.05367035e-01 +2.58180816e-02 -3.98295857e-02 -6.61096051e-02 +1.09752074e-01 +2.16188170e-02 +1.46861060e-03 +3.50661315e-02 -2.12132305e-01 -1.05905727e-01 +1.86152905e-02 +1.13673098e-01 -7.76037481e-03 +1.81996301e-01 +1.42062262e-01 +3.14692571e-03 -3.16056497e-02 -1.79932993e-02 +6.56468719e-02 -6.42863065e-02 +1.41771942e-01 +5.99778295e-02 -7.74201751e-02 -5.54739451e-03 +7.45100342e-03 -5.49584255e-02 +9.89462659e-02 -3.65258530e-02 -8.77122115e-03 +9.80225727e-02 +1.13547251e-01 +2.84080133e-02 +2.58109123e-01 +3.41821238e-02 +5.71035109e-02 +6.93492293e-02 +2.81892031e-01 +2.13494554e-01 -1.39834866e-01 -6.26622438e-02 +4.55502644e-02 +3.82489860e-02 +8.91012922e-02 -1.18446507e-01 +1.06464639e-01 -1.12667382e-01 -1.55431335e-03 -3.76804471e-02 -1.86822638e-02 +9.42750871e-02 +2.59622991e-01 -2.44971409e-01 +4.19025347e-02 +1.46092191e-01 -8.41732323e-02 +6.43624961e-02 +1.13971373e-02 +1.35768563e-01 +1.50919825e-01 -1.07542314e-02 -1.12713508e-01 -9.63635370e-02 -9.48245730e-03 -1.82062745e-01 +1.10084929e-01 +5.41626327e-02 -6.30664229e-02 -9.25866738e-02 -5.19867241e-02 -8.88033137e-02 +3.88788916e-02 +3.84282283e-02 +5.68176843e-02 +7.00531378e-02 +2.46976405e-01 +1.21742018e-01 +9.30573568e-02 -6.99657435e-03 +5.54532837e-03 -1.71288803e-01 +7.54671767e-02 -1.58820078e-02 +1.75177813e-01 -1.04591876e-01 +3.94297857e-03 -3.86436321e-02 -8.34360421e-02 -7.26376921e-02 +3.51871625e-02 +4.47558016e-02 -1.32070243e-01 -1.63366974e-04 +5.35045229e-02 -8.85306671e-03 +8.17638487e-02 -5.09591363e-02 -4.24542576e-02 +9.63547975e-02 +8.52103457e-02 +3.07329055e-02 +2.23419413e-01 -2.11620659e-01 +1.11106135e-01 -1.80645093e-01 -1.15303487e-01 +1.85329258e-01 +1.19010709e-01 -1.74585301e-02 +9.62718576e-02 +8.46618041e-02 +2.54033748e-02 -3.23088989e-02 +3.87627669e-02 +1.12079240e-01 -7.59139098e-03 -1.89569727e-01 +3.86649780e-02 +9.36439484e-02 +6.22745827e-02 +6.37368783e-02 +7.84390196e-02 +7.38822147e-02 +3.03668261e-01 -1.53935418e-01 -7.98073262e-02 +6.04187623e-02 -4.13857959e-02 -1.06086560e-01 -8.68626237e-02 +6.64554089e-02 +5.65891527e-02 -1.42662339e-02 -6.27039671e-02 -4.09547165e-02 -3.50217640e-01 +1.44328102e-01 -1.13781534e-01 +1.61070917e-02 +1.15790561e-01 -1.16635434e-01 +4.00167853e-02 -2.57328302e-02 -1.05628319e-01 -4.72683311e-02 +1.73980042e-01 -1.15815096e-01 -1.67525515e-01 -1.27664283e-01 +1.63704604e-01 +1.08456381e-01 +2.83732568e-03 +1.45496979e-01 -5.74764721e-02 -5.57138734e-02 -1.05633691e-01 +1.04261979e-01 -1.87719628e-01 -1.35076627e-01 -7.36951530e-02 -5.96205145e-02 -1.27735689e-01 +3.27287391e-02 +7.03163520e-02 +6.86080679e-02 +4.19322327e-02 -9.28558931e-02 -1.74429715e-01 -3.17752995e-02 +1.14670381e-01 +8.76527578e-02 +6.35145679e-02 -1.60537571e-01 +1.16217416e-02 -5.51087856e-02 -9.60295945e-02 +4.09083851e-02 -1.95862964e-01 -9.86139625e-02 +2.48132013e-02 -9.65793431e-02 -1.46760475e-02 -7.91538805e-02 +2.75671363e-01 -1.05669133e-01 +6.20186254e-02 +4.71544825e-02 -3.02025396e-02 -5.65450191e-02 +7.25615993e-02 +6.97887912e-02 +1.06696568e-01 +5.82334809e-02 +2.51537979e-01 -5.26352599e-02 -2.23716676e-01 +2.10897923e-01 -1.05083473e-01 +3.23004127e-02 +2.11109683e-01 -2.49637738e-01 +5.18374629e-02 -2.51779109e-01 +1.02339372e-01 +1.14583775e-01 +3.95796187e-02 +1.15181163e-01 -5.67441285e-02 +2.62447689e-02 +2.50429045e-02 +1.52007043e-01 -1.76303491e-01 +1.18449934e-01 -6.99740723e-02 -1.39273629e-01 -1.19082384e-01 -1.83848515e-01 -1.91660319e-02 +1.90336816e-02 -3.92695330e-02 -1.76186889e-01 -2.05915049e-01 -1.02473766e-01 -5.42005301e-02 +1.72669757e-02 -1.20124653e-01 +1.00592591e-01 -1.36882275e-01 +2.06021611e-02 +1.37563765e-01 -7.97726214e-02 -2.46933736e-02 +1.08971991e-01 +1.59692153e-01 +8.55443627e-02 +5.18794730e-03 -2.60695852e-02 +8.14632103e-02 +9.90027338e-02 -2.61953205e-01 +8.42491314e-02 -4.25103903e-02 +7.58587122e-02 -1.09384105e-01 +5.05741574e-02 +3.91386449e-02 -1.70491003e-02 -6.48370478e-03 +1.25688629e-03 +3.01920921e-02 +1.55544028e-01 -3.32768704e-03 +2.62207002e-03 +1.05010755e-02 +8.03082213e-02 +1.14400141e-01 -9.25759785e-03 -6.85737804e-02 +2.11939104e-02 -2.44992562e-02 -6.75487965e-02 -1.47061244e-01 +1.39280647e-01 +5.02448641e-02 -9.75697711e-02 -8.95591676e-02 +1.19342647e-01 -2.66285557e-02 -7.19369575e-02 +7.28182644e-02 -1.48669332e-01 +7.21241906e-02 +6.31235763e-02 +5.44582754e-02 -1.16724163e-01 +3.61901224e-02 +1.51471794e-01 +2.31960509e-02 +7.92637765e-02 -2.15437800e-01 -1.26964614e-01 +9.03817490e-02 +5.91905462e-03 +6.89794794e-02 +1.01759069e-01 +7.92083815e-02 +1.05537377e-01 -3.59593004e-01 -1.61687061e-01 -1.56651154e-01 +2.27464855e-01 -1.69222336e-02 +1.37575313e-01 +1.14889562e-01 -9.53538492e-02 -2.68505886e-02 +8.87915492e-02 +1.06890291e-01 +6.17739968e-02 -2.61820883e-01 +3.20407450e-02 +9.45052058e-02 -8.70116949e-02 +9.33511853e-02 +1.28403813e-01 -1.61986977e-01 +1.63061604e-01 -2.17124168e-02 -1.57139152e-02 -1.56502649e-01 -8.32904205e-02 +9.61622670e-02 +6.24504201e-02 +9.92627442e-02 -5.26401587e-03 +3.73271815e-02 +7.82504305e-02 +2.38550939e-02 -8.16832706e-02 +6.74992949e-02 +3.03152972e-03 +2.98309606e-02 +7.26076588e-02 -2.41241716e-02 -1.88843962e-02 -8.58231112e-02 +8.62340853e-02 +1.53656527e-02 -2.47597769e-01 -2.85054117e-01 +1.54436165e-02 -1.12440601e-01 -6.63845316e-02 -2.36258302e-02 +7.95496702e-02 -8.89134482e-02 +6.56726211e-02 -7.79384896e-02 -3.07684802e-02 -4.15009521e-02 +6.50251210e-02 -7.50136524e-02 +8.74165222e-02 -1.54675454e-01 +1.46930248e-01 -2.34136451e-02 -2.15900466e-02 -4.26836684e-02 -2.06165373e-01 -6.47849143e-02 +1.36645555e-01 -1.94826096e-01 -1.61684602e-01 +2.15032510e-02 -3.15590538e-02 +8.15420598e-02 -2.54522920e-01 -4.20874991e-02 +4.78380220e-03 -5.13944477e-02 +5.93941398e-02 +2.13358570e-02 +6.62406012e-02 +3.49832997e-02 -1.26037404e-01 +2.42887795e-01 -1.02268055e-01 +9.88438949e-02 -2.48824105e-01 -3.52693275e-02 +1.45805165e-01 -1.64971009e-01 -1.54547170e-02 +7.68143013e-02 +1.45984022e-02 -2.21295670e-01 -1.61099628e-01 -1.22875869e-01 -2.30428845e-01 +3.02932505e-02 -1.14740245e-02 +4.79346886e-02 -5.44296093e-02 -2.69511882e-02 -1.10141166e-01 -3.74758020e-02 +1.35708839e-01 +3.87249216e-02 -6.00138828e-02 +1.02122635e-01 +1.50848031e-01 -4.99023050e-02 -1.57677680e-01 +7.38241747e-02 -4.98019382e-02 +5.20466194e-02 -1.77589759e-01 +9.77931246e-02 -1.40585646e-01 +4.43641022e-02 -5.47758862e-02 +3.04628797e-02 -2.41479859e-01 -2.66667217e-01 -1.93588257e-01 +1.32182792e-01 +1.93923354e-01 -6.03678897e-02 +1.43162742e-01 +1.57032058e-01 +2.32278723e-02 -3.48286107e-02 -3.11102383e-02 -3.72126363e-02 +7.65242279e-02 -7.92527348e-02 +1.46477029e-01 -1.25519633e-01 -1.64325178e-01 -8.98217708e-02 -1.08395796e-02 +7.50034153e-02 +1.04736947e-01 +1.87215079e-02 +1.79365054e-01 -8.95810500e-03 -8.69766176e-02 -6.06512874e-02 -1.52045846e-01 -3.22821140e-02 +2.03241542e-01 +1.18486598e-01 -1.32399350e-01 -8.03940743e-02 +7.81538617e-03 -1.73932105e-01 -3.04348134e-02 -5.15118316e-02 -3.83724533e-02 -1.10016458e-01 -4.06155689e-03 -8.16367269e-02 +1.48412317e-01 -1.13662660e-01 +8.51624925e-03 +7.30433837e-02 -1.44162804e-01 +8.27317759e-02 +1.44288599e-01 -1.67647600e-01 -1.28039032e-01 -6.87009376e-03 +1.13153532e-02 -1.06137156e-01 -2.32358593e-02 -2.06425369e-01 +7.30137676e-02 -1.75888687e-01 +2.78852396e-02 -2.72225380e-01 -5.90256834e-03 +5.63317426e-02 +4.71601635e-02 +6.75614597e-03 -5.66187501e-02 -1.78485624e-02 +2.00091496e-01 -1.66864946e-01 +3.42079848e-02 -9.53845400e-03 -2.49982812e-02 +1.14955179e-01 +4.61104736e-02 +7.44688064e-02 -1.14016421e-01 +3.32708806e-02 +1.04802102e-02 -5.39936940e-04 +8.14718753e-02 +1.64187163e-01 +1.44337881e-02 -4.06280719e-02 +2.82461680e-02 -2.29177754e-02 -3.59353349e-02 +2.98222974e-02 -7.21367821e-02 -1.88282914e-02 +1.42986998e-01 +3.90463253e-03 -4.98276018e-02 +4.06908654e-02 +8.21118951e-02 +2.08996341e-01 +3.01944697e-03 -2.25491762e-01 +8.34488720e-02 -6.92966282e-02 -4.78113703e-02 -5.86674316e-03 +4.77513373e-02 -8.48581642e-03 -7.05483183e-02 +7.16525912e-02 -5.85387740e-03 -4.55217920e-02 +8.74998197e-02 +1.02411836e-01 -1.49612412e-01 +7.69414231e-02 -9.13978964e-02 -2.29894474e-01 -1.76088229e-01 +9.80224162e-02 -1.21088676e-01 -1.15441792e-01 -4.08769548e-02 -7.29886964e-02 +5.62782027e-02 -2.56656166e-02 +4.13588993e-03 +7.10600466e-02 -7.07143471e-02 +6.42056763e-02 +1.07303537e-01 +1.11040594e-02 -6.66167438e-02 -2.71921545e-01 +1.89319059e-01 +9.86067504e-02 +2.37482395e-02 -1.77943576e-02 -1.47119120e-01 +9.64045152e-02 +1.05668735e-02 +1.53814793e-01 -4.28837631e-03 +5.25977835e-02 -1.09015532e-01 +3.37020420e-02 +7.22586662e-02 +1.48681894e-01 +1.20390207e-01 +6.05462119e-02 +4.84265648e-02 +8.81903172e-02 +1.05502814e-01 -1.73624858e-01 +7.38094226e-02 +1.38684046e-02 +5.84444962e-02 +1.80465784e-02 -1.63857296e-01 -1.41303301e-01 -1.31878406e-01 -1.72630876e-01 -1.80972479e-02 -2.00277537e-01 -6.16625845e-02 +1.07950801e-02 +5.52585954e-03 -2.18099982e-01 +1.23630151e-01 +2.37929914e-02 -7.82821793e-03 -1.01349749e-01 +5.35776764e-02 +2.17963140e-02 -7.41057144e-03 -6.65349290e-02 +1.71879772e-02 -9.51140970e-02 -8.82297382e-02 -6.98416308e-02 -7.75618106e-02 +2.00520620e-01 +7.55672008e-02 +7.96231255e-02 -1.51645064e-01 -1.12145036e-01 +1.97528452e-02 -1.74588248e-01 -1.78116590e-01 -1.05825387e-01 -6.16227835e-02 +3.15613635e-02 -1.26550153e-01 -9.25229415e-02 -2.01901644e-01 -6.76102340e-02 +3.48850973e-02 +4.95437942e-02 +3.79087180e-02 -2.38483921e-02 -1.93251252e-01 -3.80828045e-02 +1.14321694e-01 +4.57069837e-02 +5.09031676e-02 +1.87226944e-02 -1.03169486e-01 -7.50225559e-02 +1.21291831e-01 -1.05364084e-01 +5.62893897e-02 +1.04250060e-02 -8.48362446e-02 -3.69206853e-02 -2.22341828e-02 +8.50940943e-02 -1.49916215e-02 +8.97355676e-02 +4.09629107e-01 -3.50104004e-01 +4.00603533e-01 +1.35845959e-01 -7.28772655e-02 -2.60688066e-02 -1.78123891e-01 -2.81475574e-01 +6.47829115e-01 +3.87818396e-01 +5.72602570e-01 +5.67218423e-01 -9.64447632e-02 -2.89077312e-01 +9.07107711e-01 -6.18797652e-02 +4.59680915e-01 +2.02631146e-01 -1.87710404e-01 +4.78106111e-01 +3.30384821e-01 +1.00549452e-01 +1.08929074e+00 +1.67926133e-01 +5.98645270e-01 +4.56494503e-02 -8.20978358e-02 -3.07549257e-02 +4.50896651e-01 +8.09161782e-01 +2.80028552e-01 +3.70162964e-01 +4.47272480e-01 +4.16395754e-01 +9.93649438e-02 +5.79801798e-02 +3.86760652e-01 -2.67608851e-01 +1.38265252e-01 +2.53640592e-01 +1.46126375e-01 +5.55076003e-01 +6.77746758e-02 -2.74054319e-01 -8.47937688e-02 +1.57374367e-01 +7.11023629e-01 +3.42575639e-01 +3.18606019e-01 -2.80330479e-01 -1.04307480e-01 -8.08323920e-02 -1.76998097e-02 -1.00919180e-01 +2.16996476e-01 -1.29888207e-01 -1.68099105e-01 -1.83011547e-01 +1.95329607e-01 +2.94745326e-01 +1.36159495e-01 +1.02606915e-01 -7.83139765e-02 -2.65340447e-01 -3.11407179e-01 +3.17408480e-02 +6.95653409e-02 +1.31672919e-01 -5.69384336e-01 -5.15140668e-02 -2.33362615e-01 +3.10122341e-01 +5.13521075e-01 +1.01598728e+00 -1.24597184e-01 -4.46277112e-01 +5.36314130e-01 +1.18215151e-01 -1.86692476e-01 +9.57985073e-02 +3.04442849e-02 +2.36045241e-01 -8.74353200e-02 -1.86114222e-01 -1.19408749e-01 +2.37375107e-02 +7.11434409e-02 -1.17106967e-01 -1.73061252e-01 +5.01099586e-01 +5.94379678e-02 -1.66147187e-01 +8.13295662e-01 -1.06226213e-01 -6.55855954e-01 -3.62077564e-01 -8.73476267e-02 -4.97726500e-02 -1.96049526e-01 -3.56456861e-02 -3.56034696e-01 -8.14744905e-02 -2.16171928e-02 +5.35548404e-02 -2.82172859e-01 +6.43475473e-01 +2.72462755e-01 +1.65475845e-01 +2.12397113e-01 -1.64753750e-01 -8.77054967e-03 +1.04467928e-01 +4.44864959e-01 +4.82580401e-02 -2.44692370e-01 +2.33749598e-02 +7.81353891e-01 -1.08250044e-01 -1.02504142e-01 +2.33544912e-02 -1.44800320e-01 +4.72080201e-01 -2.23978937e-01 -1.18899651e-01 -5.69281802e-02 -4.02738294e-03 -1.36622921e-01 +3.87533784e-01 -2.75573909e-01 +9.93171036e-02 -1.41942933e-01 +8.31262767e-02 -1.25077486e-01 -2.40139320e-01 +2.50951707e-01 -9.20990929e-02 -4.26891893e-01 -8.45995359e-03 -2.64858991e-01 +2.70277977e-01 +3.72830033e-02 +4.42936510e-01 -1.40333831e-01 +2.33306423e-01 +5.40745258e-02 -1.57619327e-01 -2.87484050e-01 +4.75632921e-02 +2.18249023e-01 +1.78084508e-01 -5.57776168e-02 +2.89848715e-01 +3.98571044e-01 +2.10291088e-01 +2.76259273e-01 +9.51553974e-03 +7.51617625e-02 +1.44484580e-01 -1.93272218e-01 -6.98567480e-02 -3.52219671e-01 -6.14289269e-02 -3.33864130e-02 -5.45055456e-02 +3.53157312e-01 -1.86836138e-01 -2.50550866e-01 -3.84885937e-01 +1.27793476e-01 +3.53182882e-01 -3.13265234e-01 +3.24546188e-01 +2.69553959e-01 -1.59128591e-01 -1.70236245e-01 -1.14642885e-02 +2.35715508e-02 +2.68479556e-01 +7.86986426e-02 +1.45445824e-01 +3.38252157e-01 -1.91139266e-01 -1.33733988e-01 -4.94472049e-02 -5.51738590e-02 +7.48034120e-02 +1.69485152e-01 +3.05437684e-01 -1.22086227e-01 +2.77290735e-02 -1.88583836e-01 -2.39195779e-01 -2.21964583e-01 -8.42103735e-02 -2.13388994e-01 +1.23736605e-01 +1.03054233e-01 +2.25020677e-01 +3.64179939e-01 -8.80293921e-02 +3.14252585e-01 +2.89726734e-01 -8.32319930e-02 +5.43338537e-01 +3.00076365e-01 +1.28782168e-01 +4.36191469e-01 +3.91075224e-01 -1.26394108e-01 +2.30472460e-01 +9.03800428e-02 +6.20942228e-02 +2.22408667e-01 -1.16648763e-01 -2.40332842e-01 -1.90724969e-01 +4.46509905e-02 -1.40200093e-01 -2.16194361e-01 -9.84572768e-02 -2.45644838e-01 +1.31124988e-01 +5.31454623e-01 +1.00028828e-01 -2.38994315e-01 +2.28158653e-01 +3.98781933e-02 +7.18163028e-02 -2.53324091e-01 -1.53380454e-01 -1.88994542e-01 -1.13947205e-01 +1.14350535e-01 +3.00514251e-01 +3.53837073e-01 +8.23101401e-02 +6.52765781e-02 +6.93814009e-02 -1.30689684e-02 -4.33296710e-03 +1.74316451e-01 -2.25251898e-01 +6.22932538e-02 -1.94238219e-02 +1.47008151e-02 -1.61753640e-01 -2.48754784e-01 +2.21487526e-02 +3.16877723e-01 -1.58181176e-01 -1.94394112e-01 +1.03387356e-01 +1.89684510e-01 +9.64662135e-02 -2.01097891e-01 +3.28332365e-01 +6.65421724e-01 -1.65963233e-01 -1.09568916e-01 -1.36404470e-01 -2.60441214e-01 +4.09174226e-02 +2.64655173e-01 -1.16346657e-01 -1.38528690e-01 -9.33725759e-02 -2.73072869e-01 -2.17814788e-01 -2.24836275e-01 -1.86654285e-01 -1.85362667e-01 +1.36612942e-02 +3.84609044e-01 -3.98224816e-02 -1.38463199e-01 -6.92504048e-02 -1.25356153e-01 -1.36932835e-01 -1.86893180e-01 +2.51161575e-01 -7.46894181e-02 -2.19043106e-01 -3.38536315e-02 +2.49379441e-01 -2.41673201e-01 +1.42956331e-01 -2.63098538e-01 -3.52608591e-01 -5.31806163e-02 -8.57038051e-02 -2.33553842e-01 -1.05273657e-01 +1.11980200e-01 -2.04112574e-01 -1.22432299e-01 +4.15464230e-02 -5.34197502e-02 -3.27654481e-02 -7.35338256e-02 -2.02286690e-01 +1.21407881e-01 +4.86810785e-03 +7.66999573e-02 -2.43247971e-01 -8.29273686e-02 -1.74813956e-01 +2.54894376e-01 -2.37157926e-01 +5.28241731e-02 -9.59975049e-02 +2.00550020e-01 -1.90458089e-01 -1.65985465e-01 +6.93117380e-02 -2.76388079e-02 -1.00847840e-01 -8.23014751e-02 -1.46129400e-01 -1.37572829e-02 +1.49938002e-01 -1.87090218e-01 +2.27674440e-01 -2.94459015e-01 +7.00041801e-02 -1.33850619e-01 +3.82784605e-01 -2.14469731e-01 +2.02322930e-01 -3.33378911e-02 +9.73205417e-02 +1.52553946e-01 -1.18995816e-01 -6.43065497e-02 -1.98915333e-01 -9.61058587e-03 -2.89330035e-01 -1.83668330e-01 +4.14538160e-02 -1.28739342e-01 +1.70250341e-01 -3.15373838e-01 +1.06956385e-01 -1.95881039e-01 -2.27121964e-01 -1.46119148e-01 +1.41246125e-01 +1.80167273e-01 +1.46580487e-01 +4.10525836e-02 -3.25733088e-02 -5.32114655e-02 +6.77173585e-02 -1.64937973e-01 +2.83745497e-01 +2.38476589e-01 -1.24733627e-01 +1.71900332e-01 -9.39191431e-02 -4.27218452e-02 -5.67714982e-02 +1.43898368e-01 +1.05805725e-01 +1.88857764e-01 +1.31001532e-01 -8.32711160e-02 -1.79422349e-01 -1.06814221e-01 -2.70379856e-02 +1.82159115e-02 -1.03986800e-01 -1.70943052e-01 -2.21180737e-01 -8.06460977e-02 -4.10723463e-02 +3.02532524e-01 -3.36338207e-02 -1.84724346e-01 -1.63699225e-01 +3.01657617e-03 -7.91556537e-02 +5.30311279e-02 +4.25631367e-02 +1.19259872e-01 +6.71569258e-02 +4.15682465e-01 +1.38723925e-02 -4.41137403e-02 -2.05022037e-01 +2.18263417e-01 +2.24789102e-02 -2.65155379e-02 -8.92002955e-02 +4.66828525e-01 -1.81875989e-01 -1.57832742e-01 -1.24300368e-01 +2.71062702e-01 -9.04791243e-03 -1.89274758e-01 -2.16758221e-01 -1.90420464e-01 -1.51354186e-02 -3.09637599e-02 -2.00456470e-01 -2.40382403e-01 +2.16860436e-02 +5.32407314e-02 -1.86656676e-02 -2.04121530e-01 +1.51871890e-01 +5.20306937e-02 +1.22424781e-01 +2.94698685e-01 -1.60367295e-01 -3.41740698e-02 -2.52467036e-01 -1.19401060e-01 -1.46193430e-01 +1.71942055e-01 +2.57351875e-01 -2.37779275e-01 -1.09324694e-01 +2.48893663e-01 -1.93961039e-01 -1.91327393e-01 +1.94689393e-01 -1.70998380e-01 +1.73868224e-01 +2.09776107e-02 -3.19863468e-01 +1.47881925e-01 +2.77930260e-01 +2.98197001e-01 -1.95445120e-01 +1.32634670e-01 +3.61169010e-01 -1.13515250e-01 -3.88134539e-01 +3.04859817e-01 -2.00112209e-01 +1.22952312e-01 -5.68603761e-02 +6.72516674e-02 -6.51467964e-02 +2.00909764e-01 +2.68611640e-01 +6.99407905e-02 -1.64734125e-01 +1.47110969e-01 +3.76080126e-01 -7.82388300e-02 +3.20076019e-01 +1.27617002e-01 -1.68121427e-01 -1.48283064e-01 -2.45985314e-01 -1.09962277e-01 -1.88609362e-01 -1.60281822e-01 -1.99107572e-01 +1.59551993e-01 +9.74185169e-02 -6.49864599e-02 -8.02091286e-02 +3.93450201e-01 -4.31374349e-02 -9.24370438e-02 +2.57633962e-02 -2.13155955e-01 -2.60476202e-01 -1.07064351e-01 -3.54915917e-01 -4.01645638e-02 +2.95801461e-01 -9.93477479e-02 -1.15719505e-01 +3.92903648e-02 -1.08422816e-01 -2.26588488e-01 +3.89693417e-02 -4.47089598e-02 -2.58296371e-01 -6.79216385e-02 -4.86051925e-02 -8.52626488e-02 -1.49508461e-01 -2.04145499e-02 -4.85538244e-02 -1.07274085e-01 -1.71678796e-01 +2.38314364e-02 -4.43540104e-02 -1.09978989e-02 -2.74994224e-03 -2.52562016e-01 -2.17072472e-01 +7.16342181e-02 -1.90158591e-01 -1.23727754e-01 -1.54343382e-01 +1.99715118e-03 -1.94506526e-01 +8.92610699e-02 -1.20407060e-01 -2.12752253e-01 -1.77249596e-01 -2.07059175e-01 -1.30921882e-02 -1.14667952e-01 -2.42742896e-01 -1.73427761e-01 -6.15924178e-03 -9.12511796e-02 -1.33132041e-01 -1.71752334e-01 -1.09165475e-01 +1.44959673e-01 -2.38675978e-02 +1.18091591e-01 +1.36565432e-01 +1.10285968e-01 +5.27815633e-02 -7.28235692e-02 +4.50855605e-02 +2.70214915e-01 +1.74587280e-01 +2.21045956e-01 +7.97969252e-02 +2.03579575e-01 +2.38909021e-01 -2.13085011e-01 -1.03527717e-01 -1.01382665e-01 -2.07245499e-01 +1.20579481e-01 -6.48223460e-02 +8.17652047e-02 +1.01227723e-01 +1.06368326e-01 +4.72080819e-02 -8.35819170e-02 -1.32678464e-01 -1.96217492e-01 -1.46995619e-01 -1.33638680e-02 +2.88563699e-01 -7.68182939e-03 -8.51231217e-02 -1.89990416e-01 -1.99632570e-01 -1.71805128e-01 +3.89474444e-02 +2.17399336e-02 -8.66702795e-02 +2.78736681e-01 -1.48501143e-01 -1.17487488e-02 -1.15951173e-01 +2.38621294e-01 +8.18174183e-02 -1.74969763e-01 -8.75053033e-02 -1.83352381e-01 +2.33196750e-01 +7.45578781e-02 -7.50201568e-02 -1.20636880e-01 +1.48814201e-01 -1.64456800e-01 +9.98704508e-02 +2.39352822e-01 -1.70570258e-02 -3.92504240e-04 -1.54848933e-01 -4.11228742e-03 -7.46639967e-02 +2.37745985e-01 -1.56465143e-01 +8.17702115e-02 +2.17990071e-01 +1.94973443e-02 -4.72918749e-02 +6.42023981e-02 +5.94510473e-02 +5.62367328e-02 -9.21555758e-02 -1.50422782e-01 +1.37691990e-01 -1.47737727e-01 -7.37071261e-02 -1.47634327e-01 -1.35876730e-01 +8.04543346e-02 +2.82171294e-02 +1.59888089e-01 +1.21701904e-01 -1.53344184e-01 -2.53209956e-02 -2.29259565e-01 -6.68633953e-02 +4.29240242e-03 -1.31092235e-01 -1.35879606e-01 -2.03637138e-01 +2.74315756e-03 -2.38823056e-01 +1.31203812e-02 +1.64008513e-01 -2.70723850e-01 -1.69113040e-01 +9.37134176e-02 -7.57164434e-02 -1.58838481e-01 +4.77498397e-02 -1.62625864e-01 -1.69754788e-01 +9.96899530e-02 -2.73046881e-01 -1.99480578e-01 -1.19097084e-01 -4.16739173e-02 -1.45270422e-01 -1.22819450e-02 +1.21434562e-01 +1.46948054e-01 -2.91057229e-02 -1.32333860e-01 -1.79125771e-01 +7.42325857e-02 -4.03353721e-02 -1.53306916e-01 +1.39742166e-01 +7.27935880e-02 -9.34977010e-02 -1.44044846e-01 -8.62872526e-02 -1.78017259e-01 +2.12430313e-01 -9.64211449e-02 -8.18552598e-02 -1.72025174e-01 +1.39891818e-01 +1.19032964e-01 -1.54018000e-01 -9.72858444e-02 +1.35555834e-01 +2.28332385e-01 +2.00268134e-01 +1.90582275e-01 +6.43168688e-02 -1.28287151e-01 -1.24904849e-01 -2.08773687e-01 +7.37232417e-02 +1.82622284e-01 +4.79393359e-03 -1.70002759e-01 -1.27597321e-02 +5.42361438e-02 +7.78686702e-02 -2.49565765e-02 +4.16286699e-02 +8.70974287e-02 -1.98801965e-01 -2.26418246e-02 -1.20503969e-01 -2.16415197e-01 -1.37998730e-01 +1.00609558e-02 -1.48022145e-01 +1.88028336e-01 -1.24328502e-01 -1.10287733e-01 -5.47685437e-02 -1.72702923e-01 +4.03979048e-02 -8.22041258e-02 -6.52613165e-03 +1.54577374e-01 -2.43045688e-01 -2.73048341e-01 -5.09141497e-02 -1.99396431e-01 -7.73636773e-02 +2.45475054e-01 -2.29398295e-01 -1.98426634e-01 -2.62483448e-01 +5.03917970e-02 -1.55257627e-01 -1.95096225e-01 -3.32212597e-02 -1.04654811e-01 +2.41016857e-02 +8.60346481e-02 -2.61960905e-02 -1.68717414e-01 +2.10110068e-01 -1.16856031e-01 -8.86643305e-02 -7.94236436e-02 -3.67947668e-03 -9.49452594e-02 -1.09289385e-01 -1.64409637e-01 -1.17308190e-02 -3.49302851e-02 -1.36339486e-01 +1.01266287e-01 -3.12646143e-02 +6.08209372e-02 +1.34317413e-01 -4.95499484e-02 -1.28149111e-02 -1.70185998e-01 -1.13882050e-01 -1.78284943e-01 -1.03877872e-01 +1.30715996e-01 -1.95479691e-01 -1.09751448e-01 +6.15336709e-02 +2.28976645e-02 +1.07413232e-01 -7.62776285e-02 -2.18792841e-01 -9.45227444e-02 +1.93420768e-01 -5.40212449e-03 -1.54976442e-01 -1.84125468e-01 +7.92507380e-02 -1.61598995e-01 -1.13926664e-01 +9.20510441e-02 -6.45657778e-02 +1.23157375e-01 +2.49098599e-01 +2.46225391e-02 +1.76273853e-01 -6.88454658e-02 -2.52436072e-01 +4.03551273e-02 -1.91223025e-01 -2.70668156e-02 +1.78703338e-01 +1.77878082e-01 -8.86459872e-02 +4.47814092e-02 -1.43190607e-01 -1.49459288e-01 +3.53258610e-01 -4.97843139e-02 -1.85087368e-01 -1.31197572e-01 +2.44237751e-01 +9.12937298e-02 +7.41376802e-02 +5.95584586e-02 -1.07355781e-01 -1.67680621e-01 -1.70923278e-01 -5.70283132e-03 -4.19907011e-02 -3.01423259e-02 +1.27026618e-01 -1.32722273e-01 +2.03830034e-01 -8.16208050e-02 -5.92084266e-02 -6.15533628e-02 -4.34497744e-03 -1.00252084e-01 +1.10772483e-01 +1.37490556e-01 -1.73283145e-01 -2.06213184e-02 +9.48273912e-02 +4.07782756e-02 +5.88928126e-02 -8.26693624e-02 +1.77136272e-01 +1.17376290e-01 +8.00684243e-02 -1.87316820e-01 -7.79668540e-02 +1.67336419e-01 +1.68813676e-01 -2.40740344e-01 -3.81283388e-02 +1.68408692e-01 -1.70681164e-01 -1.67492732e-01 +1.09153569e-01 -2.29310483e-01 +4.11528125e-02 +1.52554467e-01 +1.92439947e-02 +4.64414358e-02 -1.09282717e-01 -1.10764876e-01 -1.26074076e-01 -2.97076609e-02 -1.05842397e-01 -3.12470719e-02 +3.48896421e-02 +1.09923333e-01 +2.62355860e-02 -1.33488849e-01 -1.03784882e-01 -2.13905200e-01 -8.57321545e-02 -1.17200904e-01 -2.40502119e-01 -1.17850617e-01 -8.98664296e-02 -1.93195179e-01 -4.34805267e-02 +1.34168357e-01 +4.03655432e-02 -5.90938777e-02 +9.85619426e-02 +1.21187724e-01 -1.69569060e-01 -8.02794769e-02 +1.25746652e-01 +1.07651822e-01 -1.82590693e-01 -1.69016764e-01 +9.53556374e-02 -5.58215566e-02 -2.42138952e-01 -6.61066547e-02 -2.14488059e-01 -2.48066261e-01 +1.33057848e-01 -1.32776856e-01 +1.08146966e-01 +4.84278277e-02 -1.51688710e-01 -1.81983173e-01 -2.60017123e-02 -1.21514462e-01 -8.51922408e-02 -4.29172628e-02 -1.41176805e-01 -5.63106425e-02 +1.10641882e-01 +2.88879275e-01 +3.35704654e-01 +3.06823730e-01 +1.62090853e-01 -1.02468565e-01 -4.94522035e-01 -2.25429401e-01 +5.50351322e-01 +3.06160331e-01 -8.81806687e-02 -2.70428777e-01 -3.41375053e-01 +3.30859542e-01 -5.57255566e-01 -2.96647102e-01 -1.53790116e-02 -1.08609341e-01 +2.35380054e-01 -4.30865586e-01 -1.05105210e-02 +2.27037266e-01 +4.03971076e-02 -1.03364967e-01 +5.90982400e-02 +1.38780251e-01 -3.06279734e-02 +6.48440480e-01 -1.60386309e-01 +1.97865918e-01 +9.15968940e-02 +1.21303335e-01 -7.59392083e-02 -5.16227841e-01 +1.64158314e-01 +1.24632530e-01 -2.02997357e-01 -2.05177546e-01 -7.44435489e-02 -4.92867619e-01 +2.39533614e-02 +2.12120432e-02 -4.24625039e-01 +5.34597561e-02 +1.17338926e-01 +1.58452109e-01 +2.03113243e-01 -5.36474250e-02 -4.11110640e-01 -2.43064076e-01 +4.10168171e-01 +3.34172338e-01 -1.72837406e-01 -2.76908308e-01 -1.30425215e-01 -1.03497423e-01 -2.24626675e-01 -2.52767444e-01 -7.73238465e-02 -5.16617000e-01 -7.48841232e-03 -1.58260122e-01 +2.79856443e-01 +2.11305767e-01 +1.46309257e-01 +1.69775456e-01 -1.15461901e-01 -7.24237561e-02 -9.59649980e-02 +2.46862303e-02 -1.29785851e-01 -7.11764917e-02 -3.22506309e-01 -4.15285565e-02 -1.87461734e-01 +1.63836867e-01 +9.96264890e-02 -6.45932674e-01 +3.82730961e-02 -2.96583146e-01 -3.87524366e-01 -2.80686617e-01 -1.90442249e-01 -5.22582009e-02 -7.62681514e-02 +1.84944943e-01 +5.67827299e-02 +4.14684303e-02 +5.54262288e-03 -6.46992549e-02 -4.51495647e-01 -1.55811071e-01 -1.88194424e-01 -6.99535608e-02 +1.70269668e-01 +1.48597255e-01 -1.30104497e-01 +5.31940460e-02 -6.23541594e-01 -1.93376049e-01 -5.87570146e-02 -3.54652256e-01 +1.81576461e-02 +5.06140888e-02 -3.16518784e-01 -4.31397632e-02 +2.38818843e-02 -7.25643933e-01 +1.24377526e-01 -1.06685467e-01 +3.12269200e-02 -4.39952016e-01 -9.54181701e-02 +1.00085936e-01 +4.17594686e-02 +8.37405324e-01 +3.47212672e-01 +3.47015887e-01 +1.04158796e-01 -3.99555974e-02 -4.55843331e-03 -1.60889879e-01 -2.74092644e-01 +2.05546156e-01 +2.01454815e-02 -2.66667813e-01 +3.59280445e-02 +1.51428934e-02 -1.17515251e-02 -1.81389943e-01 -8.26404318e-02 +1.64039180e-01 +6.52975142e-02 +2.45966792e-01 -5.90500012e-02 -3.13502073e-01 +1.63945798e-02 +2.32263058e-02 +3.88602018e-01 -9.24552977e-02 -1.46662965e-01 -1.04604423e-01 +6.35530055e-02 +3.46717030e-01 +1.46443784e-01 +2.45450750e-01 +8.54025334e-02 +3.31449896e-01 +2.77252138e-01 -1.15778804e-01 -1.06048793e-01 +2.52931863e-01 -9.02943984e-02 -1.05988890e-01 +1.72219891e-02 +4.02431786e-01 -2.18730643e-01 -5.67657165e-02 -1.45880990e-02 +8.66767317e-02 +3.15045193e-02 +1.13675825e-01 +5.68014197e-02 -1.28866553e-01 -1.97114259e-01 -2.67110735e-01 +4.75458615e-02 +1.66887082e-02 +5.20388126e-01 -2.38419753e-02 -3.40224743e-01 -2.69804478e-01 -1.33359626e-01 -6.42245039e-02 -3.78796697e-01 +4.12409067e-01 +1.76874101e-01 +1.63822547e-02 +2.15817913e-01 -1.07117862e-01 +5.05880676e-02 +1.18345074e-01 +4.43187021e-02 -7.29794195e-03 -5.50567098e-02 +1.32822335e-01 -1.35010958e-01 -1.02884039e-01 -2.61713237e-01 +1.42561615e-01 +1.25658736e-01 -2.52120048e-01 +7.02489913e-02 +2.61247437e-02 +1.77253932e-02 -5.11902478e-03 -7.43703172e-02 -6.21120073e-02 -4.58693504e-02 +1.55707896e-01 +9.93280262e-02 +4.43785399e-01 +2.49224544e-01 +1.53574035e-01 +1.51506245e-01 +3.41476172e-01 +1.11325748e-01 +2.38494605e-01 -1.16010066e-02 +5.90396635e-02 +7.01210201e-02 -1.61930248e-01 -9.08709988e-02 +1.63973778e-01 -1.04627199e-01 -9.10227746e-02 +2.51401156e-01 +1.66077361e-01 -1.50475889e-01 +7.49628395e-02 -6.47736713e-02 -2.32957099e-02 -1.36357779e-03 +8.80702063e-02 -2.86189914e-01 -1.01203740e-01 -2.60114104e-01 +9.63952672e-03 -4.18456085e-02 -1.07589841e-01 -3.75072435e-02 +1.15454480e-01 +7.58792162e-02 +3.76718678e-02 -7.89752007e-02 +1.65963307e-01 -4.08302508e-02 -2.26869717e-01 +1.60912350e-02 -1.66107312e-01 -9.56304446e-02 +7.46801049e-02 +4.96100821e-02 -5.07137999e-02 -3.61246243e-02 -1.14784338e-01 -7.34871253e-02 +2.02983581e-02 -1.05459966e-01 -1.18754335e-01 -2.14354530e-01 +1.49893269e-01 +3.88023347e-01 +8.19016099e-02 +4.57536168e-02 +3.87584115e-03 +1.60323173e-01 -3.74038249e-01 -9.26642567e-02 +6.95498511e-02 +1.90373793e-01 +2.72138994e-02 -1.64111257e-01 +5.75748533e-02 -7.55688734e-03 +4.46991213e-02 +7.75268450e-02 +1.63920689e-02 +8.58738944e-02 -7.47794006e-03 +7.62270615e-02 +9.15599987e-02 -6.90754130e-02 -1.40772879e-01 -5.26891137e-03 -7.52711818e-02 -2.54853368e-01 +1.16446100e-01 -1.77532434e-03 -1.37422085e-01 -2.76751876e-01 -5.07894278e-01 -2.67598182e-02 +1.62055105e-01 +2.21968412e-01 -1.19406926e-02 +3.46669704e-02 +8.69679525e-02 +3.85794882e-03 +2.97673643e-01 -4.86456528e-02 +1.09763198e-01 +4.91335057e-03 -6.78532384e-03 -1.45871639e-01 -4.54313345e-02 +1.60794124e-01 -2.56596841e-02 +7.26084635e-02 -1.06395394e-01 +8.95740651e-03 +5.21432655e-03 -3.27202797e-01 -8.35997984e-02 -2.56543040e-01 +5.64132966e-02 -3.10399104e-02 +2.17454676e-02 -1.73098981e-01 -1.66417107e-01 -6.56675920e-02 +8.40583593e-02 +1.98218256e-01 +1.07545473e-01 -1.50909841e-01 +9.10875760e-03 +8.66656378e-02 -1.91097832e-04 -1.75775662e-01 -4.10015583e-02 -4.23384383e-02 +1.30461724e-02 +2.44815648e-02 +2.29390755e-01 -4.83683906e-02 -8.79394859e-02 +1.33412078e-01 +2.14951962e-01 -3.86175774e-02 -2.45345365e-02 -1.18372180e-02 -4.68189046e-02 -1.50013566e-01 -3.07232700e-02 +1.81625903e-01 -8.22395273e-03 -8.31288248e-02 +5.17181680e-03 -4.97613735e-02 -1.83375612e-01 -6.64539188e-02 -4.53446470e-02 -1.58131182e-01 -1.40417367e-01 -5.27722895e-01 +2.43178219e-01 +3.52735668e-02 -8.42886418e-02 +8.03625211e-02 -8.68570358e-02 -9.93188471e-02 -4.74720821e-02 -2.15881597e-02 +7.30961338e-02 -1.94337666e-02 +3.04676685e-02 -1.82576887e-02 +3.08756847e-02 +1.61370710e-01 -5.59018105e-02 +8.44500810e-02 -4.58181091e-02 -4.62715849e-02 -2.22218223e-02 -5.87342232e-02 -1.10154703e-01 -1.89122662e-01 +5.37702739e-02 +8.28662664e-02 -1.26509637e-01 +1.49781063e-01 +3.75965387e-02 +5.17837480e-02 -3.51665094e-02 +1.65769100e-01 +1.64481960e-02 -4.15491998e-01 +2.05141511e-02 +3.01692814e-01 -1.61529973e-01 +7.62003064e-02 +5.53142885e-03 -4.89136837e-02 +5.16084172e-02 -2.43256371e-02 +1.96531843e-02 +1.68007284e-01 +1.20983295e-01 -3.44864607e-01 +1.10271983e-01 +1.94037437e-01 +1.54963940e-01 -1.20633535e-01 +4.03988622e-02 -4.90631424e-02 +9.14350804e-03 +4.64239344e-02 +7.59639591e-02 -7.06995949e-02 -7.94663802e-02 +2.47905791e-01 -7.56111518e-02 -8.85062888e-02 +1.09117581e-02 -1.45685166e-01 +1.67699873e-01 -1.89176023e-01 -5.44408821e-02 -3.36431004e-02 +9.16017145e-02 +1.49217725e-01 -9.01593938e-02 -1.26770973e-01 -1.43175706e-01 -4.00593020e-02 +1.58174545e-01 +1.44031852e-01 -1.23929650e-01 +8.24988037e-02 -2.62034796e-02 -8.02324414e-02 -1.43789306e-01 -2.20183581e-02 +2.51988649e-01 -5.50672486e-02 -6.21291809e-02 -3.01627278e-01 -3.79556529e-02 -9.07806382e-02 +1.43811386e-03 +6.16031960e-02 -1.92925751e-01 +6.43181987e-03 -2.59802997e-01 +4.22519185e-02 -1.44207776e-02 -1.12509429e-01 +1.19308867e-01 +2.72631198e-02 -2.93531895e-01 -1.03830174e-01 -5.01355946e-01 -3.66988361e-01 +1.34267941e-01 -3.05228718e-02 -7.95244798e-02 -1.93994299e-01 +3.45614403e-02 +8.29025451e-03 +5.59533648e-02 +2.06746086e-01 -1.30266771e-01 -5.83436117e-02 -2.57348925e-01 +5.83864301e-02 -1.38011277e-01 -1.41922817e-01 -4.45368066e-02 +1.08291805e-01 -3.13422382e-01 +1.23976888e-02 +2.79469620e-02 -3.00985724e-02 -1.94532841e-01 -2.92775333e-01 +8.26378763e-02 +3.65153030e-02 -1.34051610e-02 +1.58950001e-01 -3.66322696e-02 +5.74529469e-02 +1.53859495e-03 -1.90666571e-01 +1.38303759e-02 -1.10586852e-01 -3.01349699e-01 -1.47253290e-01 +9.65669453e-02 +5.40766194e-02 +5.35674728e-02 -7.30025023e-02 +1.91600639e-02 +1.23540483e-01 +5.11902524e-03 +9.27419141e-02 -7.27442726e-02 +1.55027509e-01 -3.55500653e-02 +4.96556684e-02 -1.28717283e-02 -7.01055452e-02 -4.65244993e-05 +6.01262972e-02 -2.09125683e-01 -4.49244119e-02 +6.97022751e-02 +1.15999140e-01 -3.95603739e-02 +2.83359038e-03 -1.17626069e-02 -1.63682271e-02 +2.16942430e-02 -1.50478825e-01 -1.10822432e-02 +2.60618627e-01 +4.03068028e-03 -4.21931855e-02 +1.38629451e-01 -7.08484128e-02 +8.99770856e-03 +9.95262191e-02 +1.48540840e-01 -5.50919212e-02 +1.63118795e-01 +3.91104333e-02 -6.71064109e-02 -4.58578467e-02 +6.01653047e-02 -4.90080472e-03 -1.57586709e-01 -2.33399607e-02 -5.85257672e-02 +2.77534515e-01 +3.18607092e-01 +2.96326846e-01 -1.84669510e-01 -8.71213377e-02 -1.97295487e-01 -2.22098112e-01 +4.37087305e-02 +2.90598005e-01 +2.00026602e-01 +2.77129084e-01 +3.06586847e-02 -3.76082584e-02 -1.36258632e-01 +5.60015179e-02 +1.36173680e-01 +1.41456738e-01 +5.12023270e-03 +1.05353266e-01 +1.25456706e-01 +1.70179367e-01 -1.00219913e-01 +4.48221713e-03 +5.36311753e-02 +1.06630260e-02 -3.42595354e-02 +1.16717190e-01 +1.73510328e-01 +8.57993737e-02 -5.61865047e-03 +3.90128419e-02 +1.67064629e-02 +1.65412743e-02 -8.50818157e-02 +1.17009692e-02 +4.77030873e-02 +1.22328550e-01 +7.91242421e-02 +4.59140465e-02 -7.45289400e-02 -1.16584264e-02 +3.65598574e-02 +1.32832721e-01 -8.23932812e-02 +2.15594605e-01 +7.73475319e-02 +2.00051010e-01 +1.48957908e-01 +1.44291341e-01 +2.06796348e-01 +4.11152914e-02 -5.53408526e-02 -2.01807275e-01 +2.00154647e-01 +1.61726624e-01 +3.36169675e-02 +7.83797204e-02 +1.32128084e-02 +2.35585809e-01 +2.56531611e-02 +1.73965439e-01 +2.17473432e-01 +2.22171724e-01 -7.03442246e-02 +3.01133037e-01 +2.07181826e-01 +7.22480193e-02 +3.58244926e-02 -4.65968475e-02 +2.74767488e-01 -8.31885077e-03 -7.63980597e-02 +1.59381777e-01 -2.16262992e-02 +6.84677251e-03 +1.07066603e-02 +8.72997160e-04 +3.59610587e-01 -1.38838500e-01 +1.30873039e-01 -4.74428460e-02 -5.05968854e-02 -4.74769138e-02 -7.49201924e-02 -2.69394755e-01 +3.41223627e-02 -8.45312625e-02 -4.18165661e-02 +6.11109585e-02 +3.38563472e-01 +1.57752916e-01 -1.47355318e-01 +1.40258521e-01 +6.82324544e-02 +3.03608105e-02 +1.15792491e-01 +4.02228162e-03 -1.02165431e-01 +1.59702495e-01 +1.87562034e-01 -6.51249364e-02 +8.02895352e-02 +4.58958969e-02 +6.13524299e-03 +6.23279018e-04 +5.13966531e-02 +1.33717924e-01 -3.40506256e-01 -6.36655837e-02 +7.22662210e-02 -9.43651125e-02 +2.35820562e-02 -1.14916310e-01 +1.88106358e-01 -1.02358609e-01 +1.60319619e-02 +3.41816880e-02 +1.19013190e-01 -1.49624459e-02 +7.74814337e-02 -7.32543506e-03 +3.49717885e-02 +7.22558796e-02 +3.16525131e-01 +1.47662714e-01 +1.59096196e-02 -1.45825267e-01 -1.42924666e-01 +2.01691270e-01 +1.45014599e-01 +1.19242102e-01 -1.62714731e-03 +4.53066155e-02 -8.41733813e-02 -1.06202057e-02 -5.43555580e-02 -4.23175953e-02 -1.20392203e-01 -2.02731527e-02 +2.29165517e-03 +1.59109339e-01 +1.36490285e-01 +8.33811164e-02 -1.27540782e-01 +6.82774782e-02 -4.57078256e-02 +6.43498600e-02 +3.60667445e-02 -4.26997170e-02 +6.22014292e-02 +1.37584671e-01 +1.03135239e-02 +7.80307502e-03 +6.04425557e-02 +2.45047286e-02 -8.70358273e-02 +4.91675586e-02 -4.62310091e-02 +9.42923245e-04 -2.82007288e-02 +2.75048707e-02 -1.59566626e-02 +1.33359998e-01 -2.14240998e-02 -2.18363176e-03 -7.49273300e-02 +1.65016055e-02 +9.47128162e-02 -8.45831037e-02 -2.63965856e-02 +2.09926650e-01 -3.21812630e-02 +8.32195356e-02 -3.66929434e-02 +6.31273631e-03 -1.15479723e-01 +1.36806607e-01 +9.30006504e-02 +3.21825981e-01 +2.65899114e-02 -5.17944135e-02 -3.74167562e-02 +1.03392646e-01 +7.12529477e-03 +4.55001593e-02 +5.60319200e-02 -9.28384140e-02 -1.94073617e-01 -1.97779804e-01 -1.02168277e-01 -1.20253034e-01 +1.84682131e-01 -7.48917013e-02 +6.35124519e-02 +1.27473762e-02 +1.87059939e-01 +4.46819998e-02 +4.38027941e-02 +3.14209089e-02 -6.72782063e-02 -2.71000154e-03 +7.17457384e-02 -2.20432016e-03 +1.45404294e-01 -1.00914255e-01 +2.09112927e-01 +4.59071361e-02 +2.10972987e-02 -4.93464731e-02 -1.96689054e-01 -9.62544084e-02 +1.04083121e-01 -1.14435896e-01 -8.89946446e-02 -1.47224590e-01 -4.66177240e-02 +6.75935447e-02 +6.59988895e-02 +2.43813526e-02 +8.68040398e-02 +5.23240380e-02 +1.16786331e-01 +1.34650379e-01 +1.13020398e-01 +7.29801655e-02 +5.30370288e-02 +1.34124234e-01 -1.81370065e-01 +1.42171129e-03 -1.74217924e-01 -7.23774061e-02 -3.12406160e-02 -1.24264695e-01 -1.37581438e-01 -8.83694179e-03 -9.43989530e-02 +1.27610952e-01 +7.85700455e-02 +1.45517588e-01 -1.04821354e-01 +1.25183091e-01 +1.96238711e-01 +1.60319451e-02 +6.53392598e-02 +6.13740459e-02 -2.02038065e-02 -4.52058762e-02 +1.57791357e-02 -1.00243703e-01 -9.02764350e-02 -5.60548939e-02 +6.86309393e-03 -1.30703688e-01 +1.56623527e-01 +4.57951836e-02 +1.16002016e-01 +3.13921534e-02 -8.31713527e-02 -5.42252026e-02 -5.94819970e-02 -3.69923445e-03 -2.03808071e-03 +1.71686187e-01 -1.61263049e-02 +5.65115437e-02 +1.81963872e-02 +7.66352788e-02 -7.35822991e-02 +1.56244114e-01 +1.63928822e-01 +1.03147879e-01 +2.27896664e-02 +1.09203175e-01 -1.09028788e-02 +2.41038099e-01 +1.15423426e-01 +8.55808333e-02 +1.00030683e-01 +2.49004632e-01 +6.28597662e-02 +3.41539197e-02 -4.21994254e-02 +1.64556205e-02 -8.43554586e-02 +6.95988908e-02 -1.64693734e-03 +8.08695331e-02 -5.88911660e-02 +2.21815202e-02 +1.32738799e-03 +5.51049225e-02 -6.86945254e-03 -3.90594713e-02 -1.12454966e-01 +1.15551256e-01 +5.12987077e-02 -6.98577538e-02 +3.41893584e-02 -1.05541341e-01 +2.11057484e-01 +1.18266176e-02 -1.78661972e-01 -2.10211530e-01 -1.88152149e-01 -7.10170865e-02 +3.56583595e-02 +1.00433297e-01 +7.24981204e-02 +8.35828558e-02 +1.65100902e-01 -3.28089446e-02 -1.61057696e-01 -6.95788413e-02 +3.74604971e-03 -4.37025130e-02 -7.39580765e-02 +9.29072052e-02 -1.21892750e-01 -8.23743194e-02 +1.09560341e-01 -2.19342913e-02 -4.24877508e-03 -1.10832788e-01 -7.91984871e-02 -2.90059801e-02 +1.11659050e-01 +1.04465954e-01 -1.11083522e-01 -5.99967316e-02 -2.13556681e-02 -2.41805613e-01 +9.33438092e-02 -2.40050014e-02 +5.39970994e-01 +7.33942240e-02 +3.25303793e-01 +1.56400725e-01 +8.68098676e-01 +2.18840837e-01 -7.19257444e-02 +2.30558723e-01 +1.38460189e-01 +3.80663514e-01 +5.50556965e-02 -1.18346743e-01 +6.96265772e-02 -7.25809038e-02 +3.90610754e-01 +3.76820974e-02 +3.23095769e-01 +6.67375103e-02 +1.76077083e-01 +7.55190924e-02 -3.35420184e-02 -1.75207943e-01 +2.85404354e-01 +5.92332900e-01 +2.16709867e-01 -2.39985824e-01 +8.97521302e-02 -1.17774688e-01 -1.03662431e-01 -1.93905681e-01 -2.50686795e-01 -4.32475537e-01 +5.76933548e-02 +1.99906781e-01 -7.41715357e-02 -1.62920624e-01 +2.41122112e-01 -4.43741709e-01 +3.67681861e-01 +3.01393513e-02 +4.13567066e-01 +5.30390032e-02 +3.30271065e-01 +1.59688815e-01 +1.95116684e-01 +2.13021174e-01 +7.03231245e-02 +4.38478738e-02 +2.56447256e-01 +4.50217053e-02 +4.67985570e-01 -2.72531927e-01 -1.64746970e-01 +1.78743199e-01 +4.89323027e-02 +1.11929551e-01 -5.09714335e-02 -1.43518969e-01 -2.23269120e-01 -9.29868445e-02 +2.50726882e-02 -1.63749054e-01 -8.14715624e-02 +1.07838236e-01 -2.12781578e-01 +8.39834101e-03 +9.41313505e-02 -7.63057098e-02 +5.79007685e-01 +7.57051483e-02 -1.03673659e-01 +2.95376480e-01 +8.08213949e-02 -3.40035439e-01 +5.72612733e-02 +5.28427633e-03 +2.72479862e-01 -3.60708274e-02 +3.17272544e-02 +2.59510934e-01 +1.94213718e-01 -2.68117845e-01 -1.19802766e-01 -2.66056299e-01 -1.06008813e-01 +2.37795785e-01 +1.12960763e-01 +5.14595881e-02 +2.39278704e-01 +1.36751115e-01 -3.11307132e-01 -1.26177847e-01 +2.55822778e-01 -1.23306988e-02 -6.61921129e-02 +9.45729390e-02 -1.18678063e-02 +1.37081251e-01 -1.84938803e-01 -6.93658888e-02 +2.09842041e-01 -3.54014598e-02 +7.18981624e-02 +2.96761960e-01 -3.19736123e-01 -3.23677629e-01 +3.06561105e-02 +2.99588650e-01 +3.36604193e-02 +3.23084682e-01 +1.99602917e-01 -2.50178605e-01 +8.76062870e-01 +6.73142150e-02 -5.64063191e-02 +6.73412606e-02 +4.98950034e-01 +1.48964450e-01 +1.46530584e-01 +6.88601732e-02 +1.34177327e-01 -2.68447459e-01 +2.81142026e-01 +1.27583534e-01 +7.40775913e-02 +1.26134709e-01 +2.94183403e-01 +2.67319549e-02 -1.39098048e-01 -1.66598678e-01 -1.05885372e-01 -4.66080615e-03 -1.13972120e-01 -3.34156677e-02 -3.55187327e-01 -5.88489063e-02 -4.70427990e-01 -3.35816965e-02 +1.08700886e-01 -1.87002212e-01 +6.20028339e-02 +8.60663503e-03 +2.90117525e-02 +1.54790416e-01 +6.64761197e-03 +1.44371986e-01 +1.27362192e-01 -4.26659107e-01 -8.05040002e-02 -1.77068740e-01 -5.16010411e-02 -3.55578840e-01 -1.21343121e-01 -1.93705544e-01 +5.18228374e-02 -1.33749276e-01 -4.46504988e-02 -1.67174950e-01 +1.42065147e-02 -1.10446185e-01 -3.49089861e-01 -8.28546882e-02 -9.59957615e-02 +2.24835023e-01 +4.10927802e-01 -7.36600161e-03 +1.99990317e-01 -8.08576718e-02 +4.83925194e-02 +1.11752734e-01 +3.47822815e-01 -3.85356188e-01 -1.64941624e-01 -1.57307118e-01 -8.86790976e-02 -4.05343622e-02 +7.19372695e-03 -2.81381700e-02 +1.67195802e-03 +1.27611533e-02 +2.88425416e-01 -7.29960054e-02 +1.35943890e-01 -3.55784819e-02 +2.19607070e-01 -1.41083404e-01 -1.69468626e-01 -9.76758152e-02 -1.10970356e-01 -2.27047335e-02 -8.73585716e-02 -8.62955698e-04 +1.28673196e-01 +8.17503557e-02 +9.67245027e-02 -2.10399166e-01 +3.04954499e-02 -1.68849394e-01 -6.76477700e-02 +1.38614908e-01 -1.63897216e-01 -2.94677407e-01 -8.82586986e-02 -3.03116664e-02 -3.75181027e-02 -1.34100676e-01 -3.62446755e-01 +5.44691503e-01 +1.05772786e-01 +1.15383185e-01 -4.35478054e-02 -5.13711236e-02 -1.67492390e-01 +9.50556621e-02 -1.44723263e-02 -4.42717783e-02 +4.62775044e-02 +1.62004545e-01 +3.78349632e-01 +2.22178802e-01 -2.43153349e-02 -2.72747099e-01 -2.51987040e-01 +6.62557110e-02 -2.07618728e-01 +5.83795868e-02 -2.54648358e-01 -7.78342783e-02 -1.15235709e-01 +2.04739451e-01 +1.91017896e-01 -1.30782858e-01 +1.53305650e-01 -5.93505129e-02 +1.13956310e-01 -3.97343636e-02 -3.28677207e-01 -7.47956112e-02 -1.53332368e-01 -5.83357066e-02 -1.69864237e-01 -1.02516916e-02 +6.22632205e-02 -1.82573125e-01 -1.41823649e-01 -2.52533317e-01 -1.40910089e-01 +1.24165649e-02 +1.80704030e-03 +5.93799427e-02 -2.49097589e-03 -1.40032262e-01 -2.06030414e-01 -2.99774595e-02 -2.05388978e-01 -2.58415073e-01 +6.23888910e-01 -2.31624208e-02 -1.31608963e-01 +2.99168468e-01 -8.72408971e-02 -1.04378484e-01 -2.36017868e-01 -9.56067145e-02 -1.57401830e-01 +1.33248195e-01 +2.61248589e-01 -1.95589215e-02 +1.75472796e-01 +2.07434356e-01 -1.11744754e-01 +3.01584043e-02 +3.55033726e-01 -1.96773306e-01 +1.71263203e-01 +2.20671549e-01 +2.59030879e-01 -3.91160185e-03 +9.93845314e-02 -2.40264207e-01 -1.95404664e-01 +2.51386017e-01 +1.69085905e-01 -2.49432310e-01 +2.92980224e-01 -3.33099693e-01 +2.47937828e-01 -3.24938357e-01 -7.24662021e-02 -1.81850940e-02 +2.21864566e-01 -3.68243784e-01 -7.99068660e-02 -1.81697905e-01 -1.52938828e-01 -1.30255163e-01 +2.45413557e-03 +2.18732152e-02 -1.06007442e-01 +3.37404400e-01 -1.03848077e-01 -3.20180088e-01 +9.26893130e-02 -5.27217053e-02 -3.70960683e-02 -1.07171789e-01 +3.00957829e-01 -1.86991245e-01 -6.04301840e-02 -1.24764144e-01 +2.53218979e-01 -2.32055664e-01 -1.38862714e-01 -1.50006041e-01 +2.26000935e-04 -8.56818408e-02 -5.63591719e-02 +7.41508007e-02 -7.28219002e-02 -1.40138328e-01 +1.12788804e-01 +4.99721728e-02 +1.67947128e-01 +2.13727891e-01 +3.59901004e-02 -2.92662889e-01 +9.93461162e-02 -1.36686549e-01 -3.56418118e-02 +5.93300462e-02 -2.43048832e-01 -1.93278372e-01 +1.90485001e-01 +5.81260435e-02 +2.20522210e-01 +1.30945936e-01 -1.34675100e-01 -1.00519642e-01 +3.14529017e-02 +1.69039667e-01 +4.11092997e-01 -1.54340863e-01 -1.95549682e-01 +1.21991159e-02 -2.14237586e-01 +5.94679452e-02 +5.95638938e-02 +1.37800917e-01 -3.98153849e-02 +1.16080008e-01 +1.23976462e-01 +1.64814413e-01 +7.64099459e-05 -3.33430260e-01 -1.55430153e-01 +1.04023322e-01 -1.48135468e-01 -1.25585929e-01 -4.22718413e-02 +6.02115691e-02 +2.52284944e-01 -5.31841926e-02 +2.22106054e-01 -1.10716067e-01 -8.76763240e-02 -7.53384754e-02 -1.85478911e-01 -1.32117063e-01 -3.46731395e-02 +1.55928046e-01 -9.71436948e-02 +1.60246283e-01 -4.01177466e-01 -2.52146758e-02 +1.72245070e-01 +2.67699569e-01 -9.32679474e-02 +7.86119699e-02 +1.54561490e-01 +1.00954682e-01 -2.45542824e-01 -7.37502798e-02 -6.56005070e-02 -8.49993378e-02 -9.89469290e-02 +4.63224109e-03 -1.42808467e-01 -1.47949129e-01 -1.71960201e-02 -2.00881347e-01 -3.33496094e-01 -1.53163239e-01 -2.45983243e-01 +1.39911652e-01 +1.04226902e-01 -4.85848971e-02 -3.44407767e-01 -1.23056648e-02 +2.05735043e-01 +2.06475466e-01 +2.21109465e-01 +1.71902403e-01 +1.00175992e-01 -1.45373255e-01 +9.95535254e-02 -3.08486540e-02 -1.62444547e-01 -4.17556539e-02 -7.20135793e-02 -1.46910995e-01 +1.49335071e-01 -1.17340617e-01 -1.84667468e-01 -1.32926047e-01 +2.39779472e-01 +1.01743199e-01 +7.66644552e-02 +1.28521442e-01 +1.78998932e-01 -2.12389544e-01 +1.80626418e-02 +1.06758952e-01 -2.80855060e-01 -1.58990212e-02 +1.35357052e-01 +1.82969660e-01 -1.01454005e-01 -4.86653075e-02 -8.91816169e-02 +1.90837532e-01 +1.91733643e-01 +2.51198143e-01 +7.30049089e-02 -1.59911394e-01 -1.64637029e-01 +3.91333997e-01 -8.12419429e-02 +3.46350297e-02 +2.97432482e-01 -8.30435604e-02 -5.39912879e-02 +3.26270878e-01 +1.13620749e-02 +9.21585411e-02 +2.03245714e-01 +2.10502997e-01 -1.11923637e-02 +1.05042450e-01 -8.10817406e-02 +2.72195041e-01 +1.57100931e-01 -6.36198223e-02 +1.94963843e-01 +1.42177165e-01 -1.96655288e-01 -2.95698285e-01 -2.28452031e-02 -1.16318457e-01 +1.32131487e-01 -1.77907974e-01 -2.18250602e-01 -1.43361956e-01 -2.59856790e-01 -1.04907125e-01 -1.91134512e-01 -2.63084084e-01 -1.51054725e-01 -7.61955678e-02 -2.93477327e-02 -1.14369981e-01 -1.05680354e-01 +3.59646916e-01 +1.61139295e-01 -2.12692454e-01 +8.79355371e-02 +1.03088245e-01 +1.38852522e-01 +3.38054076e-02 +5.80555759e-02 +1.39747918e-01 -3.44829291e-01 +6.55709654e-02 -4.13695127e-02 -2.37152595e-02 -1.01795271e-01 -8.10161754e-02 -5.54122441e-02 -5.53429350e-02 -7.37267956e-02 -8.82469416e-02 -1.05520256e-01 -7.37317875e-02 -2.86268424e-02 +3.96476388e-02 +4.59006056e-02 +1.24595016e-02 +1.30503356e-01 +1.34546503e-01 +2.27426827e-01 +2.55601346e-01 -1.62185468e-02 +8.23002011e-02 +2.74639111e-02 -1.50635451e-01 +5.87674603e-03 +1.03005506e-01 +2.61293679e-01 -1.96493432e-01 -7.40291253e-02 +6.28182888e-02 -9.52743143e-02 -1.42284781e-01 -7.28886276e-02 -1.71398446e-01 -5.50677963e-02 -6.67158887e-02 +3.15502137e-02 -1.76521286e-01 +2.76328504e-01 +1.17854998e-01 +2.09301547e-03 +2.46092603e-01 -2.17673630e-02 +2.97393888e-01 +2.42698789e-01 +2.33821735e-01 +2.04685941e-01 -2.60077983e-01 +9.44452956e-02 +1.92711398e-01 -2.60251220e-02 +1.74428523e-01 +1.38237393e-02 +8.95939618e-02 -8.13306272e-02 +8.72980505e-02 +1.66187599e-01 +1.18214652e-01 -3.77347469e-02 +3.82682793e-02 -1.02880359e-01 +9.88870561e-02 -1.44124702e-01 -4.13309857e-02 -1.47786871e-01 +2.01238349e-01 -7.65047669e-02 -7.77446628e-02 -8.68859142e-02 -4.71075326e-02 -5.56260124e-02 -2.52069142e-02 +3.01625375e-02 -1.60151735e-01 +4.32795808e-02 -1.00812957e-01 -1.27399892e-01 -1.05520546e-01 -2.11809188e-01 -1.49727210e-01 -1.06170125e-01 +1.16586655e-01 -1.56686336e-01 -9.36868712e-02 -1.28571957e-01 -1.19827345e-01 -7.30341747e-02 +5.54797351e-02 +1.67410120e-01 +5.76361977e-02 -2.32013855e-02 -1.16544075e-01 -2.07103252e-01 -5.32751195e-02 -3.65726165e-02 +1.12996057e-01 +3.46543729e-01 +1.40341088e-01 +2.35415965e-01 +1.26129702e-01 -1.37524575e-01 -1.15180507e-01 +2.79686935e-02 +5.38887084e-02 -3.31906676e-01 -1.05634712e-01 -1.67657807e-01 -4.02441323e-02 +4.83291410e-02 +4.37549874e-02 +1.80523813e-01 -5.39243072e-02 -1.83949947e-01 -1.50360093e-01 -1.44730330e-01 -3.18028837e-01 -6.42032456e-03 -2.05188632e-01 -3.43382917e-02 -1.98042020e-02 -1.18594065e-01 -4.15515564e-02 +2.51510233e-01 +1.30367830e-01 +1.24564603e-01 +1.14958912e-01 +1.79386556e-01 +6.27407432e-02 +2.47610107e-01 +2.99089938e-01 -1.87591434e-01 -9.80154723e-02 -1.20960541e-01 -1.52052790e-01 -5.75384274e-02 -1.02421649e-01 -1.64813653e-01 -2.37074286e-01 -2.97308452e-02 +1.68752387e-01 +9.82280588e-04 -1.86470136e-01 +1.39877826e-01 -1.58514827e-02 +1.26273679e-02 -3.60068306e-02 -3.62854637e-02 -5.87439127e-02 +4.70985007e-03 -1.33944392e-01 -6.79839328e-02 +1.65967301e-01 +1.77670300e-01 -5.71175329e-02 +8.42240639e-03 -1.93162948e-01 -4.29801755e-02 +2.40179040e-02 +4.88934293e-03 +2.19505370e-01 +3.17757912e-02 +2.82206774e-01 -1.55846223e-01 +1.90614343e-01 +2.78237790e-01 +1.57430425e-01 +2.19406784e-02 +2.68977252e-03 +3.35861221e-02 +2.57151891e-02 -4.35886420e-02 -1.75748006e-01 -1.55471280e-01 -3.16306017e-02 +4.60830592e-02 -3.25276181e-02 -2.27178589e-01 +3.00683409e-01 -1.12996303e-01 -1.59770265e-01 +6.91431463e-02 -6.07388578e-02 -2.27934331e-01 -1.13957534e-02 +8.68331874e-04 -7.08212033e-02 +7.23265260e-02 +4.40042000e-03 -9.13474243e-03 +1.88182443e-01 +1.68829724e-01 -1.98949024e-01 -1.24006085e-01 -1.31277785e-01 -5.41568287e-02 -1.47150382e-01 -1.12327218e-01 -4.26243730e-02 -9.51884687e-03 +2.32628927e-01 +1.20724045e-01 -1.75167080e-02 -7.07226098e-02 -6.45198971e-02 +6.66317642e-02 +2.26854589e-02 -4.51591797e-02 -4.81773205e-02 -1.36916459e-01 -1.18338980e-01 -4.01990600e-02 -1.41361982e-01 -2.56128181e-02 -1.90148324e-01 -1.02574587e-01 +1.45138443e-01 +2.36088082e-01 +1.90029487e-01 -5.19262329e-02 -3.07046678e-02 -1.19316481e-01 -1.21792957e-01 -7.71133006e-02 -6.33769333e-02 +2.19887700e-02 +1.54934958e-01 +1.45183187e-02 +5.20859137e-02 +1.45866880e-02 -1.31215975e-01 -1.13062456e-01 -1.15960099e-01 -1.20681077e-01 -5.89505136e-02 -4.88802157e-02 -7.85141345e-03 -1.50352687e-01 -8.94113630e-02 -9.75453481e-02 -1.95462570e-01 -6.31260276e-02 +1.29877210e-01 -1.64638981e-02 -2.01335803e-01 -1.18385114e-01 -2.01459993e-02 -1.52043223e-01 -1.07070535e-01 -1.05379038e-01 +1.11151859e-01 +1.78799361e-01 +1.31811962e-01 +2.74037391e-01 -1.66279405e-01 -2.17944130e-01 -9.03119147e-02 +1.27234623e-01 -3.65471318e-02 -2.17170492e-01 -1.25459656e-01 -1.14877425e-01 -1.90945938e-01 -1.72798753e-01 -7.64642283e-02 -1.03637844e-01 +2.06891418e-01 +1.29529208e-01 +1.28529325e-01 -2.49029845e-01 +2.20784053e-01 +2.42523059e-01 +2.36478314e-01 +1.92292690e-01 -3.84582616e-02 +3.27815562e-02 +2.09299937e-01 -9.71502364e-02 -4.95434552e-02 -1.35501832e-01 -1.18461885e-01 -1.81723326e-01 -1.99565619e-01 -7.23400712e-02 -6.75379932e-02 -1.47522047e-01 -1.54681474e-01 +1.39830420e-02 -2.04835936e-01 +5.21879904e-02 +5.15089072e-02 +1.59057915e-01 -1.10978603e-01 -8.21233094e-02 +2.43356526e-02 +1.11835254e-02 -6.38969466e-02 -8.39218032e-03 -1.05959037e-02 -6.42666444e-02 -8.60505551e-02 +8.56510997e-02 +5.49307540e-02 -1.91295385e-01 -1.47552714e-01 -2.25137591e-01 -1.31695375e-01 -1.76097319e-01 +1.33253902e-01 -8.67432579e-02 +1.22528516e-01 -1.79065317e-01 +1.37931287e-01 +1.73515737e-01 +1.26761526e-01 +1.13946080e-01 +5.28264306e-02 -8.46298113e-02 -8.03660750e-02 -1.05571546e-01 +1.04343683e-01 +2.11415529e-01 +1.55925944e-01 -1.19756088e-01 -1.80753842e-01 -1.78079993e-01 -1.71447061e-02 -6.85973167e-02 -7.21779466e-02 +1.38097078e-01 -3.89657207e-02 +2.57665366e-02 +5.09200692e-02 +3.09696998e-02 +1.07044227e-01 +7.82434344e-02 -7.02689365e-02 -1.00499928e-01 +2.21683636e-01 -5.92138283e-02 -8.87340605e-02 +1.95818573e-01 +1.58025220e-01 +4.34432887e-02 +7.08136037e-02 -1.82591584e-02 +1.84612453e-01 -8.20137039e-02 -1.29163310e-01 +1.15133725e-01 +1.32825691e-02 +7.59436190e-03 +6.45705163e-02 +6.72727302e-02 +1.95490032e-01 +1.54838771e-01 +2.42753685e-01 +1.31417796e-01 -2.21064631e-02 -1.25312924e-01 +1.34874448e-01 +1.53370887e-01 +1.80245906e-01 +1.92501117e-02 -3.16617154e-02 -1.10248409e-01 +9.45561156e-02 +2.32912585e-01 +7.38355517e-02 -4.18427765e-01 -4.67335284e-01 +1.43067650e-02 -5.69445610e-01 +9.25093815e-02 -1.44970179e-01 +1.41305447e-01 -3.65065992e-01 +1.70258269e-01 +1.25998080e-01 +2.70671677e-02 -1.62927821e-01 +2.69183457e-01 -7.10712075e-01 -2.69552618e-01 +2.15474870e-02 +1.09980695e-01 -1.46415591e-01 -2.54596442e-01 -4.02366549e-01 -7.80387670e-02 +1.49732769e-01 -2.26688664e-02 -1.42147124e-01 -8.72775093e-02 -2.75560200e-01 -2.30304778e-01 -2.98355132e-01 -1.52690262e-01 +3.68205179e-03 -1.69036370e-02 -1.83208689e-01 +1.70977339e-01 -4.36545983e-02 +1.82919279e-01 -2.87969738e-01 -3.56528491e-01 +9.94397048e-03 -3.68097544e-01 -7.49877244e-02 -1.41156331e-01 -3.48675400e-01 +1.96393982e-01 -4.99331325e-01 -4.46584821e-01 -1.39014706e-01 -6.35106787e-02 -3.39606225e-01 -3.83162200e-02 -4.96929795e-01 -1.38262033e-01 -6.61843181e-01 +6.47465959e-02 -2.11388450e-02 +1.28575578e-01 +1.78981632e-01 -3.08107555e-01 -9.03113931e-02 -2.16139883e-01 +1.29717767e-01 +7.28659555e-02 +2.04592589e-02 -9.65557545e-02 -4.76478115e-02 +1.62779942e-01 -5.49922660e-02 -1.89591736e-01 +2.03676317e-02 -1.17569096e-01 +1.07624412e-01 +4.21422608e-02 -9.85150814e-01 +1.05737753e-01 +3.79214026e-02 +1.35801494e-01 +3.47894251e-01 -3.79078925e-01 +8.38813409e-02 -4.05390263e-02 -7.17339516e-01 -3.52235675e-01 +1.74281344e-01 -4.22285944e-01 +1.77042812e-01 -9.83439479e-03 +5.76149337e-02 -5.37608229e-02 -2.77274370e-01 -1.39930338e-01 -2.48269849e-02 -1.46833702e-03 +1.73875362e-01 -3.40187848e-01 +1.27142042e-01 +7.43191317e-02 -6.43314719e-01 -4.35312092e-03 -2.46040583e-01 -1.46458313e-01 +6.84512630e-02 -1.70482308e-01 -2.34052837e-02 -4.47381614e-03 -2.27360263e-01 +1.62599720e-02 -3.26792151e-02 -6.98429465e-01 -3.63590345e-02 -1.67033672e-01 -5.53599074e-02 -2.52639204e-01 +1.70993991e-02 +1.64388970e-01 +3.03404003e-01 -1.23942412e-01 -1.55404970e-01 -1.16298743e-01 -1.66755602e-01 +7.75646493e-02 -1.42863706e-01 +7.64736757e-02 +6.56841397e-02 -3.35415572e-01 +8.73749331e-02 -4.27722543e-01 -1.72904432e-01 +3.27729359e-02 +7.53795169e-03 -2.38424726e-02 +2.89926324e-02 +6.59477115e-02 +1.62480518e-01 +2.87935545e-04 +9.04006511e-03 +1.62489265e-01 +1.38790026e-01 +1.30000129e-01 +5.79695165e-01 +1.77507088e-01 -2.00001270e-01 -2.06689149e-01 -3.48869562e-02 +2.66457740e-02 -6.21288177e-03 -1.77097932e-01 +1.70681234e-02 -3.78622830e-01 -3.18942331e-02 +9.64721665e-02 +2.80630112e-01 -8.17557126e-02 +8.67829472e-02 -1.26807436e-01 +6.71949238e-02 +1.78530023e-01 -1.34366915e-01 -1.26724303e-01 -2.81044722e-01 +1.19288236e-01 +4.96875905e-02 +1.07437760e-01 +1.06221795e-01 -8.30678046e-02 -3.40664327e-01 +6.47728750e-03 -4.55231369e-02 -1.01753801e-01 +3.82728763e-02 -1.43955778e-02 -2.87895411e-01 -1.08984955e-01 -1.18785142e-03 -7.32820183e-02 -1.23702832e-01 -1.01974569e-01 -1.07658483e-01 -8.68346449e-03 -6.76967502e-02 +2.40787584e-02 +7.15608373e-02 -4.19495292e-02 -1.75824225e-01 -1.65116236e-01 -1.45182207e-01 -2.17804443e-02 +8.57673138e-02 -5.51315695e-02 +1.97298214e-01 -5.11951670e-02 -2.23891109e-01 -4.52372670e-01 -5.02337441e-02 -5.67178130e-02 +5.87971844e-02 -2.70406567e-02 +1.74245656e-01 +2.13760599e-01 +1.73935175e-01 +1.66229531e-01 -6.81074038e-02 +9.15587023e-02 +1.37804383e-02 -1.27010480e-01 -6.08916990e-02 +1.27020642e-01 -4.57428768e-02 -4.93917391e-02 -1.74540535e-01 +7.18527585e-02 +9.99235734e-02 -1.82016730e-01 +8.22041035e-02 -2.42458563e-02 +2.37939328e-01 +1.83777526e-01 -3.53092812e-02 +9.27574933e-02 +2.06100076e-01 +7.30515048e-02 -1.74569860e-02 +9.36186835e-02 -9.04637054e-02 +8.28989670e-02 -7.74173975e-01 -9.85184684e-02 -1.54949605e-01 -2.60668192e-02 -4.11661575e-03 -9.93893668e-02 -4.01892364e-02 +5.92366755e-02 -1.00105360e-01 -1.15052164e-02 +1.60657853e-01 +3.15181203e-02 +9.19683799e-02 -1.08458392e-01 -3.86634879e-02 -3.34427863e-01 +3.63245606e-01 +2.50364700e-03 -5.09546585e-02 -1.52731925e-01 -5.84162325e-02 +1.94402426e-01 +4.91542965e-02 +1.96616858e-01 +2.36365408e-01 +1.76675227e-02 -2.71685749e-01 +9.14010480e-02 -1.09920956e-01 +4.45214398e-02 +6.55224770e-02 +1.52866036e-01 -3.04044373e-02 -2.30058596e-01 +8.21321160e-02 -1.63683280e-01 -2.79024214e-01 +1.59675583e-01 -3.09323460e-01 -1.80961173e-02 -5.67274205e-02 +4.68781777e-02 -1.00988686e-01 +1.02306167e-02 +1.27947584e-01 -8.59103352e-02 -9.06753354e-03 +2.02005971e-02 +1.08588658e-01 +8.48619267e-02 +7.82485530e-02 -1.04686655e-01 -1.95088331e-02 -2.47054070e-01 +1.13943763e-01 -6.57823756e-02 -6.55649379e-02 -3.12975913e-01 -2.50965208e-01 +1.49026792e-02 +7.59007782e-03 -4.57674824e-02 +1.31283030e-01 +1.21831343e-01 -3.33634838e-02 -3.23019959e-02 -4.35442775e-02 -8.23207721e-02 +6.27649352e-02 +6.25117198e-02 +1.31358042e-01 -1.00038618e-01 -9.78808329e-02 -9.47016999e-02 -1.92713842e-01 -1.61750406e-01 -7.11323023e-02 +1.55569473e-02 +2.56362140e-01 -3.82615626e-02 -2.35158160e-01 -1.11496106e-01 -5.56106195e-02 -4.29856256e-02 -2.02277288e-01 -1.38733879e-01 -2.19503611e-01 +9.89206433e-02 +1.38216555e-01 +1.33373007e-01 -1.15524486e-01 +1.21307418e-01 +3.87877077e-02 -3.20004039e-02 -2.74582416e-01 +5.83221540e-02 +3.26088630e-02 -2.37531923e-02 +1.33960053e-01 -5.45438975e-02 +7.05661327e-02 -2.34114915e-01 -2.46423692e-01 -1.81689590e-01 +4.99500334e-02 -1.70623586e-01 +2.90232629e-01 -1.70458376e-01 -1.19360127e-02 +1.49663627e-01 +1.52636200e-01 +1.89516768e-01 -1.07771322e-01 +1.34585381e-01 +1.50507256e-01 +2.23371118e-01 +2.09520874e-03 +2.30370432e-01 -1.17271520e-01 -2.69613471e-02 -1.45019919e-01 +4.58502769e-02 -4.19785716e-02 -2.59071112e-01 -1.86431274e-01 +1.96365535e-01 +8.89018252e-02 -5.73233739e-02 +1.69569075e-01 +1.47491515e-01 +1.71121210e-01 +3.14505808e-02 -1.60192236e-01 -7.82165080e-02 -1.90266415e-01 -3.03959519e-01 +1.46089450e-01 +1.53103992e-01 +7.75316581e-02 +2.04525709e-01 +9.24616307e-03 +1.93952490e-03 +2.69126613e-02 -1.74429442e-03 +1.05116365e-03 -2.17821226e-01 +1.68149266e-03 -6.51285574e-02 -4.27660681e-02 +1.13940023e-01 +6.53530434e-02 +1.29829302e-01 -2.90807262e-02 +7.68671483e-02 -1.05358720e-01 -1.63395464e-01 +6.90379888e-02 -2.28855722e-02 +1.41120180e-01 +1.76309481e-01 +1.26241013e-01 +1.72140952e-02 -5.58061823e-02 -1.31575286e-01 +1.05929941e-01 -5.20547368e-02 -1.95600782e-02 -2.56769899e-02 -2.33276878e-02 -2.88298558e-02 -2.00071752e-01 -7.25776423e-03 -1.01164229e-01 +8.66841823e-02 +6.75767437e-02 -5.04040830e-02 -1.25261590e-01 -4.16136757e-02 +3.03042810e-02 +9.88822058e-02 +7.14342818e-02 +3.18748534e-01 -1.52107090e-01 +4.80264425e-02 +1.64834224e-02 +2.00166479e-02 +4.05510329e-03 -7.53163844e-02 +7.84173235e-02 +6.11685328e-02 +8.83601457e-02 +2.39461474e-02 -1.07918195e-01 -4.61858511e-02 +1.96122319e-01 +1.70358360e-01 +1.21441461e-01 +1.35777086e-01 +2.38133013e-01 +1.22724928e-01 -2.46147681e-02 -8.70899260e-02 +1.41405806e-01 +2.01513022e-01 +2.83478260e-01 -2.17093900e-01 +1.08426906e-01 -1.05390534e-01 +1.49319157e-01 -1.23919763e-01 -3.02827656e-02 -2.80367196e-01 -6.35832399e-02 +5.27103059e-02 -3.35511528e-02 +5.00775725e-02 +1.55286029e-01 -4.42118868e-02 -2.62687337e-02 -1.42219052e-01 +8.40248391e-02 +1.44030288e-01 -2.13360246e-02 -2.70096473e-02 -4.38049883e-02 +7.82983825e-02 -8.32128748e-02 -1.63657755e-01 +2.25854013e-02 -3.80419716e-02 +1.82137042e-01 -7.75329070e-03 -5.79362921e-02 +8.30261335e-02 -5.46793528e-02 -8.07438865e-02 -9.88478884e-02 +7.89258704e-02 -1.25362694e-01 -1.09179564e-01 -1.40069261e-01 -7.91146830e-02 -4.94509712e-02 +7.58971125e-02 -1.17541570e-03 +1.02007061e-01 -1.21890679e-02 -1.25588953e-01 -1.13592274e-01 +4.81696688e-02 +8.49585161e-02 -1.52626485e-01 +7.96592701e-03 +9.30143800e-03 +9.44074690e-02 +9.49739218e-02 +1.84200913e-01 +1.39851093e-01 +1.46236002e-01 +2.47670844e-01 -6.54785112e-02 +2.85585076e-02 +1.53100640e-01 +2.61914507e-02 +5.79151213e-02 +1.44556537e-01 +1.98369831e-01 +1.23551644e-01 +1.76726475e-01 +9.86698363e-03 +1.25415966e-01 +5.05931899e-02 +9.15072858e-02 +3.62231806e-02 +1.40983000e-01 +6.12794943e-02 -1.37424931e-01 +9.51808468e-02 -3.80712524e-02 -6.81933155e-03 +1.07736210e-03 +6.44998699e-02 +2.26525277e-01 -2.42351219e-02 +1.26899138e-01 +1.88464537e-01 -2.54893992e-02 +3.70192565e-02 +1.42932370e-01 -5.39939664e-02 +1.23159781e-01 +1.11741908e-01 +1.10051259e-01 +2.22913474e-02 +4.37227190e-02 +9.76920128e-03 -1.38851687e-01 +1.15960054e-01 -2.20073536e-01 -1.30154312e-01 -1.23492023e-02 +3.68863158e-02 +2.10139915e-01 -5.54584004e-02 -1.15025090e-02 -7.33528435e-02 -4.70027663e-02 -6.36556894e-02 -1.58166457e-02 -9.04885009e-02 +1.94086418e-01 -2.90311240e-02 +1.09423034e-01 -2.21351555e-04 -1.55288622e-01 -1.54598117e-01 +4.09919284e-02 +1.07026929e-02 -4.57935818e-02 -5.78134470e-02 +1.31457383e-02 -1.40718207e-01 +1.11925356e-01 +2.82240838e-01 +3.38472091e-02 -2.27540001e-01 +7.03839362e-02 +1.69397384e-01 +6.28343672e-02 -2.97259372e-02 +2.98897196e-02 +1.16978616e-01 +1.85615093e-01 +4.39983532e-02 -7.93167055e-02 +1.21612221e-01 +6.53784722e-03 -1.97763704e-02 +1.80274263e-01 -6.51806593e-02 -3.14339958e-02 -1.05179273e-01 +3.23188603e-02 -8.52623582e-02 +5.77591313e-03 +1.70780957e-01 +1.49322599e-01 +1.45540228e-02 -9.32277590e-02 +8.55051279e-02 -1.45823747e-01 +2.30483431e-03 +9.09561440e-02 +8.24877694e-02 +3.37936245e-02 +1.72170267e-01 -1.45029128e-01 -1.81450658e-02 -1.27168715e-01 -6.80217892e-02 +1.14363477e-01 +3.71427760e-02 +9.37082618e-03 -1.03388421e-01 +5.74119277e-02 -7.19298096e-03 -2.79079787e-02 +1.42064527e-01 +1.96490549e-02 +4.93422337e-02 +1.03393011e-01 +8.51772539e-03 +1.29467890e-01 +1.16518967e-01 -4.76717800e-02 +2.28747189e-01 +1.43453449e-01 +2.84342859e-02 +1.27032951e-01 +2.20665768e-01 +1.67469963e-01 +2.16466695e-01 +1.70518398e-01 +9.72141922e-02 +1.51969343e-01 -6.27633259e-02 +1.71959102e-01 -1.12390980e-01 -1.67063475e-01 +1.57595485e-01 +1.66628495e-01 -4.30147536e-03 -1.58998761e-02 +5.29876612e-02 +1.99633569e-01 +1.44602060e-01 -2.20918469e-02 -1.30483821e-01 +1.45064563e-01 +1.39281154e-01 +2.19449215e-03 -1.29262153e-02 +1.69946834e-01 +3.96998934e-02 +2.82338485e-02 -1.90151066e-01 +5.23907058e-02 +1.64989904e-01 +8.33837315e-02 +6.86347038e-02 -5.99562116e-02 -1.25302821e-02 +1.23476170e-01 +4.38860022e-02 +1.65222399e-02 -1.84315280e-03 -2.28426754e-02 -1.58253297e-01 -5.84091470e-02 +1.57328308e-01 +6.79364949e-02 -3.73336934e-02 +1.58408299e-01 +5.44511862e-02 +1.68312918e-02 +5.26741594e-02 -4.66666371e-02 +6.44402951e-02 +8.19100887e-02 +9.06033516e-02 +2.11717393e-02 +1.57369137e-01 +1.25060797e-01 +1.80151805e-01 -6.93675876e-02 +6.74280450e-02 -9.92029160e-02 +3.98873687e-02 -2.00023409e-02 +2.18310580e-03 -4.13536914e-02 +1.05255589e-01 -1.20190787e-03 -1.01000890e-01 +1.89717799e-01 +6.48471043e-02 +1.73967913e-01 +8.29543918e-03 -1.41459387e-02 -6.13807142e-02 -9.41367075e-02 +5.96840940e-02 +4.43251655e-02 +4.76062857e-02 +2.34471168e-02 -3.52945812e-02 +1.25526533e-01 +5.68056777e-02 -4.31795642e-02 +1.15485124e-01 +1.68378621e-01 +2.10312894e-03 +1.91623997e-02 +1.48174874e-02 -3.92709114e-02 +2.69803517e-02 -1.00024819e-01 +2.79970723e-03 -7.57444976e-03 -9.18082669e-02 -1.10300295e-02 -2.87787765e-02 +6.78819790e-02 -6.60822093e-02 +8.03009793e-02 +3.11175790e-02 -1.59429446e-01 -3.60513106e-02 -7.41140321e-02 +1.40027285e-01 +9.42729190e-02 +8.83990601e-02 +2.84660123e-02 +7.78724700e-02 +1.26833558e-01 +2.18183085e-01 -1.03242854e-02 +6.58823326e-02 +4.71058860e-02 -2.16711070e-02 +1.00741617e-01 +9.78703201e-02 +4.94894721e-02 +6.90607056e-02 +1.97784952e-03 +1.61397174e-01 +7.60428011e-02 +1.28724322e-01 +4.25627083e-02 +8.71782452e-02 +1.68739557e-01 -3.58591378e-02 -2.52978764e-02 +6.06053211e-02 +5.20237461e-02 -1.56648606e-02 +4.96848486e-02 +6.03831634e-02 +2.05229163e-01 +9.79198143e-02 +7.64743146e-03 +1.83767378e-01 -7.03291669e-02 +1.82288438e-01 +1.19604297e-01 +6.21872433e-02 +1.25713110e-01 +1.48626603e-02 +1.56126037e-01 +1.11544743e-01 +5.69323711e-02 +1.04372576e-01 +8.74740109e-02 +1.36698335e-01 +8.78454745e-02 -1.27861932e-01 +5.97097911e-02 +7.30405748e-02 -8.03751945e-02 +1.45929500e-01 +2.30791524e-01 -8.97535235e-02 +6.13802783e-02 +5.07111177e-02 -3.89948152e-02 -6.05302714e-02 -1.34334443e-02 +6.96174204e-02 +6.45745248e-02 +1.27663136e-01 +2.66100988e-02 +1.18186466e-01 +7.33973533e-02 +1.77919105e-01 +1.03171259e-01 +1.60593465e-01 +1.14651486e-01 +1.84663504e-01 +1.38200164e-01 +1.19971193e-03 -4.81278263e-03 -6.36874586e-02 -3.84640694e-03 +4.30406332e-02 -1.76784396e-02 +4.47322167e-02 +4.26426977e-02 +2.61874520e-03 -2.38713026e-02 +1.03301339e-01 -2.06754915e-02 +5.01305051e-02 +1.77061826e-01 +3.63387652e-02 +1.50184901e-02 +1.35100275e-01 +4.40272428e-02 -2.93417051e-02 +1.23520428e-02 +2.63580028e-02 +1.66258007e-01 +4.21934612e-02 -2.00395167e-01 -1.52531639e-01 -1.68355733e-01 -1.57566085e-01 -1.03358887e-01 +8.27013981e-03 -1.15349218e-02 -3.44518200e-02 +3.64721231e-02 +1.59591839e-01 +1.22270375e-01 +1.64124414e-01 +1.15946084e-01 +1.16866969e-01 +8.45701471e-02 +1.11779794e-01 +9.99143273e-02 +8.01732205e-03 +1.25930950e-01 +7.24235624e-02 +7.26175383e-02 +2.10786071e-02 +1.93532079e-01 -3.22688259e-02 +4.83638793e-02 -1.01140089e-01 -9.97284129e-02 -1.39761157e-02 -5.57176257e-03 +1.01671070e-01 -3.21428403e-02 +5.07479161e-02 -6.77993745e-02 -1.27325533e-02 +1.87805314e-02 +7.71515891e-02 +1.19926155e-01 +1.08704403e-01 +9.48523451e-03 -1.07700631e-01 +1.63973451e-01 +5.12751043e-02 +8.84069800e-02 -1.16125941e-01 -1.57871261e-01 +4.65929322e-02 +3.98722030e-02 +4.62292619e-02 -9.95347582e-05 +1.23015992e-01 +4.50296178e-02 +2.54593929e-03 +5.25290072e-02 +1.42408803e-01 +2.08996624e-01 +1.17745750e-01 +3.87508959e-01 +3.76553416e-01 -1.04267828e-01 -6.25103772e-01 -2.81819612e-01 -1.23701096e-01 -1.00584850e-02 +5.71413100e-01 -6.67728066e-01 -1.27878398e-01 -7.33042508e-02 +1.41672504e+00 +4.08245325e-01 +1.43598759e+00 -4.69364107e-01 -2.20095262e-01 -3.97675000e-02 -2.39935219e-01 +9.84381557e-01 +3.40589881e-03 +2.86397308e-01 -1.03028506e-01 +1.36424482e+00 +8.63004923e-02 -1.12986416e-01 +7.27794945e-01 -5.29519767e-02 +1.75710976e-01 +3.15429986e-01 -1.82928488e-01 -5.40037416e-02 +3.84686738e-01 +9.61809576e-01 +2.06621870e-01 -1.10090829e-01 -1.98232293e-01 +3.19360107e-01 +3.13002616e-01 -1.85873538e-01 +6.12208284e-02 +1.03011823e+00 +2.03140587e-01 +4.57860678e-01 +4.31074589e-01 +3.79431784e-01 +3.20074409e-01 -2.17838988e-01 +2.98300773e-01 -3.98070067e-01 +7.34839499e-01 -3.20578456e-01 +1.96169689e-01 +5.14710546e-02 +3.88922483e-01 -3.12524915e-01 -5.87582104e-02 +1.00877202e+00 +7.42793679e-02 +1.29123759e+00 -5.78736551e-02 +9.33172628e-02 -1.08888075e-01 -3.46062123e-03 -1.94474712e-01 +8.52446184e-02 -2.44166762e-01 +1.90597698e-01 -1.87045366e-01 +4.90395099e-01 +4.47528660e-01 +7.30295777e-02 -6.67519569e-01 +1.37367591e-01 -1.29245624e-01 -1.25450850e-01 -1.19140550e-01 -3.76758836e-02 -1.36845455e-01 -1.15717962e-01 +7.32362568e-02 -4.32415217e-01 -4.02288884e-03 -8.88139158e-02 +2.39693135e-01 -2.52715081e-01 -1.30079091e-01 -8.33329633e-02 -2.98830330e-01 +2.78666615e-01 +2.00746194e-01 -1.00285493e-01 +4.15684223e-01 +2.98892826e-01 -1.24096163e-01 +1.97285563e-01 +1.85193971e-01 -5.07149920e-02 -1.64588809e-01 +3.49538401e-02 -2.58434415e-01 +1.88843638e-01 -9.09184217e-02 -1.36658743e-01 +2.85055846e-01 +1.40050089e-03 +2.62571037e-01 +7.93789625e-01 -3.73379111e-01 +3.68977413e-02 -8.13779607e-02 -4.55479085e-01 -3.75834167e-01 -1.05791800e-01 +1.78959023e-03 -2.84875393e-01 +1.00489628e+00 -6.03076592e-02 -1.13073908e-01 +2.79868156e-01 +6.04903042e-01 +6.97717965e-01 +7.55543634e-02 +7.66043961e-01 +2.63503104e-01 +4.34276760e-01 -3.15013766e-01 -1.96461231e-01 +7.81089440e-02 -3.17651540e-01 +1.98748246e-01 +1.35676250e-01 -1.30179435e-01 +9.19826254e-02 -1.20923445e-01 +2.47819886e-01 -7.19471648e-02 -3.59974615e-02 +3.76704782e-01 +2.40484625e-02 +2.18115181e-01 +5.20820081e-01 -1.24479525e-01 +1.82775240e-02 -1.79590240e-01 -5.36521599e-02 -3.64602059e-02 -2.30757132e-01 -4.29394573e-01 -6.39141649e-02 -1.03825279e-01 +7.37701654e-02 -8.15299302e-02 -1.43452615e-01 -1.30881593e-01 +2.32803877e-02 +3.51622142e-02 -9.35509503e-02 +6.71669304e-01 -4.58676368e-02 -8.69739056e-02 -1.47780791e-01 -6.94979727e-02 -6.32805601e-02 +2.29908079e-01 -2.07998142e-01 -3.28131206e-02 -1.31703066e-02 -3.58606339e-01 -1.18088380e-01 +7.67393112e-01 -1.55713633e-01 +5.46573937e-01 +1.80988910e-03 -1.05977446e-01 +2.15081379e-01 -1.10128246e-01 -1.16659343e-01 -7.41859153e-02 -1.56244710e-01 +2.83786446e-01 -1.65134460e-01 -1.70980811e-01 -1.91245899e-01 -3.08470726e-01 -1.45301208e-01 +1.88533589e-01 +2.55424380e-01 +1.37469992e-01 -1.36589319e-01 +1.01602701e-02 +3.99912242e-03 -7.72545338e-02 -6.43233597e-01 +3.22997645e-02 +1.25384675e-02 +2.65750498e-01 -9.61061344e-02 +1.07962184e-01 +2.49671683e-01 +2.41353527e-01 +4.11544174e-01 -7.08851814e-02 -1.83165804e-01 -2.02844784e-01 +2.97206402e-01 +2.61139609e-02 +2.40522668e-01 +4.87221509e-01 -9.84011422e-06 +1.09014936e-01 +2.48270645e-03 -5.52111939e-02 +1.94740549e-01 -2.98915863e-01 -8.46594051e-02 +8.63185972e-02 +4.73210961e-03 -5.69234826e-02 -2.64426768e-01 -2.07581177e-01 -1.44851282e-01 -1.22987935e-02 -1.34333894e-01 -2.48085678e-01 -3.20340693e-01 -1.30780518e-01 -2.81314608e-02 +2.66369642e-03 +8.06604207e-01 -5.64919114e-02 +1.84798524e-01 -1.58392191e-01 +2.69221127e-01 +2.54678637e-01 -8.99955630e-02 -1.74284473e-01 -1.97314605e-01 -2.32785136e-01 +2.69484967e-01 +2.95047183e-02 -9.13591906e-02 +1.26823917e-01 -9.56338122e-02 +1.46480814e-01 +1.50789872e-01 -1.05471209e-01 +3.88427265e-03 +2.61585917e-02 +2.97356278e-01 -3.80490005e-01 -1.11894965e-01 -2.38635197e-01 -3.31676274e-05 -2.09738277e-02 -6.98704720e-02 -1.07367843e-01 +8.75920728e-02 -1.55653894e-01 -1.78571984e-01 -2.08737776e-01 -1.08401753e-01 +6.99149445e-02 -3.02214772e-01 +8.23800042e-02 +1.25665188e-01 +4.70469743e-01 -1.03755884e-01 +4.13661189e-02 -3.08390886e-01 -1.44695207e-01 -9.75582227e-02 +1.44965529e-01 -2.65401006e-02 -2.18948051e-01 -2.19171986e-01 -3.18488330e-01 -3.86147380e-01 +2.00863808e-01 +1.69815809e-01 +8.63616094e-02 -1.45431846e-01 -3.28727901e-01 +2.66462982e-01 -8.75914991e-02 -3.81985717e-02 -9.18968171e-02 +2.00067103e-01 +3.24427783e-01 +3.22377861e-01 -6.31893426e-02 -1.89244136e-01 -1.19870894e-01 -4.73633856e-02 +4.18231376e-02 +5.52913472e-02 -7.85469189e-02 -6.08358383e-02 +9.43154469e-03 -6.83812723e-02 +1.66346475e-01 -4.29738946e-02 +2.97960132e-01 -1.35465547e-01 -1.31585926e-01 -3.23510438e-01 -3.05613756e-01 -8.45013410e-02 +8.75959024e-02 -3.05719167e-01 +1.31308556e-01 -1.80103734e-01 +1.47976708e-02 -8.70481730e-02 -1.46572515e-01 +2.92387363e-02 -1.51944663e-02 -9.58197564e-02 -2.20703080e-01 -2.41253003e-02 +2.12760761e-01 -2.53022611e-01 -9.51795951e-02 -2.01654628e-01 +8.66203681e-02 -1.51923537e-01 -5.35713844e-02 +1.08507961e-01 -3.76519896e-02 -1.69894725e-01 -1.26290157e-01 +2.68546224e-01 -2.14574859e-01 +1.77460358e-01 +3.71347934e-01 -7.70594254e-02 -3.83230597e-01 -1.14429310e-01 -1.07277408e-01 +1.48629090e-02 -9.19608623e-02 +1.22729568e-02 +1.20316064e-02 +2.46042654e-01 +4.02118452e-03 -2.03079537e-01 -7.02212751e-02 -1.54393725e-02 -1.98191896e-01 -5.50826117e-02 -2.74432916e-02 -1.40006006e-01 -2.82235563e-01 -1.95385233e-01 -1.41316473e-01 -4.41952720e-02 -8.98016170e-02 +7.80104548e-02 -2.94377536e-01 +3.58219236e-01 +1.19089462e-01 -1.80621549e-01 -1.98582113e-02 -9.27268714e-02 -2.62436628e-01 -1.39292240e-01 -4.00229096e-02 +4.05152649e-01 -2.21024513e-01 +2.49822527e-01 +4.59880903e-02 +1.83161691e-01 -7.82257840e-02 -1.69879049e-01 -7.49087557e-02 -2.34251976e-01 +1.89170629e-01 -1.04029402e-01 +8.67935792e-02 +4.19395000e-01 -1.67525575e-01 -1.00889029e-02 -7.85768554e-02 -1.29211754e-01 +7.94001445e-02 -2.66801808e-02 +2.53786296e-01 -1.33732945e-01 +3.06265026e-01 -1.09756187e-01 -6.97454512e-02 -6.49421662e-02 -2.79469967e-01 +2.01190740e-01 -1.75540924e-01 -3.36019434e-02 +3.72124285e-01 -1.69257298e-01 -5.49922250e-02 -1.03787154e-01 +3.65388930e-01 -3.14136930e-02 -7.23718330e-02 -3.19426842e-02 -1.89011931e-01 +1.09354757e-01 +6.38616204e-01 -1.54167891e-01 -8.56472701e-02 -1.71871185e-01 -1.56762108e-01 -6.76779076e-02 +8.49519521e-02 +6.09218515e-02 -2.16835365e-01 -8.06651488e-02 +1.44185752e-01 -1.54323429e-01 +2.53581977e-03 -1.34617478e-01 -1.74974978e-01 -1.67070583e-01 -1.43708006e-01 +1.30208820e-01 -2.04518348e-01 -2.00684220e-01 +5.47419749e-02 -5.81900328e-02 -1.21032652e-02 +4.45708036e-02 -1.16834259e-02 +3.29518557e-01 -1.14542559e-01 -3.23140807e-02 -1.57471467e-02 -1.18507370e-01 +2.37012088e-01 -1.87536523e-01 -1.91055790e-01 +4.69768256e-01 -1.52630225e-01 -2.79537439e-02 -1.07299149e-01 -1.42837718e-01 -3.91930193e-02 +2.39346996e-01 -2.58333087e-01 +2.14780137e-01 -1.64214432e-01 -1.95089325e-01 -9.79505330e-02 +2.90804803e-01 +3.36323768e-01 -5.10244034e-02 -1.21354453e-01 -2.16964364e-01 -8.43162611e-02 -1.34130165e-01 -1.93940461e-01 -2.91814417e-01 -6.68180883e-02 -4.39928332e-03 -1.83822215e-01 -2.22330049e-01 -2.02781186e-02 -2.60338157e-01 -1.77842900e-01 +2.42745727e-01 +1.67040169e-01 +2.45835781e-01 -7.11520836e-02 -1.81853279e-01 -4.02701646e-02 -6.82305545e-02 +3.89615595e-02 +1.58991814e-01 +1.74083039e-01 +3.50461870e-01 -8.61297026e-02 +6.32863045e-02 -8.68744850e-02 +1.55574996e-02 -6.20921850e-02 -1.17004991e-01 +1.84075385e-01 +1.50687903e-01 -1.37529776e-01 +9.55682900e-03 +6.66972809e-03 -6.78346083e-02 +3.67645398e-02 -6.02238141e-02 -1.23340338e-01 +1.78316489e-01 +2.08974965e-02 -2.18356773e-02 +1.20241903e-01 +3.98581550e-02 -1.69945359e-01 -6.85346723e-02 -1.17825925e-01 -5.34859449e-02 -1.96037889e-01 -1.86374485e-01 -3.49732041e-02 -4.79047336e-02 -2.70745121e-02 -4.60423492e-02 -8.35608244e-02 +1.80204436e-01 +7.28317499e-02 +1.20414443e-01 -5.61787747e-02 -2.04874903e-01 +1.63141012e-01 +1.59980372e-01 -1.13986537e-01 -1.13124438e-01 +1.28742516e-01 -2.40760818e-01 -1.77431211e-01 -1.31642848e-01 -2.14421585e-01 -2.42455035e-01 -1.65981203e-01 -1.84424311e-01 +1.16819888e-01 +7.95738846e-02 -1.43777192e-01 -1.78903639e-01 +2.28859633e-01 +1.64281592e-01 -1.57720789e-01 +5.44046313e-02 -1.35364756e-01 -3.14904720e-01 +1.80895820e-01 -7.20090270e-02 +2.51579732e-01 -2.51108021e-01 +1.73401274e-02 +2.00319458e-02 +1.00425921e-01 -1.29036784e-01 -4.58142795e-02 -2.01293781e-01 -1.40930563e-01 +4.73884530e-02 -3.59249637e-02 +1.18493356e-01 +1.07577932e-03 +1.81667715e-01 -8.01575258e-02 +1.39615968e-01 -8.52592662e-02 +1.84368551e-01 +3.05444049e-03 +8.23808089e-02 +2.47454479e-01 -5.34613021e-02 -1.41848885e-02 -6.36238828e-02 -1.88929085e-02 -1.86594665e-01 -1.65030152e-01 +2.63169140e-01 -3.21677141e-02 -1.00832276e-01 -1.75265864e-01 -3.40042077e-02 +5.02445213e-02 -2.31201783e-01 -1.60155818e-01 +2.01515570e-01 +1.71094045e-01 +1.72165692e-01 -8.77993479e-02 -1.27179921e-01 -1.18009254e-01 -5.99193163e-02 -5.16276732e-02 -1.51553586e-01 -1.91906154e-01 -9.19499770e-02 -1.83422253e-01 +1.55242711e-01 -6.85843527e-02 -6.56353980e-02 +2.79667109e-01 -1.39964566e-01 -7.47927800e-02 -2.16585368e-01 -1.84739962e-01 +2.98992153e-02 -3.54485251e-02 -1.41927376e-01 -1.04972593e-01 -8.29840004e-02 -1.67278036e-01 +9.52794701e-02 -9.71336737e-02 +1.61313072e-01 +1.02324314e-01 -6.24714568e-02 -5.96809611e-02 -9.56739560e-02 +1.68495283e-01 -1.31179601e-01 -1.16578177e-01 -1.28526866e-01 -9.45978388e-02 -9.93279144e-02 -1.50136307e-01 +1.79468140e-01 +1.78858548e-01 -8.94615334e-03 +5.71445338e-02 +2.51468606e-02 -1.95665151e-01 -9.92547795e-02 -1.05947234e-01 -8.46899524e-02 +3.04668218e-01 -4.86540198e-02 +1.79673225e-01 +1.88280514e-03 -1.33222535e-01 +1.89385891e-01 +2.44097114e-01 +3.05941552e-01 +9.62581299e-03 -1.31982699e-01 -1.39115691e-01 -2.88721211e-02 -1.38123259e-01 -2.23534137e-01 -9.17001665e-02 -8.04663450e-02 -7.20436871e-02 -1.39166236e-01 -7.49338567e-02 -2.26339847e-01 -1.62486583e-01 +7.87809305e-03 -4.57734615e-03 -1.84408575e-01 -2.20256433e-01 -1.48624495e-01 +1.48260623e-01 -3.52629930e-01 -4.83874418e-02 -5.87947667e-02 -5.98548837e-02 -5.54558337e-02 -5.76169752e-02 -2.40117293e-02 +2.15796366e-01 -7.60594979e-02 -1.15206972e-01 +2.88363576e-01 -2.49055266e-01 +3.22138399e-01 -6.13322742e-02 -1.35482252e-01 -4.47042175e-02 +8.33573714e-02 -1.07306488e-01 -3.72025251e-01 -1.57781616e-02 -9.97328833e-02 -2.93300990e-02 +7.58242086e-02 +3.23774852e-02 +1.04376234e-01 -2.29501322e-01 -1.15834735e-02 -6.75480589e-02 +1.82851240e-01 -1.03735670e-01 +7.25380033e-02 +1.77282631e-01 +9.91169270e-03 +7.36413524e-02 +2.25822762e-01 -4.80427854e-02 -1.17986292e-01 -1.51735708e-01 +2.61814833e-01 -1.63330883e-01 -1.16654947e-01 +2.23909259e-01 -9.04394165e-02 +1.80489928e-01 +2.58154839e-01 -4.18629013e-02 -1.17186964e-01 +1.91040307e-01 +1.80165805e-02 -8.26838538e-02 -1.05761722e-01 -1.91257268e-01 -5.84441833e-02 -1.21763691e-01 -2.91985483e-03 -5.46848848e-02 +1.69663489e-01 -5.75107113e-02 -1.21415213e-01 -1.25072092e-01 +1.72589853e-01 +2.06512526e-01 +3.16699415e-01 +2.59377033e-01 -1.29853770e-01 +2.16112688e-01 -1.29975811e-01 -5.40018007e-02 -1.86029095e-02 -8.56042374e-03 -2.20787954e-02 -4.33679633e-02 -2.34637614e-02 -5.18321358e-02 -1.04927987e-01 -5.48912920e-02 -1.79120228e-01 -1.41915530e-01 +2.05625564e-01 -7.08274618e-02 -9.36828926e-02 -1.25944570e-01 -1.02989294e-01 -6.34216741e-02 -1.37912646e-01 +3.17417145e-01 +7.97702186e-03 -7.51979128e-02 +9.62768961e-03 +2.10397467e-01 +2.72436053e-01 -1.37335554e-01 -2.44261175e-01 +1.70723975e-01 +9.73709524e-02 -1.70796141e-01 -1.22853190e-01 -5.31054772e-02 -5.48358336e-02 -9.37218070e-02 -2.17061386e-01 +3.09902757e-01 -2.36369133e-01 -2.04081744e-01 -1.97564721e-01 -1.61383241e-01 -9.95486826e-02 +7.10821673e-02 -4.26695757e-02 -5.39094582e-02 -1.65660501e-01 -7.87804797e-02 -8.78606513e-02 -3.06484122e-02 -7.73420185e-02 +1.52411545e-02 -8.71042237e-02 +3.86786535e-02 -5.33196479e-02 +4.86397231e-03 +1.63001612e-01 -1.42937630e-01 +3.85249287e-01 +2.62694657e-01 +2.90600270e-01 +2.20766008e-01 +2.64302883e-02 -2.19805297e-02 -1.29797742e-01 -8.74711126e-02 -1.33916289e-01 -3.68575640e-02 -4.19953391e-02 -7.72573333e-03 +1.95354700e-01 -1.70112878e-01 -1.22631133e-01 +1.45387381e-01 +2.57539064e-01 +2.11119518e-01 -8.57552886e-02 +1.86670199e-01 +2.37268358e-02 -1.61191672e-01 +1.96096122e-01 +1.14101574e-01 -1.22648582e-01 -1.89107627e-01 -1.39472753e-01 -1.08666301e-01 +2.10224643e-01 -1.40585512e-01 -1.37275964e-01 -1.06846966e-01 +1.38238221e-01 -1.58737451e-01 +5.65823503e-02 -1.90699566e-02 -9.58375707e-02 -1.14137523e-01 +1.01013735e-01 -1.88674629e-02 -1.47210717e-01 -1.86061099e-01 -1.58482641e-01 +1.17343575e-01 -1.40886068e-01 -3.29731554e-02 -6.85407072e-02 -1.54505327e-01 -3.84093113e-02 +2.38730997e-01 -1.06051877e-01 -1.71659421e-02 -1.48871556e-01 +2.66575456e-01 +2.81172395e-02 -1.39883310e-01 -1.15885995e-01 +1.22549288e-01 -1.03630587e-01 +9.69301239e-02 -1.00850724e-01 +1.05773583e-01 -1.87995687e-01 -2.29733083e-02 -1.37312040e-01 -1.44260392e-01 -1.18477628e-01 -1.11318789e-01 -2.65242066e-02 -1.42684668e-01 -6.58729747e-02 -1.64239541e-01 -6.63885176e-02 -3.70525531e-02 -1.34585217e-01 -1.59364976e-02 +1.93982739e-02 -6.95319846e-02 -8.29221308e-02 -7.61582628e-02 -2.55866367e-02 +3.67378980e-01 +8.32158029e-01 +8.78701657e-02 -2.64568955e-01 -1.60218000e-01 -4.13173348e-01 -2.39683583e-01 +5.69243729e-02 +5.50811365e-02 +1.13319874e-01 -2.81540900e-01 -3.87375474e-01 +2.46802986e-01 -1.97188288e-01 -1.34177897e-02 -2.62132764e-01 -1.80038765e-01 -2.82218337e-01 -6.18938580e-02 -3.13848287e-01 -1.53227776e-01 +8.79010409e-02 +2.98132867e-01 +3.10902596e-01 +1.32148936e-01 -1.18667394e-01 +3.54769081e-01 +2.00426728e-01 -6.49009645e-02 -4.23612371e-02 -6.09269328e-02 +2.41829485e-01 -2.26231754e-01 +1.94343120e-01 +2.48792008e-01 -1.37178212e-01 -2.49341235e-01 +8.07599053e-02 +1.77484110e-01 -1.43982336e-01 -1.39758781e-01 -4.43648398e-01 -2.78078169e-01 -8.50895345e-02 -1.61961503e-02 -7.74840862e-02 +1.55009190e-02 -3.00792605e-01 +1.82629406e-01 -3.57654333e-01 +4.79402542e-02 -8.78526792e-02 +5.14632724e-02 -1.38780758e-01 +3.28621775e-01 -3.31658870e-01 +5.94394319e-02 -2.01056972e-01 -9.63599235e-03 -8.96788985e-02 -1.29462823e-01 +3.04603934e-01 +3.11526269e-01 +2.54247963e-01 +1.75729971e-02 -4.25154865e-01 -1.85343996e-01 -1.46032214e-01 +6.27895892e-02 -1.71627089e-01 +1.02731930e-02 -7.97746241e-01 +3.87596078e-02 +5.80014996e-02 -1.99407548e-01 +2.57641822e-01 -3.95920694e-01 -2.25668505e-01 -2.20298290e-01 -1.67010099e-01 +8.70612204e-01 -8.75044498e-05 -3.36026736e-02 -7.52992481e-02 +1.72220036e-01 +1.10902950e-01 +9.72255319e-02 +1.34445235e-01 -6.62658438e-02 -4.73625869e-01 +1.77330464e-01 +1.13588542e-01 -2.71514595e-01 -5.24553657e-02 -1.71783730e-01 +1.65189207e-01 -5.62078990e-02 -6.01285875e-01 -9.19367298e-02 -1.72346950e-01 -1.11292638e-01 +7.86105543e-02 -6.07661903e-02 -1.88207179e-02 -2.91672647e-02 -8.60535949e-02 +1.89980134e-01 +2.10274652e-01 -1.91767383e-02 +3.14965039e-01 +3.89365286e-01 +1.84310809e-01 +2.54792720e-01 +2.78919816e-01 +3.88505012e-01 +1.19765826e-01 +1.34532303e-01 +1.99586093e-01 +2.48866200e-01 -2.38206074e-01 -3.64073426e-01 -4.81042325e-01 +4.59338240e-02 -9.10306796e-02 +1.23309605e-01 +7.45713292e-03 -1.22156395e-02 +2.21635755e-02 -1.50538638e-01 -9.88613516e-02 -3.40700112e-02 -2.18399301e-01 +2.06931099e-01 +1.76203072e-01 -3.97334009e-01 -2.21821621e-01 -1.59165218e-01 +4.12743211e-01 -5.86860143e-02 +3.28670412e-01 +2.40048081e-01 +1.69966921e-01 +3.32105696e-01 +4.37004827e-02 +4.90293391e-02 +6.86333999e-02 +8.01141933e-02 +1.30039811e-01 -9.63274017e-02 +1.97695449e-01 +1.73756946e-02 -2.40473840e-02 -1.07237056e-01 -7.02601373e-02 +1.84651107e-01 +4.36478734e-01 -8.23640302e-02 -1.27194440e-02 -3.90815921e-02 +7.93960020e-02 +5.50984815e-02 -1.34022692e-02 -5.47234081e-02 +9.86533314e-02 -8.59668776e-02 -8.81170183e-02 -1.31974757e-01 +3.69337022e-01 +3.38390857e-01 -3.55888575e-01 +2.17900664e-01 -1.54884905e-01 -3.28806698e-01 -4.61210787e-01 +3.44484895e-01 +4.41509709e-02 +2.22574651e-01 +1.75374523e-01 +1.55719861e-01 +1.02150746e-01 +8.19625780e-02 +2.07073376e-01 +1.64291561e-01 -5.91664016e-02 +1.05896614e-01 -2.68154982e-02 -2.05406286e-02 -2.52401918e-01 -5.66141345e-02 -1.08863510e-01 -8.17722380e-02 +1.89197790e-02 -2.91364759e-01 -7.23719224e-02 -5.47800437e-02 +1.92071386e-02 +1.89675793e-01 +1.21242017e-01 -8.69969930e-03 -1.11661062e-01 +2.92820930e-01 -2.26102006e-02 -3.26554105e-02 +9.96017233e-02 -1.87950209e-03 +1.06943034e-01 -1.51898330e-02 -2.79724039e-02 +1.07525177e-01 +8.28363299e-02 -6.04405664e-02 +1.29597331e-03 -8.64407867e-02 -2.57746160e-01 -1.78285718e-01 +4.48912904e-02 +1.74422354e-01 -2.79817104e-01 -7.70837590e-02 +9.47102904e-03 -5.87669387e-02 +3.83684427e-01 -1.49349198e-01 -1.18316077e-01 +2.31614143e-01 -8.03925544e-02 -2.82179080e-02 +1.36155903e-01 -6.98797256e-02 -1.64695513e-02 -1.31855324e-01 -3.20587866e-02 -1.62658587e-01 -2.45513156e-01 +2.45299324e-01 +2.05470145e-01 +2.33158663e-01 +1.05636381e-02 +1.74996376e-01 +3.45918864e-01 +9.08508003e-02 +5.88489920e-02 +4.50314349e-03 -1.90415129e-01 -2.26070210e-01 -1.69935927e-01 -7.38101378e-02 -1.99522048e-01 -9.50547084e-02 -2.96510190e-01 +6.73414841e-02 +1.38575748e-01 -5.24685979e-02 -9.13434699e-02 +1.65683758e-02 +8.04571882e-02 -1.15430079e-01 -2.07823962e-01 +1.97833776e-01 -3.66809182e-02 -7.69508779e-02 +2.15814471e-01 +8.70764628e-02 -1.49240659e-03 -8.68941694e-02 -2.91117966e-01 -1.87993258e-01 -6.84465766e-02 -2.83987582e-01 -1.83335692e-01 -2.88994052e-02 -2.57152393e-02 -1.89233333e-01 -2.00369544e-02 -1.72210097e-01 -1.16599232e-01 +2.36225743e-02 -5.77652343e-02 -1.65620089e-01 -1.39681712e-01 -1.52901858e-01 +3.30591612e-02 -2.20802110e-02 -5.77362590e-02 +2.00893417e-01 +1.68253079e-01 -2.16500446e-01 -8.54818150e-02 +1.62063539e-01 